<?xml version="1.0"?>
<opencv_storage>
<cascade>
  <stageType>BOOST</stageType>
  <featureType>HAAR</featureType>
  <height>32</height>
  <width>32</width>
  <stageParams>
    <boostType>GAB</boostType>
    <minHitRate>9.9500000476837158e-01</minHitRate>
    <maxFalseAlarm>5.0000000000000000e-01</maxFalseAlarm>
    <weightTrimRate>9.4999998807907104e-01</weightTrimRate>
    <maxDepth>1</maxDepth>
    <maxWeakCount>100</maxWeakCount></stageParams>
  <featureParams>
    <maxCatCount>0</maxCatCount>
    <featSize>1</featSize>
    <mode>BASIC</mode></featureParams>
  <stageNum>9</stageNum>
  <stages>
    <!-- stage 0 -->
    <_>
      <maxWeakCount>24</maxWeakCount>
      <stageThreshold>-1.2007580995559692e+00</stageThreshold>
      <weakClassifiers>
        <_>
          <internalNodes>
            0 -1 43 -4.0130707202479243e-04</internalNodes>
          <leafValues>
            2.3584905266761780e-01 -4.2701864242553711e-01</leafValues></_>
        <_>
          <internalNodes>
            0 -1 158 -1.5815231017768383e-03</internalNodes>
          <leafValues>
            2.3272301256656647e-01 -2.7351656556129456e-01</leafValues></_>
        <_>
          <internalNodes>
            0 -1 51 5.1789940334856510e-04</internalNodes>
          <leafValues>
            -1.1660372465848923e-01 4.2173188924789429e-01</leafValues></_>
        <_>
          <internalNodes>
            0 -1 32 -1.3402837794274092e-03</internalNodes>
          <leafValues>
            3.6518388986587524e-01 -1.5150983631610870e-01</leafValues></_>
        <_>
          <internalNodes>
            0 -1 93 1.5171655453741550e-02</internalNodes>
          <leafValues>
            9.7490876913070679e-02 -5.0226521492004395e-01</leafValues></_>
        <_>
          <internalNodes>
            0 -1 180 -6.9648580392822623e-05</internalNodes>
          <leafValues>
            3.5737538337707520e-01 -1.2002473324537277e-01</leafValues></_>
        <_>
          <internalNodes>
            0 -1 78 -1.0376496240496635e-02</internalNodes>
          <leafValues>
            -8.5249418020248413e-01 4.0448866784572601e-02</leafValues></_>
        <_>
          <internalNodes>
            0 -1 52 -2.7106290217489004e-03</internalNodes>
          <leafValues>
            2.6005071401596069e-01 -1.5328584611415863e-01</leafValues></_>
        <_>
          <internalNodes>
            0 -1 53 -1.0067503899335861e-01</internalNodes>
          <leafValues>
            -5.8014398813247681e-01 5.9910897165536880e-02</leafValues></_>
        <_>
          <internalNodes>
            0 -1 77 5.0437673926353455e-03</internalNodes>
          <leafValues>
            -1.1722737550735474e-01 3.1550577282905579e-01</leafValues></_>
        <_>
          <internalNodes>
            0 -1 66 -8.1666052341461182e-02</internalNodes>
          <leafValues>
            -6.6729050874710083e-01 5.9579167515039444e-02</leafValues></_>
        <_>
          <internalNodes>
            0 -1 172 -1.0713124647736549e-03</internalNodes>
          <leafValues>
            2.2087198495864868e-01 -1.8090918660163879e-01</leafValues></_>
        <_>
          <internalNodes>
            0 -1 87 8.5405986756086349e-03</internalNodes>
          <leafValues>
            -9.4112694263458252e-02 3.9818480610847473e-01</leafValues></_>
        <_>
          <internalNodes>
            0 -1 74 -3.9191520772874355e-03</internalNodes>
          <leafValues>
            2.8775006532669067e-01 -1.3184747099876404e-01</leafValues></_>
        <_>
          <internalNodes>
            0 -1 82 -6.6992975771427155e-03</internalNodes>
          <leafValues>
            1.9721725583076477e-01 -1.9258071482181549e-01</leafValues></_>
        <_>
          <internalNodes>
            0 -1 23 -1.5242880210280418e-02</internalNodes>
          <leafValues>
            4.5113080739974976e-01 -7.8292869031429291e-02</leafValues></_>
        <_>
          <internalNodes>
            0 -1 28 -2.0660911686718464e-03</internalNodes>
          <leafValues>
            -4.0512752532958984e-01 9.7624912858009338e-02</leafValues></_>
        <_>
          <internalNodes>
            0 -1 104 -3.8843392394483089e-04</internalNodes>
          <leafValues>
            3.2389956712722778e-01 -1.1825948953628540e-01</leafValues></_>
        <_>
          <internalNodes>
            0 -1 90 -6.3276767730712891e-02</internalNodes>
          <leafValues>
            -8.0016821622848511e-01 4.6421021223068237e-02</leafValues></_>
        <_>
          <internalNodes>
            0 -1 110 -7.5337255839258432e-04</internalNodes>
          <leafValues>
            2.7376952767372131e-01 -1.3011038303375244e-01</leafValues></_>
        <_>
          <internalNodes>
            0 -1 29 1.7952821217477322e-03</internalNodes>
          <leafValues>
            -7.0730276405811310e-02 4.8453646898269653e-01</leafValues></_>
        <_>
          <internalNodes>
            0 -1 119 -8.7987549602985382e-02</internalNodes>
          <leafValues>
            4.8508727550506592e-01 -7.8087165951728821e-02</leafValues></_>
        <_>
          <internalNodes>
            0 -1 127 -2.2544187959283590e-04</internalNodes>
          <leafValues>
            2.0910455286502838e-01 -1.9514758884906769e-01</leafValues></_>
        <_>
          <internalNodes>
            0 -1 54 1.1982537806034088e-02</internalNodes>
          <leafValues>
            1.3048113882541656e-01 -2.9938739538192749e-01</leafValues></_></weakClassifiers></_>
    <!-- stage 1 -->
    <_>
      <maxWeakCount>40</maxWeakCount>
      <stageThreshold>-1.2164323329925537e+00</stageThreshold>
      <weakClassifiers>
        <_>
          <internalNodes>
            0 -1 163 2.0975535735487938e-03</internalNodes>
          <leafValues>
            -3.8772562146186829e-01 3.2173913717269897e-01</leafValues></_>
        <_>
          <internalNodes>
            0 -1 79 1.2774561345577240e-01</internalNodes>
          <leafValues>
            -1.1918536573648453e-01 3.6342963576316833e-01</leafValues></_>
        <_>
          <internalNodes>
            0 -1 60 5.0633125007152557e-02</internalNodes>
          <leafValues>
            5.8386038988828659e-02 -5.8764314651489258e-01</leafValues></_>
        <_>
          <internalNodes>
            0 -1 2 -6.8545620888471603e-04</internalNodes>
          <leafValues>
            3.8284942507743835e-01 -9.1536603868007660e-02</leafValues></_>
        <_>
          <internalNodes>
            0 -1 96 -8.1930831074714661e-03</internalNodes>
          <leafValues>
            2.9654526710510254e-01 -1.4087422192096710e-01</leafValues></_>
        <_>
          <internalNodes>
            0 -1 162 -2.2032284177839756e-03</internalNodes>
          <leafValues>
            7.3487913608551025e-01 -5.0798892974853516e-02</leafValues></_>
        <_>
          <internalNodes>
            0 -1 124 1.9995174370706081e-03</internalNodes>
          <leafValues>
            -8.9767463505268097e-02 3.8455697894096375e-01</leafValues></_>
        <_>
          <internalNodes>
            0 -1 81 1.3973101973533630e-02</internalNodes>
          <leafValues>
            -6.3743330538272858e-02 4.9284154176712036e-01</leafValues></_>
        <_>
          <internalNodes>
            0 -1 134 2.5481585413217545e-02</internalNodes>
          <leafValues>
            -6.8842783570289612e-02 4.0271082520484924e-01</leafValues></_>
        <_>
          <internalNodes>
            0 -1 14 -6.3732522539794445e-03</internalNodes>
          <leafValues>
            -7.4418389797210693e-01 4.5715741813182831e-02</leafValues></_>
        <_>
          <internalNodes>
            0 -1 177 -3.9765948895365000e-04</internalNodes>
          <leafValues>
            3.7792190909385681e-01 -8.0901853740215302e-02</leafValues></_>
        <_>
          <internalNodes>
            0 -1 142 -7.7883497579023242e-04</internalNodes>
          <leafValues>
            3.0444043874740601e-01 -1.0615510493516922e-01</leafValues></_>
        <_>
          <internalNodes>
            0 -1 131 -9.5460808370262384e-04</internalNodes>
          <leafValues>
            1.3483801484107971e-01 -2.1025337278842926e-01</leafValues></_>
        <_>
          <internalNodes>
            0 -1 129 -1.3840621709823608e-01</internalNodes>
          <leafValues>
            -7.3022377490997314e-01 6.5934553742408752e-02</leafValues></_>
        <_>
          <internalNodes>
            0 -1 88 -1.2707754503935575e-03</internalNodes>
          <leafValues>
            2.4784933030605316e-01 -1.3982373476028442e-01</leafValues></_>
        <_>
          <internalNodes>
            0 -1 98 -2.0091481506824493e-02</internalNodes>
          <leafValues>
            -8.7932187318801880e-01 6.3115820288658142e-02</leafValues></_>
        <_>
          <internalNodes>
            0 -1 168 -4.5836836099624634e-02</internalNodes>
          <leafValues>
            -5.2932590246200562e-01 4.5265786349773407e-02</leafValues></_>
        <_>
          <internalNodes>
            0 -1 49 -7.7463977504521608e-04</internalNodes>
          <leafValues>
            2.0545513927936554e-01 -1.5889771282672882e-01</leafValues></_>
        <_>
          <internalNodes>
            0 -1 153 1.1914799688383937e-04</internalNodes>
          <leafValues>
            -1.1685589700937271e-01 2.5350022315979004e-01</leafValues></_>
        <_>
          <internalNodes>
            0 -1 100 -7.8123435378074646e-04</internalNodes>
          <leafValues>
            -6.3493376970291138e-01 4.1574731469154358e-02</leafValues></_>
        <_>
          <internalNodes>
            0 -1 84 2.2129373624920845e-02</internalNodes>
          <leafValues>
            -6.3143879175186157e-02 5.0658994913101196e-01</leafValues></_>
        <_>
          <internalNodes>
            0 -1 157 -6.6441106610000134e-03</internalNodes>
          <leafValues>
            -4.1522595286369324e-01 7.1822494268417358e-02</leafValues></_>
        <_>
          <internalNodes>
            0 -1 140 -4.7221194836311042e-04</internalNodes>
          <leafValues>
            1.9439180195331573e-01 -1.7557215690612793e-01</leafValues></_>
        <_>
          <internalNodes>
            0 -1 91 9.6828246023505926e-04</internalNodes>
          <leafValues>
            1.3406182825565338e-01 -2.5012424588203430e-01</leafValues></_>
        <_>
          <internalNodes>
            0 -1 13 -1.5421485295519233e-04</internalNodes>
          <leafValues>
            2.3571373522281647e-01 -1.4327280223369598e-01</leafValues></_>
        <_>
          <internalNodes>
            0 -1 173 -4.0270644240081310e-04</internalNodes>
          <leafValues>
            1.9341410696506500e-01 -1.6678409278392792e-01</leafValues></_>
        <_>
          <internalNodes>
            0 -1 57 -2.0258208736777306e-02</internalNodes>
          <leafValues>
            2.7676358819007874e-01 -1.1297799646854401e-01</leafValues></_>
        <_>
          <internalNodes>
            0 -1 101 -3.4996028989553452e-03</internalNodes>
          <leafValues>
            1.8971897661685944e-01 -1.8015640974044800e-01</leafValues></_>
        <_>
          <internalNodes>
            0 -1 38 -5.4108607582747936e-04</internalNodes>
          <leafValues>
            3.3957311511039734e-01 -1.0461185872554779e-01</leafValues></_>
        <_>
          <internalNodes>
            0 -1 148 7.4675638461485505e-04</internalNodes>
          <leafValues>
            9.3330502510070801e-02 -3.7935200333595276e-01</leafValues></_>
        <_>
          <internalNodes>
            0 -1 151 -6.6199856810271740e-03</internalNodes>
          <leafValues>
            5.4982608556747437e-01 -6.5975897014141083e-02</leafValues></_>
        <_>
          <internalNodes>
            0 -1 80 5.9558935463428497e-03</internalNodes>
          <leafValues>
            5.1821805536746979e-02 -7.3408991098403931e-01</leafValues></_>
        <_>
          <internalNodes>
            0 -1 115 -1.9627804867923260e-03</internalNodes>
          <leafValues>
            2.3537202179431915e-01 -1.4561149477958679e-01</leafValues></_>
        <_>
          <internalNodes>
            0 -1 92 9.1945985332131386e-04</internalNodes>
          <leafValues>
            9.6897877752780914e-02 -3.2761672139167786e-01</leafValues></_>
        <_>
          <internalNodes>
            0 -1 22 -2.7147409855388105e-04</internalNodes>
          <leafValues>
            3.5096335411071777e-01 -1.0161796212196350e-01</leafValues></_>
        <_>
          <internalNodes>
            0 -1 137 1.4817861374467611e-03</internalNodes>
          <leafValues>
            5.4223317652940750e-02 -6.5172970294952393e-01</leafValues></_>
        <_>
          <internalNodes>
            0 -1 62 1.9514366984367371e-02</internalNodes>
          <leafValues>
            -5.4597750306129456e-02 7.2137182950973511e-01</leafValues></_>
        <_>
          <internalNodes>
            0 -1 175 -6.1615370213985443e-04</internalNodes>
          <leafValues>
            4.0183916687965393e-01 -7.3203466832637787e-02</leafValues></_>
        <_>
          <internalNodes>
            0 -1 64 -6.1384430155158043e-03</internalNodes>
          <leafValues>
            -5.2656686305999756e-01 6.4665600657463074e-02</leafValues></_>
        <_>
          <internalNodes>
            0 -1 7 -4.2446844279766083e-02</internalNodes>
          <leafValues>
            -4.8255544900894165e-01 6.1827920377254486e-02</leafValues></_></weakClassifiers></_>
    <!-- stage 2 -->
    <_>
      <maxWeakCount>31</maxWeakCount>
      <stageThreshold>-9.6032154560089111e-01</stageThreshold>
      <weakClassifiers>
        <_>
          <internalNodes>
            0 -1 30 4.6359095722436905e-04</internalNodes>
          <leafValues>
            -3.8945826888084412e-01 2.3880596458911896e-01</leafValues></_>
        <_>
          <internalNodes>
            0 -1 33 -2.4710458819754422e-04</internalNodes>
          <leafValues>
            2.6907211542129517e-01 -1.4987793564796448e-01</leafValues></_>
        <_>
          <internalNodes>
            0 -1 167 -6.8937829928472638e-04</internalNodes>
          <leafValues>
            4.2537260055541992e-01 -7.9454056918621063e-02</leafValues></_>
        <_>
          <internalNodes>
            0 -1 107 1.6735113458707929e-03</internalNodes>
          <leafValues>
            -1.1119119822978973e-01 2.6621803641319275e-01</leafValues></_>
        <_>
          <internalNodes>
            0 -1 106 -6.2220075051300228e-05</internalNodes>
          <leafValues>
            2.2421777248382568e-01 -1.4514310657978058e-01</leafValues></_>
        <_>
          <internalNodes>
            0 -1 75 -9.0113270562142134e-04</internalNodes>
          <leafValues>
            2.3234993219375610e-01 -1.2012659013271332e-01</leafValues></_>
        <_>
          <internalNodes>
            0 -1 8 -4.4359406456351280e-04</internalNodes>
          <leafValues>
            2.2490987181663513e-01 -1.3139326870441437e-01</leafValues></_>
        <_>
          <internalNodes>
            0 -1 170 -4.9051474779844284e-03</internalNodes>
          <leafValues>
            -5.1477295160293579e-01 9.9033884704113007e-02</leafValues></_>
        <_>
          <internalNodes>
            0 -1 150 1.8401092384010553e-03</internalNodes>
          <leafValues>
            8.6917072534561157e-02 -2.6859781146049500e-01</leafValues></_>
        <_>
          <internalNodes>
            0 -1 183 3.3130013616755605e-04</internalNodes>
          <leafValues>
            -5.5594950914382935e-02 4.2624318599700928e-01</leafValues></_>
        <_>
          <internalNodes>
            0 -1 19 -3.5045802360400558e-04</internalNodes>
          <leafValues>
            4.3156921863555908e-01 -7.5208008289337158e-02</leafValues></_>
        <_>
          <internalNodes>
            0 -1 136 9.4510521739721298e-03</internalNodes>
          <leafValues>
            -7.3652356863021851e-02 3.5258826613426208e-01</leafValues></_>
        <_>
          <internalNodes>
            0 -1 36 4.7784284688532352e-03</internalNodes>
          <leafValues>
            5.7280968874692917e-02 -5.2701926231384277e-01</leafValues></_>
        <_>
          <internalNodes>
            0 -1 0 6.0621730983257294e-02</internalNodes>
          <leafValues>
            -8.3830110728740692e-02 4.6227994561195374e-01</leafValues></_>
        <_>
          <internalNodes>
            0 -1 50 5.6905706878751516e-04</internalNodes>
          <leafValues>
            -8.7204396724700928e-02 3.4510552883148193e-01</leafValues></_>
        <_>
          <internalNodes>
            0 -1 133 -3.0749127268791199e-02</internalNodes>
          <leafValues>
            3.6670354008674622e-01 -9.5671601593494415e-02</leafValues></_>
        <_>
          <internalNodes>
            0 -1 152 5.5312912445515394e-04</internalNodes>
          <leafValues>
            -1.3125608861446381e-01 2.9931282997131348e-01</leafValues></_>
        <_>
          <internalNodes>
            0 -1 113 -7.5437466148287058e-04</internalNodes>
          <leafValues>
            -3.3201956748962402e-01 1.0268926620483398e-01</leafValues></_>
        <_>
          <internalNodes>
            0 -1 160 -5.4028788581490517e-03</internalNodes>
          <leafValues>
            -5.3150910139083862e-01 6.6749997437000275e-02</leafValues></_>
        <_>
          <internalNodes>
            0 -1 39 -2.2976927459239960e-02</internalNodes>
          <leafValues>
            -9.0583366155624390e-01 3.2073285430669785e-02</leafValues></_>
        <_>
          <internalNodes>
            0 -1 178 7.2253437247127295e-04</internalNodes>
          <leafValues>
            -9.2120818793773651e-02 4.0110170841217041e-01</leafValues></_>
        <_>
          <internalNodes>
            0 -1 132 4.3719783425331116e-03</internalNodes>
          <leafValues>
            -3.7963438779115677e-02 7.0342117547988892e-01</leafValues></_>
        <_>
          <internalNodes>
            0 -1 109 -1.9658689852803946e-03</internalNodes>
          <leafValues>
            2.2538951039314270e-01 -1.4188492298126221e-01</leafValues></_>
        <_>
          <internalNodes>
            0 -1 149 1.8972621764987707e-03</internalNodes>
          <leafValues>
            -1.6969561576843262e-01 2.0229683816432953e-01</leafValues></_>
        <_>
          <internalNodes>
            0 -1 11 -1.8797365482896566e-03</internalNodes>
          <leafValues>
            2.2281034290790558e-01 -1.4285157620906830e-01</leafValues></_>
        <_>
          <internalNodes>
            0 -1 25 1.3261167332530022e-03</internalNodes>
          <leafValues>
            1.4246559143066406e-01 -2.5243529677391052e-01</leafValues></_>
        <_>
          <internalNodes>
            0 -1 164 -1.0314565151929855e-02</internalNodes>
          <leafValues>
            -6.2590050697326660e-01 4.5168049633502960e-02</leafValues></_>
        <_>
          <internalNodes>
            0 -1 44 -3.5233004018664360e-04</internalNodes>
          <leafValues>
            1.7832127213478088e-01 -1.7100824415683746e-01</leafValues></_>
        <_>
          <internalNodes>
            0 -1 37 1.8170124385505915e-03</internalNodes>
          <leafValues>
            1.0707305371761322e-01 -3.0986028909683228e-01</leafValues></_>
        <_>
          <internalNodes>
            0 -1 103 -1.0384871857240796e-03</internalNodes>
          <leafValues>
            1.9842462241649628e-01 -1.6351306438446045e-01</leafValues></_>
        <_>
          <internalNodes>
            0 -1 68 -3.6273833829909563e-03</internalNodes>
          <leafValues>
            5.9908843040466309e-01 -5.4434340447187424e-02</leafValues></_></weakClassifiers></_>
    <!-- stage 3 -->
    <_>
      <maxWeakCount>35</maxWeakCount>
      <stageThreshold>-1.1310095787048340e+00</stageThreshold>
      <weakClassifiers>
        <_>
          <internalNodes>
            0 -1 159 -1.8663360970094800e-03</internalNodes>
          <leafValues>
            4.3529412150382996e-01 -3.7950530648231506e-01</leafValues></_>
        <_>
          <internalNodes>
            0 -1 16 2.4320497177541256e-03</internalNodes>
          <leafValues>
            -1.6272857785224915e-01 2.5578495860099792e-01</leafValues></_>
        <_>
          <internalNodes>
            0 -1 27 -2.7964788023382425e-04</internalNodes>
          <leafValues>
            3.2401376962661743e-01 -9.9298983812332153e-02</leafValues></_>
        <_>
          <internalNodes>
            0 -1 9 3.2190360128879547e-02</internalNodes>
          <leafValues>
            4.9113098531961441e-02 -8.9065140485763550e-01</leafValues></_>
        <_>
          <internalNodes>
            0 -1 12 2.2744172019883990e-04</internalNodes>
          <leafValues>
            -1.3455438613891602e-01 2.7985990047454834e-01</leafValues></_>
        <_>
          <internalNodes>
            0 -1 185 -6.3692894764244556e-04</internalNodes>
          <leafValues>
            2.8953018784523010e-01 -1.2096592038869858e-01</leafValues></_>
        <_>
          <internalNodes>
            0 -1 156 -8.7264936883002520e-04</internalNodes>
          <leafValues>
            2.4904146790504456e-01 -1.4740185439586639e-01</leafValues></_>
        <_>
          <internalNodes>
            0 -1 63 1.9688210450112820e-03</internalNodes>
          <leafValues>
            1.0872760415077209e-01 -3.0385050177574158e-01</leafValues></_>
        <_>
          <internalNodes>
            0 -1 76 6.6177304834127426e-03</internalNodes>
          <leafValues>
            7.8455306589603424e-02 -8.7718015909194946e-01</leafValues></_>
        <_>
          <internalNodes>
            0 -1 95 -3.5965940915048122e-03</internalNodes>
          <leafValues>
            5.5184906721115112e-01 -8.8906787335872650e-02</leafValues></_>
        <_>
          <internalNodes>
            0 -1 145 -7.6895434176549315e-05</internalNodes>
          <leafValues>
            2.4819920957088470e-01 -1.6835670173168182e-01</leafValues></_>
        <_>
          <internalNodes>
            0 -1 120 2.4979500100016594e-02</internalNodes>
          <leafValues>
            -5.1442626863718033e-02 8.9092236757278442e-01</leafValues></_>
        <_>
          <internalNodes>
            0 -1 141 -5.1138110458850861e-02</internalNodes>
          <leafValues>
            -6.0822963714599609e-01 8.2123503088951111e-02</leafValues></_>
        <_>
          <internalNodes>
            0 -1 144 1.2728678062558174e-02</internalNodes>
          <leafValues>
            -1.0705119371414185e-01 3.8144189119338989e-01</leafValues></_>
        <_>
          <internalNodes>
            0 -1 83 -1.4000689610838890e-02</internalNodes>
          <leafValues>
            -5.2557426691055298e-01 7.2481349110603333e-02</leafValues></_>
        <_>
          <internalNodes>
            0 -1 94 6.7172781564295292e-03</internalNodes>
          <leafValues>
            6.5669998526573181e-02 -6.1777353286743164e-01</leafValues></_>
        <_>
          <internalNodes>
            0 -1 130 2.7337346225976944e-02</internalNodes>
          <leafValues>
            -5.8510843664407730e-02 7.9265022277832031e-01</leafValues></_>
        <_>
          <internalNodes>
            0 -1 24 -5.3047709167003632e-02</internalNodes>
          <leafValues>
            -5.4914551973342896e-01 8.0114461481571198e-02</leafValues></_>
        <_>
          <internalNodes>
            0 -1 143 1.2015379033982754e-03</internalNodes>
          <leafValues>
            -1.2366306781768799e-01 3.4951117634773254e-01</leafValues></_>
        <_>
          <internalNodes>
            0 -1 67 -4.3194340541958809e-03</internalNodes>
          <leafValues>
            5.2537608146667480e-01 -7.4780948460102081e-02</leafValues></_>
        <_>
          <internalNodes>
            0 -1 97 -3.6143220961093903e-02</internalNodes>
          <leafValues>
            1. -3.7340328097343445e-02</leafValues></_>
        <_>
          <internalNodes>
            0 -1 123 2.2083043586462736e-03</internalNodes>
          <leafValues>
            -9.7385786473751068e-02 3.7660220265388489e-01</leafValues></_>
        <_>
          <internalNodes>
            0 -1 55 -1.4502585399895906e-03</internalNodes>
          <leafValues>
            6.7652982473373413e-01 -5.7283066213130951e-02</leafValues></_>
        <_>
          <internalNodes>
            0 -1 65 6.4985436620190740e-04</internalNodes>
          <leafValues>
            -1.0561413317918777e-01 3.6117544770240784e-01</leafValues></_>
        <_>
          <internalNodes>
            0 -1 108 -2.9831491410732269e-03</internalNodes>
          <leafValues>
            2.1788047254085541e-01 -1.8179087340831757e-01</leafValues></_>
        <_>
          <internalNodes>
            0 -1 176 1.6734249948058277e-04</internalNodes>
          <leafValues>
            -1.2319288402795792e-01 3.6364853382110596e-01</leafValues></_>
        <_>
          <internalNodes>
            0 -1 89 -1.1315947631374002e-03</internalNodes>
          <leafValues>
            2.3482777178287506e-01 -1.9693326950073242e-01</leafValues></_>
        <_>
          <internalNodes>
            0 -1 114 1.0236218571662903e-02</internalNodes>
          <leafValues>
            -6.8081386387348175e-02 6.5376579761505127e-01</leafValues></_>
        <_>
          <internalNodes>
            0 -1 171 -1.7970316548598930e-05</internalNodes>
          <leafValues>
            -2.0366947352886200e-01 2.2276176512241364e-01</leafValues></_>
        <_>
          <internalNodes>
            0 -1 121 1.9707361236214638e-02</internalNodes>
          <leafValues>
            7.6683565974235535e-02 -5.1137191057205200e-01</leafValues></_>
        <_>
          <internalNodes>
            0 -1 15 1.1970631312578917e-03</internalNodes>
          <leafValues>
            -7.9342529177665710e-02 5.8493709564208984e-01</leafValues></_>
        <_>
          <internalNodes>
            0 -1 6 -7.8399032354354858e-03</internalNodes>
          <leafValues>
            -6.7498302459716797e-01 6.0279820114374161e-02</leafValues></_>
        <_>
          <internalNodes>
            0 -1 48 -1.2888127821497619e-04</internalNodes>
          <leafValues>
            3.1939226388931274e-01 -1.5075510740280151e-01</leafValues></_>
        <_>
          <internalNodes>
            0 -1 20 -5.6530665606260300e-03</internalNodes>
          <leafValues>
            -5.3797733783721924e-01 8.6172409355640411e-02</leafValues></_>
        <_>
          <internalNodes>
            0 -1 1 1.0427411179989576e-03</internalNodes>
          <leafValues>
            1.1765586584806442e-01 -3.3148097991943359e-01</leafValues></_></weakClassifiers></_>
    <!-- stage 4 -->
    <_>
      <maxWeakCount>23</maxWeakCount>
      <stageThreshold>-1.0847924947738647e+00</stageThreshold>
      <weakClassifiers>
        <_>
          <internalNodes>
            0 -1 179 4.5754993334412575e-03</internalNodes>
          <leafValues>
            -3.7551581859588623e-01 1.</leafValues></_>
        <_>
          <internalNodes>
            0 -1 166 -8.9832983212545514e-04</internalNodes>
          <leafValues>
            4.3830984830856323e-01 -1.4670814573764801e-01</leafValues></_>
        <_>
          <internalNodes>
            0 -1 21 -1.3675466179847717e-03</internalNodes>
          <leafValues>
            6.4816683530807495e-01 -8.0966882407665253e-02</leafValues></_>
        <_>
          <internalNodes>
            0 -1 117 5.6149833835661411e-04</internalNodes>
          <leafValues>
            -1.3556294143199921e-01 4.0921017527580261e-01</leafValues></_>
        <_>
          <internalNodes>
            0 -1 128 1.0966725647449493e-01</internalNodes>
          <leafValues>
            -5.0316523760557175e-02 7.7185219526290894e-01</leafValues></_>
        <_>
          <internalNodes>
            0 -1 40 9.4265247753355652e-05</internalNodes>
          <leafValues>
            -1.5633147954940796e-01 3.4145852923393250e-01</leafValues></_>
        <_>
          <internalNodes>
            0 -1 61 -8.4698796272277832e-03</internalNodes>
          <leafValues>
            -5.0819432735443115e-01 1.1706852912902832e-01</leafValues></_>
        <_>
          <internalNodes>
            0 -1 35 7.7847973443567753e-03</internalNodes>
          <leafValues>
            2.0761831104755402e-01 -3.3264777064323425e-01</leafValues></_>
        <_>
          <internalNodes>
            0 -1 5 -1.1017998680472374e-02</internalNodes>
          <leafValues>
            -4.8619693517684937e-01 1.4443124830722809e-01</leafValues></_>
        <_>
          <internalNodes>
            0 -1 182 8.3541301137302071e-05</internalNodes>
          <leafValues>
            -1.7324109375476837e-01 4.3277549743652344e-01</leafValues></_>
        <_>
          <internalNodes>
            0 -1 72 -5.1745772361755371e-02</internalNodes>
          <leafValues>
            1. -5.9460435062646866e-02</leafValues></_>
        <_>
          <internalNodes>
            0 -1 169 2.5297771207988262e-04</internalNodes>
          <leafValues>
            -1.9321407377719879e-01 3.5522907972335815e-01</leafValues></_>
        <_>
          <internalNodes>
            0 -1 56 5.1544763147830963e-02</internalNodes>
          <leafValues>
            -8.6081288754940033e-02 8.4982305765151978e-01</leafValues></_>
        <_>
          <internalNodes>
            0 -1 116 -4.0884665213525295e-03</internalNodes>
          <leafValues>
            4.5579549670219421e-01 -1.3312618434429169e-01</leafValues></_>
        <_>
          <internalNodes>
            0 -1 147 -4.3139792978763580e-04</internalNodes>
          <leafValues>
            3.7516939640045166e-01 -1.9579851627349854e-01</leafValues></_>
        <_>
          <internalNodes>
            0 -1 135 5.1402645185589790e-03</internalNodes>
          <leafValues>
            -6.6394723951816559e-02 8.6130517721176147e-01</leafValues></_>
        <_>
          <internalNodes>
            0 -1 102 1.4007590943947434e-03</internalNodes>
          <leafValues>
            2.0990495383739471e-01 -3.0850213766098022e-01</leafValues></_>
        <_>
          <internalNodes>
            0 -1 125 -1.1088653700426221e-03</internalNodes>
          <leafValues>
            -3.9604079723358154e-01 1.7602869868278503e-01</leafValues></_>
        <_>
          <internalNodes>
            0 -1 155 4.1510649025440216e-03</internalNodes>
          <leafValues>
            1.4524263143539429e-01 -4.2951059341430664e-01</leafValues></_>
        <_>
          <internalNodes>
            0 -1 3 -1.5173618681728840e-02</internalNodes>
          <leafValues>
            -9.5948499441146851e-01 6.8998366594314575e-02</leafValues></_>
        <_>
          <internalNodes>
            0 -1 69 3.6933412775397301e-04</internalNodes>
          <leafValues>
            -1.9450339674949646e-01 4.1276785731315613e-01</leafValues></_>
        <_>
          <internalNodes>
            0 -1 105 -1.1689031962305307e-03</internalNodes>
          <leafValues>
            6.7683881521224976e-01 -1.0574811697006226e-01</leafValues></_>
        <_>
          <internalNodes>
            0 -1 26 6.3949357718229294e-03</internalNodes>
          <leafValues>
            1.2182468175888062e-01 -5.8082216978073120e-01</leafValues></_></weakClassifiers></_>
    <!-- stage 5 -->
    <_>
      <maxWeakCount>18</maxWeakCount>
      <stageThreshold>-1.4069472551345825e+00</stageThreshold>
      <weakClassifiers>
        <_>
          <internalNodes>
            0 -1 31 1.2178110191598535e-03</internalNodes>
          <leafValues>
            -4.2630058526992798e-01 7.7586209774017334e-01</leafValues></_>
        <_>
          <internalNodes>
            0 -1 41 7.3457539081573486e-02</internalNodes>
          <leafValues>
            -1.5081124007701874e-01 8.6571776866912842e-01</leafValues></_>
        <_>
          <internalNodes>
            0 -1 71 7.0337075158022344e-05</internalNodes>
          <leafValues>
            3.4150549769401550e-01 -2.6596060395240784e-01</leafValues></_>
        <_>
          <internalNodes>
            0 -1 161 -3.9840553654357791e-04</internalNodes>
          <leafValues>
            4.4294345378875732e-01 -2.0034751296043396e-01</leafValues></_>
        <_>
          <internalNodes>
            0 -1 181 -9.8263262771070004e-04</internalNodes>
          <leafValues>
            7.4404692649841309e-01 -1.2206931412220001e-01</leafValues></_>
        <_>
          <internalNodes>
            0 -1 138 -2.7949567884206772e-03</internalNodes>
          <leafValues>
            8.6890488862991333e-01 -8.2660600543022156e-02</leafValues></_>
        <_>
          <internalNodes>
            0 -1 47 -2.8329383349046111e-04</internalNodes>
          <leafValues>
            4.2306420207023621e-01 -1.9714322686195374e-01</leafValues></_>
        <_>
          <internalNodes>
            0 -1 184 4.2360051884315908e-04</internalNodes>
          <leafValues>
            -1.1302952468395233e-01 7.2493582963943481e-01</leafValues></_>
        <_>
          <internalNodes>
            0 -1 99 -6.9061387330293655e-04</internalNodes>
          <leafValues>
            3.9187735319137573e-01 -2.4312670528888702e-01</leafValues></_>
        <_>
          <internalNodes>
            0 -1 42 -1.5896483091637492e-04</internalNodes>
          <leafValues>
            -3.4936043620109558e-01 3.0973032116889954e-01</leafValues></_>
        <_>
          <internalNodes>
            0 -1 10 5.6516833865316585e-05</internalNodes>
          <leafValues>
            4.3468159437179565e-01 -2.4523453414440155e-01</leafValues></_>
        <_>
          <internalNodes>
            0 -1 70 -1.1245468631386757e-03</internalNodes>
          <leafValues>
            5.6723779439926147e-01 -1.9799630343914032e-01</leafValues></_>
        <_>
          <internalNodes>
            0 -1 73 1.7545331502333283e-03</internalNodes>
          <leafValues>
            2.1960285305976868e-01 -6.2644243240356445e-01</leafValues></_>
        <_>
          <internalNodes>
            0 -1 86 2.4314373731613159e-03</internalNodes>
          <leafValues>
            -1.8062038719654083e-01 7.7459543943405151e-01</leafValues></_>
        <_>
          <internalNodes>
            0 -1 139 -2.3544244468212128e-03</internalNodes>
          <leafValues>
            7.1143460273742676e-01 -1.5258815884590149e-01</leafValues></_>
        <_>
          <internalNodes>
            0 -1 59 3.3092377707362175e-03</internalNodes>
          <leafValues>
            4.3349093198776245e-01 -2.7997615933418274e-01</leafValues></_>
        <_>
          <internalNodes>
            0 -1 18 1.2167362729087472e-03</internalNodes>
          <leafValues>
            -2.1747004985809326e-01 5.1154965162277222e-01</leafValues></_>
        <_>
          <internalNodes>
            0 -1 46 3.1218881485983729e-04</internalNodes>
          <leafValues>
            -2.1825663745403290e-01 5.2122783660888672e-01</leafValues></_></weakClassifiers></_>
    <!-- stage 6 -->
    <_>
      <maxWeakCount>8</maxWeakCount>
      <stageThreshold>-1.6106317043304443e+00</stageThreshold>
      <weakClassifiers>
        <_>
          <internalNodes>
            0 -1 85 -5.5597899481654167e-03</internalNodes>
          <leafValues>
            1. -4.8809522390365601e-01</leafValues></_>
        <_>
          <internalNodes>
            0 -1 112 3.3338723005726933e-04</internalNodes>
          <leafValues>
            -3.2361909747123718e-01 6.6270124912261963e-01</leafValues></_>
        <_>
          <internalNodes>
            0 -1 34 8.7167840683832765e-04</internalNodes>
          <leafValues>
            -2.4492375552654266e-01 7.0505595207214355e-01</leafValues></_>
        <_>
          <internalNodes>
            0 -1 118 -1.1051007313653827e-03</internalNodes>
          <leafValues>
            7.6319748163223267e-01 -2.5813004374504089e-01</leafValues></_>
        <_>
          <internalNodes>
            0 -1 4 -3.8013514131307602e-03</internalNodes>
          <leafValues>
            -4.6184036135673523e-01 4.4596621394157410e-01</leafValues></_>
        <_>
          <internalNodes>
            0 -1 17 1.5327724395319819e-04</internalNodes>
          <leafValues>
            5.4534095525741577e-01 -3.6676639318466187e-01</leafValues></_>
        <_>
          <internalNodes>
            0 -1 45 -4.9733713269233704e-02</internalNodes>
          <leafValues>
            8.9511984586715698e-01 -2.8452059626579285e-01</leafValues></_>
        <_>
          <internalNodes>
            0 -1 122 -9.3379995087161660e-04</internalNodes>
          <leafValues>
            -3.6237666010856628e-01 6.3430875539779663e-01</leafValues></_></weakClassifiers></_>
    <!-- stage 7 -->
    <_>
      <maxWeakCount>5</maxWeakCount>
      <stageThreshold>-8.7460982799530029e-01</stageThreshold>
      <weakClassifiers>
        <_>
          <internalNodes>
            0 -1 126 4.9130409024655819e-03</internalNodes>
          <leafValues>
            1. -6.1943322420120239e-01</leafValues></_>
        <_>
          <internalNodes>
            0 -1 154 -1.0886092786677182e-04</internalNodes>
          <leafValues>
            1. -3.5565233230590820e-01</leafValues></_>
        <_>
          <internalNodes>
            0 -1 174 -8.0546626122668386e-05</internalNodes>
          <leafValues>
            1. -2.5146493315696716e-01</leafValues></_>
        <_>
          <internalNodes>
            0 -1 58 3.3425593283027411e-03</internalNodes>
          <leafValues>
            7.4795669317245483e-01 -4.2388141155242920e-01</leafValues></_>
        <_>
          <internalNodes>
            0 -1 165 6.2724684539716691e-05</internalNodes>
          <leafValues>
            7.7582204341888428e-01 -3.9009702205657959e-01</leafValues></_></weakClassifiers></_>
    <!-- stage 8 -->
    <_>
      <maxWeakCount>2</maxWeakCount>
      <stageThreshold>2.5666337460279465e-02</stageThreshold>
      <weakClassifiers>
        <_>
          <internalNodes>
            0 -1 111 2.8935451060533524e-02</internalNodes>
          <leafValues>
            1. -9.7433364391326904e-01</leafValues></_>
        <_>
          <internalNodes>
            0 -1 146 -5.8479132130742073e-03</internalNodes>
          <leafValues>
            -9.4502359628677368e-01 1.</leafValues></_></weakClassifiers></_></stages>
  <features>
    <_>
      <rects>
        <_>
          0 0 12 18 -1.</_>
        <_>
          4 0 4 18 3.</_></rects>
      <tilted>0</tilted></_>
    <_>
      <rects>
        <_>
          0 0 15 3 -1.</_>
        <_>
          0 1 15 1 3.</_></rects>
      <tilted>0</tilted></_>
    <_>
      <rects>
        <_>
          0 2 4 4 -1.</_>
        <_>
          0 2 2 2 2.</_>
        <_>
          2 4 2 2 2.</_></rects>
      <tilted>0</tilted></_>
    <_>
      <rects>
        <_>
          0 3 7 4 -1.</_>
        <_>
          0 5 7 2 2.</_></rects>
      <tilted>0</tilted></_>
    <_>
      <rects>
        <_>
          0 5 32 2 -1.</_>
        <_>
          0 6 32 1 2.</_></rects>
      <tilted>0</tilted></_>
    <_>
      <rects>
        <_>
          0 6 1 24 -1.</_>
        <_>
          0 18 1 12 2.</_></rects>
      <tilted>0</tilted></_>
    <_>
      <rects>
        <_>
          0 6 2 26 -1.</_>
        <_>
          0 6 1 13 2.</_>
        <_>
          1 19 1 13 2.</_></rects>
      <tilted>0</tilted></_>
    <_>
      <rects>
        <_>
          0 7 4 24 -1.</_>
        <_>
          0 15 4 8 3.</_></rects>
      <tilted>0</tilted></_>
    <_>
      <rects>
        <_>
          0 8 1 9 -1.</_>
        <_>
          0 11 1 3 3.</_></rects>
      <tilted>0</tilted></_>
    <_>
      <rects>
        <_>
          0 12 2 20 -1.</_>
        <_>
          0 22 2 10 2.</_></rects>
      <tilted>0</tilted></_>
    <_>
      <rects>
        <_>
          0 13 2 6 -1.</_>
        <_>
          0 13 1 3 2.</_>
        <_>
          1 16 1 3 2.</_></rects>
      <tilted>0</tilted></_>
    <_>
      <rects>
        <_>
          0 14 7 9 -1.</_>
        <_>
          0 17 7 3 3.</_></rects>
      <tilted>0</tilted></_>
    <_>
      <rects>
        <_>
          0 19 1 6 -1.</_>
        <_>
          0 22 1 3 2.</_></rects>
      <tilted>0</tilted></_>
    <_>
      <rects>
        <_>
          0 19 4 2 -1.</_>
        <_>
          0 19 2 1 2.</_>
        <_>
          2 20 2 1 2.</_></rects>
      <tilted>0</tilted></_>
    <_>
      <rects>
        <_>
          0 21 18 3 -1.</_>
        <_>
          0 22 18 1 3.</_></rects>
      <tilted>0</tilted></_>
    <_>
      <rects>
        <_>
          0 23 4 3 -1.</_>
        <_>
          0 24 4 1 3.</_></rects>
      <tilted>0</tilted></_>
    <_>
      <rects>
        <_>
          0 24 6 5 -1.</_>
        <_>
          2 24 2 5 3.</_></rects>
      <tilted>0</tilted></_>
    <_>
      <rects>
        <_>
          0 25 4 4 -1.</_>
        <_>
          0 25 2 2 2.</_>
        <_>
          2 27 2 2 2.</_></rects>
      <tilted>0</tilted></_>
    <_>
      <rects>
        <_>
          0 26 14 3 -1.</_>
        <_>
          0 27 14 1 3.</_></rects>
      <tilted>0</tilted></_>
    <_>
      <rects>
        <_>
          0 27 1 2 -1.</_>
        <_>
          0 28 1 1 2.</_></rects>
      <tilted>0</tilted></_>
    <_>
      <rects>
        <_>
          0 30 8 2 -1.</_>
        <_>
          4 30 4 2 2.</_></rects>
      <tilted>0</tilted></_>
    <_>
      <rects>
        <_>
          0 30 5 2 -1.</_>
        <_>
          0 31 5 1 2.</_></rects>
      <tilted>0</tilted></_>
    <_>
      <rects>
        <_>
          0 31 2 1 -1.</_>
        <_>
          1 31 1 1 2.</_></rects>
      <tilted>0</tilted></_>
    <_>
      <rects>
        <_>
          1 12 10 8 -1.</_>
        <_>
          1 12 5 4 2.</_>
        <_>
          6 16 5 4 2.</_></rects>
      <tilted>0</tilted></_>
    <_>
      <rects>
        <_>
          1 13 31 9 -1.</_>
        <_>
          1 16 31 3 3.</_></rects>
      <tilted>0</tilted></_>
    <_>
      <rects>
        <_>
          1 19 2 12 -1.</_>
        <_>
          1 23 2 4 3.</_></rects>
      <tilted>0</tilted></_>
    <_>
      <rects>
        <_>
          1 27 12 1 -1.</_>
        <_>
          5 27 4 1 3.</_></rects>
      <tilted>0</tilted></_>
    <_>
      <rects>
        <_>
          1 29 3 2 -1.</_>
        <_>
          2 29 1 2 3.</_></rects>
      <tilted>0</tilted></_>
    <_>
      <rects>
        <_>
          1 29 11 3 -1.</_>
        <_>
          1 30 11 1 3.</_></rects>
      <tilted>0</tilted></_>
    <_>
      <rects>
        <_>
          1 30 4 2 -1.</_>
        <_>
          3 30 2 2 2.</_></rects>
      <tilted>0</tilted></_>
    <_>
      <rects>
        <_>
          1 31 2 1 -1.</_>
        <_>
          2 31 1 1 2.</_></rects>
      <tilted>0</tilted></_>
    <_>
      <rects>
        <_>
          1 31 6 1 -1.</_>
        <_>
          3 31 2 1 3.</_></rects>
      <tilted>0</tilted></_>
    <_>
      <rects>
        <_>
          1 31 12 1 -1.</_>
        <_>
          5 31 4 1 3.</_></rects>
      <tilted>0</tilted></_>
    <_>
      <rects>
        <_>
          2 0 6 1 -1.</_>
        <_>
          5 0 3 1 2.</_></rects>
      <tilted>0</tilted></_>
    <_>
      <rects>
        <_>
          2 1 2 30 -1.</_>
        <_>
          3 1 1 30 2.</_></rects>
      <tilted>0</tilted></_>
    <_>
      <rects>
        <_>
          2 2 2 22 -1.</_>
        <_>
          2 13 2 11 2.</_></rects>
      <tilted>0</tilted></_>
    <_>
      <rects>
        <_>
          2 6 6 2 -1.</_>
        <_>
          4 6 2 2 3.</_></rects>
      <tilted>0</tilted></_>
    <_>
      <rects>
        <_>
          2 12 3 9 -1.</_>
        <_>
          3 12 1 9 3.</_></rects>
      <tilted>0</tilted></_>
    <_>
      <rects>
        <_>
          2 13 3 3 -1.</_>
        <_>
          2 14 3 1 3.</_></rects>
      <tilted>0</tilted></_>
    <_>
      <rects>
        <_>
          2 19 11 6 -1.</_>
        <_>
          2 21 11 2 3.</_></rects>
      <tilted>0</tilted></_>
    <_>
      <rects>
        <_>
          2 21 3 1 -1.</_>
        <_>
          3 21 1 1 3.</_></rects>
      <tilted>0</tilted></_>
    <_>
      <rects>
        <_>
          2 22 20 10 -1.</_>
        <_>
          12 22 10 10 2.</_></rects>
      <tilted>0</tilted></_>
    <_>
      <rects>
        <_>
          2 30 4 2 -1.</_>
        <_>
          4 30 2 2 2.</_></rects>
      <tilted>0</tilted></_>
    <_>
      <rects>
        <_>
          3 0 2 2 -1.</_>
        <_>
          4 0 1 2 2.</_></rects>
      <tilted>0</tilted></_>
    <_>
      <rects>
        <_>
          3 0 6 6 -1.</_>
        <_>
          5 0 2 6 3.</_></rects>
      <tilted>0</tilted></_>
    <_>
      <rects>
        <_>
          3 1 14 30 -1.</_>
        <_>
          3 11 14 10 3.</_></rects>
      <tilted>0</tilted></_>
    <_>
      <rects>
        <_>
          3 8 5 2 -1.</_>
        <_>
          3 9 5 1 2.</_></rects>
      <tilted>0</tilted></_>
    <_>
      <rects>
        <_>
          3 10 3 6 -1.</_>
        <_>
          3 12 3 2 3.</_></rects>
      <tilted>0</tilted></_>
    <_>
      <rects>
        <_>
          3 13 1 2 -1.</_>
        <_>
          3 14 1 1 2.</_></rects>
      <tilted>0</tilted></_>
    <_>
      <rects>
        <_>
          3 27 6 3 -1.</_>
        <_>
          5 27 2 3 3.</_></rects>
      <tilted>0</tilted></_>
    <_>
      <rects>
        <_>
          3 28 3 3 -1.</_>
        <_>
          4 28 1 3 3.</_></rects>
      <tilted>0</tilted></_>
    <_>
      <rects>
        <_>
          3 31 4 1 -1.</_>
        <_>
          5 31 2 1 2.</_></rects>
      <tilted>0</tilted></_>
    <_>
      <rects>
        <_>
          4 1 15 2 -1.</_>
        <_>
          9 1 5 2 3.</_></rects>
      <tilted>0</tilted></_>
    <_>
      <rects>
        <_>
          4 3 24 15 -1.</_>
        <_>
          4 8 24 5 3.</_></rects>
      <tilted>0</tilted></_>
    <_>
      <rects>
        <_>
          4 9 20 10 -1.</_>
        <_>
          4 9 10 5 2.</_>
        <_>
          14 14 10 5 2.</_></rects>
      <tilted>0</tilted></_>
    <_>
      <rects>
        <_>
          4 14 2 4 -1.</_>
        <_>
          4 14 1 2 2.</_>
        <_>
          5 16 1 2 2.</_></rects>
      <tilted>0</tilted></_>
    <_>
      <rects>
        <_>
          4 18 24 3 -1.</_>
        <_>
          12 18 8 3 3.</_></rects>
      <tilted>0</tilted></_>
    <_>
      <rects>
        <_>
          4 18 16 14 -1.</_>
        <_>
          4 18 8 7 2.</_>
        <_>
          12 25 8 7 2.</_></rects>
      <tilted>0</tilted></_>
    <_>
      <rects>
        <_>
          4 23 10 2 -1.</_>
        <_>
          9 23 5 2 2.</_></rects>
      <tilted>0</tilted></_>
    <_>
      <rects>
        <_>
          4 26 18 5 -1.</_>
        <_>
          10 26 6 5 3.</_></rects>
      <tilted>0</tilted></_>
    <_>
      <rects>
        <_>
          4 26 25 6 -1.</_>
        <_>
          4 29 25 3 2.</_></rects>
      <tilted>0</tilted></_>
    <_>
      <rects>
        <_>
          5 7 1 21 -1.</_>
        <_>
          5 14 1 7 3.</_></rects>
      <tilted>0</tilted></_>
    <_>
      <rects>
        <_>
          5 10 6 4 -1.</_>
        <_>
          8 10 3 4 2.</_></rects>
      <tilted>0</tilted></_>
    <_>
      <rects>
        <_>
          5 13 1 16 -1.</_>
        <_>
          5 21 1 8 2.</_></rects>
      <tilted>0</tilted></_>
    <_>
      <rects>
        <_>
          5 21 12 1 -1.</_>
        <_>
          9 21 4 1 3.</_></rects>
      <tilted>0</tilted></_>
    <_>
      <rects>
        <_>
          5 28 4 1 -1.</_>
        <_>
          7 28 2 1 2.</_></rects>
      <tilted>0</tilted></_>
    <_>
      <rects>
        <_>
          6 10 19 12 -1.</_>
        <_>
          6 14 19 4 3.</_></rects>
      <tilted>0</tilted></_>
    <_>
      <rects>
        <_>
          6 14 4 6 -1.</_>
        <_>
          6 14 2 3 2.</_>
        <_>
          8 17 2 3 2.</_></rects>
      <tilted>0</tilted></_>
    <_>
      <rects>
        <_>
          6 21 12 2 -1.</_>
        <_>
          6 21 6 1 2.</_>
        <_>
          12 22 6 1 2.</_></rects>
      <tilted>0</tilted></_>
    <_>
      <rects>
        <_>
          6 29 3 3 -1.</_>
        <_>
          7 29 1 3 3.</_></rects>
      <tilted>0</tilted></_>
    <_>
      <rects>
        <_>
          7 3 6 3 -1.</_>
        <_>
          9 3 2 3 3.</_></rects>
      <tilted>0</tilted></_>
    <_>
      <rects>
        <_>
          7 21 2 1 -1.</_>
        <_>
          8 21 1 1 2.</_></rects>
      <tilted>0</tilted></_>
    <_>
      <rects>
        <_>
          8 1 3 26 -1.</_>
        <_>
          8 14 3 13 2.</_></rects>
      <tilted>0</tilted></_>
    <_>
      <rects>
        <_>
          8 3 2 8 -1.</_>
        <_>
          8 3 1 4 2.</_>
        <_>
          9 7 1 4 2.</_></rects>
      <tilted>0</tilted></_>
    <_>
      <rects>
        <_>
          8 4 16 2 -1.</_>
        <_>
          16 4 8 2 2.</_></rects>
      <tilted>0</tilted></_>
    <_>
      <rects>
        <_>
          8 7 14 2 -1.</_>
        <_>
          8 7 7 1 2.</_>
        <_>
          15 8 7 1 2.</_></rects>
      <tilted>0</tilted></_>
    <_>
      <rects>
        <_>
          8 13 16 2 -1.</_>
        <_>
          8 13 8 1 2.</_>
        <_>
          16 14 8 1 2.</_></rects>
      <tilted>0</tilted></_>
    <_>
      <rects>
        <_>
          8 16 6 8 -1.</_>
        <_>
          8 16 3 4 2.</_>
        <_>
          11 20 3 4 2.</_></rects>
      <tilted>0</tilted></_>
    <_>
      <rects>
        <_>
          8 30 18 2 -1.</_>
        <_>
          8 31 18 1 2.</_></rects>
      <tilted>0</tilted></_>
    <_>
      <rects>
        <_>
          9 0 21 20 -1.</_>
        <_>
          16 0 7 20 3.</_></rects>
      <tilted>0</tilted></_>
    <_>
      <rects>
        <_>
          9 0 11 3 -1.</_>
        <_>
          9 1 11 1 3.</_></rects>
      <tilted>0</tilted></_>
    <_>
      <rects>
        <_>
          9 4 20 4 -1.</_>
        <_>
          9 4 10 2 2.</_>
        <_>
          19 6 10 2 2.</_></rects>
      <tilted>0</tilted></_>
    <_>
      <rects>
        <_>
          9 13 12 15 -1.</_>
        <_>
          13 13 4 15 3.</_></rects>
      <tilted>0</tilted></_>
    <_>
      <rects>
        <_>
          9 15 12 2 -1.</_>
        <_>
          15 15 6 2 2.</_></rects>
      <tilted>0</tilted></_>
    <_>
      <rects>
        <_>
          9 20 14 8 -1.</_>
        <_>
          9 20 7 4 2.</_>
        <_>
          16 24 7 4 2.</_></rects>
      <tilted>0</tilted></_>
    <_>
      <rects>
        <_>
          9 22 6 6 -1.</_>
        <_>
          12 22 3 6 2.</_></rects>
      <tilted>0</tilted></_>
    <_>
      <rects>
        <_>
          10 1 12 1 -1.</_>
        <_>
          16 1 6 1 2.</_></rects>
      <tilted>0</tilted></_>
    <_>
      <rects>
        <_>
          10 1 12 6 -1.</_>
        <_>
          10 1 6 3 2.</_>
        <_>
          16 4 6 3 2.</_></rects>
      <tilted>0</tilted></_>
    <_>
      <rects>
        <_>
          10 2 4 3 -1.</_>
        <_>
          12 2 2 3 2.</_></rects>
      <tilted>0</tilted></_>
    <_>
      <rects>
        <_>
          10 2 16 12 -1.</_>
        <_>
          10 2 8 6 2.</_>
        <_>
          18 8 8 6 2.</_></rects>
      <tilted>0</tilted></_>
    <_>
      <rects>
        <_>
          10 12 9 20 -1.</_>
        <_>
          13 12 3 20 3.</_></rects>
      <tilted>0</tilted></_>
    <_>
      <rects>
        <_>
          10 18 17 3 -1.</_>
        <_>
          10 19 17 1 3.</_></rects>
      <tilted>0</tilted></_>
    <_>
      <rects>
        <_>
          10 28 5 3 -1.</_>
        <_>
          10 29 5 1 3.</_></rects>
      <tilted>0</tilted></_>
    <_>
      <rects>
        <_>
          10 28 15 4 -1.</_>
        <_>
          10 30 15 2 2.</_></rects>
      <tilted>0</tilted></_>
    <_>
      <rects>
        <_>
          10 29 21 3 -1.</_>
        <_>
          10 30 21 1 3.</_></rects>
      <tilted>0</tilted></_>
    <_>
      <rects>
        <_>
          10 30 6 2 -1.</_>
        <_>
          12 30 2 2 3.</_></rects>
      <tilted>0</tilted></_>
    <_>
      <rects>
        <_>
          11 0 8 12 -1.</_>
        <_>
          11 0 4 6 2.</_>
        <_>
          15 6 4 6 2.</_></rects>
      <tilted>0</tilted></_>
    <_>
      <rects>
        <_>
          11 0 14 4 -1.</_>
        <_>
          18 0 7 4 2.</_></rects>
      <tilted>0</tilted></_>
    <_>
      <rects>
        <_>
          11 4 6 6 -1.</_>
        <_>
          13 4 2 6 3.</_></rects>
      <tilted>0</tilted></_>
    <_>
      <rects>
        <_>
          11 9 6 8 -1.</_>
        <_>
          13 9 2 8 3.</_></rects>
      <tilted>0</tilted></_>
    <_>
      <rects>
        <_>
          11 13 1 3 -1.</_>
        <_>
          11 14 1 1 3.</_></rects>
      <tilted>0</tilted></_>
    <_>
      <rects>
        <_>
          11 13 9 8 -1.</_>
        <_>
          14 13 3 8 3.</_></rects>
      <tilted>0</tilted></_>
    <_>
      <rects>
        <_>
          11 21 6 2 -1.</_>
        <_>
          13 21 2 2 3.</_></rects>
      <tilted>0</tilted></_>
    <_>
      <rects>
        <_>
          11 24 17 6 -1.</_>
        <_>
          11 26 17 2 3.</_></rects>
      <tilted>0</tilted></_>
    <_>
      <rects>
        <_>
          11 29 3 2 -1.</_>
        <_>
          12 29 1 2 3.</_></rects>
      <tilted>0</tilted></_>
    <_>
      <rects>
        <_>
          12 0 6 1 -1.</_>
        <_>
          15 0 3 1 2.</_></rects>
      <tilted>0</tilted></_>
    <_>
      <rects>
        <_>
          12 1 3 1 -1.</_>
        <_>
          13 1 1 1 3.</_></rects>
      <tilted>0</tilted></_>
    <_>
      <rects>
        <_>
          12 1 8 4 -1.</_>
        <_>
          12 1 4 2 2.</_>
        <_>
          16 3 4 2 2.</_></rects>
      <tilted>0</tilted></_>
    <_>
      <rects>
        <_>
          12 6 9 14 -1.</_>
        <_>
          15 6 3 14 3.</_></rects>
      <tilted>0</tilted></_>
    <_>
      <rects>
        <_>
          12 7 18 6 -1.</_>
        <_>
          18 7 6 6 3.</_></rects>
      <tilted>0</tilted></_>
    <_>
      <rects>
        <_>
          12 29 6 2 -1.</_>
        <_>
          14 29 2 2 3.</_></rects>
      <tilted>0</tilted></_>
    <_>
      <rects>
        <_>
          13 4 12 3 -1.</_>
        <_>
          17 4 4 3 3.</_></rects>
      <tilted>0</tilted></_>
    <_>
      <rects>
        <_>
          13 10 2 20 -1.</_>
        <_>
          14 10 1 20 2.</_></rects>
      <tilted>0</tilted></_>
    <_>
      <rects>
        <_>
          13 11 5 3 -1.</_>
        <_>
          13 12 5 1 3.</_></rects>
      <tilted>0</tilted></_>
    <_>
      <rects>
        <_>
          13 13 6 4 -1.</_>
        <_>
          16 13 3 4 2.</_></rects>
      <tilted>0</tilted></_>
    <_>
      <rects>
        <_>
          13 15 4 10 -1.</_>
        <_>
          13 15 2 5 2.</_>
        <_>
          15 20 2 5 2.</_></rects>
      <tilted>0</tilted></_>
    <_>
      <rects>
        <_>
          13 23 10 6 -1.</_>
        <_>
          13 23 5 3 2.</_>
        <_>
          18 26 5 3 2.</_></rects>
      <tilted>0</tilted></_>
    <_>
      <rects>
        <_>
          13 28 2 3 -1.</_>
        <_>
          14 28 1 3 2.</_></rects>
      <tilted>0</tilted></_>
    <_>
      <rects>
        <_>
          14 0 4 25 -1.</_>
        <_>
          16 0 2 25 2.</_></rects>
      <tilted>0</tilted></_>
    <_>
      <rects>
        <_>
          14 12 8 18 -1.</_>
        <_>
          14 21 8 9 2.</_></rects>
      <tilted>0</tilted></_>
    <_>
      <rects>
        <_>
          14 13 15 2 -1.</_>
        <_>
          19 13 5 2 3.</_></rects>
      <tilted>0</tilted></_>
    <_>
      <rects>
        <_>
          14 15 6 12 -1.</_>
        <_>
          17 15 3 12 2.</_></rects>
      <tilted>0</tilted></_>
    <_>
      <rects>
        <_>
          14 17 9 6 -1.</_>
        <_>
          14 19 9 2 3.</_></rects>
      <tilted>0</tilted></_>
    <_>
      <rects>
        <_>
          14 26 6 4 -1.</_>
        <_>
          14 26 3 2 2.</_>
        <_>
          17 28 3 2 2.</_></rects>
      <tilted>0</tilted></_>
    <_>
      <rects>
        <_>
          14 30 6 2 -1.</_>
        <_>
          16 30 2 2 3.</_></rects>
      <tilted>0</tilted></_>
    <_>
      <rects>
        <_>
          15 1 4 3 -1.</_>
        <_>
          15 2 4 1 3.</_></rects>
      <tilted>0</tilted></_>
    <_>
      <rects>
        <_>
          15 3 12 6 -1.</_>
        <_>
          19 3 4 6 3.</_></rects>
      <tilted>0</tilted></_>
    <_>
      <rects>
        <_>
          15 8 1 9 -1.</_>
        <_>
          15 11 1 3 3.</_></rects>
      <tilted>0</tilted></_>
    <_>
      <rects>
        <_>
          15 10 15 19 -1.</_>
        <_>
          20 10 5 19 3.</_></rects>
      <tilted>0</tilted></_>
    <_>
      <rects>
        <_>
          15 12 16 18 -1.</_>
        <_>
          15 18 16 6 3.</_></rects>
      <tilted>0</tilted></_>
    <_>
      <rects>
        <_>
          15 14 2 18 -1.</_>
        <_>
          15 23 2 9 2.</_></rects>
      <tilted>0</tilted></_>
    <_>
      <rects>
        <_>
          16 1 1 24 -1.</_>
        <_>
          16 13 1 12 2.</_></rects>
      <tilted>0</tilted></_>
    <_>
      <rects>
        <_>
          16 3 4 4 -1.</_>
        <_>
          16 3 2 2 2.</_>
        <_>
          18 5 2 2 2.</_></rects>
      <tilted>0</tilted></_>
    <_>
      <rects>
        <_>
          16 15 14 5 -1.</_>
        <_>
          23 15 7 5 2.</_></rects>
      <tilted>0</tilted></_>
    <_>
      <rects>
        <_>
          16 19 16 8 -1.</_>
        <_>
          16 19 8 4 2.</_>
        <_>
          24 23 8 4 2.</_></rects>
      <tilted>0</tilted></_>
    <_>
      <rects>
        <_>
          16 27 4 4 -1.</_>
        <_>
          18 27 2 4 2.</_></rects>
      <tilted>0</tilted></_>
    <_>
      <rects>
        <_>
          17 7 6 10 -1.</_>
        <_>
          17 7 3 5 2.</_>
        <_>
          20 12 3 5 2.</_></rects>
      <tilted>0</tilted></_>
    <_>
      <rects>
        <_>
          17 8 2 3 -1.</_>
        <_>
          17 9 2 1 3.</_></rects>
      <tilted>0</tilted></_>
    <_>
      <rects>
        <_>
          17 12 4 6 -1.</_>
        <_>
          17 12 2 3 2.</_>
        <_>
          19 15 2 3 2.</_></rects>
      <tilted>0</tilted></_>
    <_>
      <rects>
        <_>
          18 0 2 21 -1.</_>
        <_>
          19 0 1 21 2.</_></rects>
      <tilted>0</tilted></_>
    <_>
      <rects>
        <_>
          18 3 12 4 -1.</_>
        <_>
          22 3 4 4 3.</_></rects>
      <tilted>0</tilted></_>
    <_>
      <rects>
        <_>
          18 10 8 12 -1.</_>
        <_>
          18 16 8 6 2.</_></rects>
      <tilted>0</tilted></_>
    <_>
      <rects>
        <_>
          18 22 2 6 -1.</_>
        <_>
          18 22 1 3 2.</_>
        <_>
          19 25 1 3 2.</_></rects>
      <tilted>0</tilted></_>
    <_>
      <rects>
        <_>
          19 0 6 4 -1.</_>
        <_>
          19 0 3 2 2.</_>
        <_>
          22 2 3 2 2.</_></rects>
      <tilted>0</tilted></_>
    <_>
      <rects>
        <_>
          19 8 13 9 -1.</_>
        <_>
          19 11 13 3 3.</_></rects>
      <tilted>0</tilted></_>
    <_>
      <rects>
        <_>
          19 9 1 2 -1.</_>
        <_>
          19 10 1 1 2.</_></rects>
      <tilted>0</tilted></_>
    <_>
      <rects>
        <_>
          20 4 9 1 -1.</_>
        <_>
          23 4 3 1 3.</_></rects>
      <tilted>0</tilted></_>
    <_>
      <rects>
        <_>
          20 6 4 3 -1.</_>
        <_>
          20 7 4 1 3.</_></rects>
      <tilted>0</tilted></_>
    <_>
      <rects>
        <_>
          20 13 4 2 -1.</_>
        <_>
          20 14 4 1 2.</_></rects>
      <tilted>0</tilted></_>
    <_>
      <rects>
        <_>
          21 7 4 18 -1.</_>
        <_>
          21 7 2 9 2.</_>
        <_>
          23 16 2 9 2.</_></rects>
      <tilted>0</tilted></_>
    <_>
      <rects>
        <_>
          21 7 8 20 -1.</_>
        <_>
          21 17 8 10 2.</_></rects>
      <tilted>0</tilted></_>
    <_>
      <rects>
        <_>
          21 10 2 22 -1.</_>
        <_>
          21 10 1 11 2.</_>
        <_>
          22 21 1 11 2.</_></rects>
      <tilted>0</tilted></_>
    <_>
      <rects>
        <_>
          21 14 4 1 -1.</_>
        <_>
          23 14 2 1 2.</_></rects>
      <tilted>0</tilted></_>
    <_>
      <rects>
        <_>
          22 2 2 2 -1.</_>
        <_>
          23 2 1 2 2.</_></rects>
      <tilted>0</tilted></_>
    <_>
      <rects>
        <_>
          22 5 1 6 -1.</_>
        <_>
          22 8 1 3 2.</_></rects>
      <tilted>0</tilted></_>
    <_>
      <rects>
        <_>
          22 13 4 10 -1.</_>
        <_>
          22 13 2 5 2.</_>
        <_>
          24 18 2 5 2.</_></rects>
      <tilted>0</tilted></_>
    <_>
      <rects>
        <_>
          22 19 6 4 -1.</_>
        <_>
          24 19 2 4 3.</_></rects>
      <tilted>0</tilted></_>
    <_>
      <rects>
        <_>
          23 0 3 6 -1.</_>
        <_>
          23 3 3 3 2.</_></rects>
      <tilted>0</tilted></_>
    <_>
      <rects>
        <_>
          23 14 1 18 -1.</_>
        <_>
          23 23 1 9 2.</_></rects>
      <tilted>0</tilted></_>
    <_>
      <rects>
        <_>
          24 0 8 2 -1.</_>
        <_>
          24 0 4 1 2.</_>
        <_>
          28 1 4 1 2.</_></rects>
      <tilted>0</tilted></_>
    <_>
      <rects>
        <_>
          24 14 3 12 -1.</_>
        <_>
          25 14 1 12 3.</_></rects>
      <tilted>0</tilted></_>
    <_>
      <rects>
        <_>
          24 24 8 2 -1.</_>
        <_>
          24 25 8 1 2.</_></rects>
      <tilted>0</tilted></_>
    <_>
      <rects>
        <_>
          24 31 4 1 -1.</_>
        <_>
          26 31 2 1 2.</_></rects>
      <tilted>0</tilted></_>
    <_>
      <rects>
        <_>
          24 31 6 1 -1.</_>
        <_>
          26 31 2 1 3.</_></rects>
      <tilted>0</tilted></_>
    <_>
      <rects>
        <_>
          25 1 1 15 -1.</_>
        <_>
          25 6 1 5 3.</_></rects>
      <tilted>0</tilted></_>
    <_>
      <rects>
        <_>
          25 2 6 1 -1.</_>
        <_>
          27 2 2 1 3.</_></rects>
      <tilted>0</tilted></_>
    <_>
      <rects>
        <_>
          26 1 6 2 -1.</_>
        <_>
          28 1 2 2 3.</_></rects>
      <tilted>0</tilted></_>
    <_>
      <rects>
        <_>
          26 1 6 2 -1.</_>
        <_>
          26 1 3 1 2.</_>
        <_>
          29 2 3 1 2.</_></rects>
      <tilted>0</tilted></_>
    <_>
      <rects>
        <_>
          26 1 3 27 -1.</_>
        <_>
          26 10 3 9 3.</_></rects>
      <tilted>0</tilted></_>
    <_>
      <rects>
        <_>
          26 7 2 6 -1.</_>
        <_>
          26 7 1 3 2.</_>
        <_>
          27 10 1 3 2.</_></rects>
      <tilted>0</tilted></_>
    <_>
      <rects>
        <_>
          26 7 6 2 -1.</_>
        <_>
          28 7 2 2 3.</_></rects>
      <tilted>0</tilted></_>
    <_>
      <rects>
        <_>
          26 22 1 3 -1.</_>
        <_>
          26 23 1 1 3.</_></rects>
      <tilted>0</tilted></_>
    <_>
      <rects>
        <_>
          26 23 6 3 -1.</_>
        <_>
          29 23 3 3 2.</_></rects>
      <tilted>0</tilted></_>
    <_>
      <rects>
        <_>
          26 24 6 1 -1.</_>
        <_>
          29 24 3 1 2.</_></rects>
      <tilted>0</tilted></_>
    <_>
      <rects>
        <_>
          26 28 6 1 -1.</_>
        <_>
          28 28 2 1 3.</_></rects>
      <tilted>0</tilted></_>
    <_>
      <rects>
        <_>
          27 30 2 2 -1.</_>
        <_>
          27 31 2 1 2.</_></rects>
      <tilted>0</tilted></_>
    <_>
      <rects>
        <_>
          28 2 2 2 -1.</_>
        <_>
          29 2 1 2 2.</_></rects>
      <tilted>0</tilted></_>
    <_>
      <rects>
        <_>
          28 3 4 2 -1.</_>
        <_>
          28 3 2 1 2.</_>
        <_>
          30 4 2 1 2.</_></rects>
      <tilted>0</tilted></_>
    <_>
      <rects>
        <_>
          28 18 2 3 -1.</_>
        <_>
          28 19 2 1 3.</_></rects>
      <tilted>0</tilted></_>
    <_>
      <rects>
        <_>
          29 8 3 4 -1.</_>
        <_>
          29 10 3 2 2.</_></rects>
      <tilted>0</tilted></_>
    <_>
      <rects>
        <_>
          29 28 2 2 -1.</_>
        <_>
          29 28 1 1 2.</_>
        <_>
          30 29 1 1 2.</_></rects>
      <tilted>0</tilted></_>
    <_>
      <rects>
        <_>
          30 2 2 6 -1.</_>
        <_>
          30 4 2 2 3.</_></rects>
      <tilted>0</tilted></_>
    <_>
      <rects>
        <_>
          30 11 2 2 -1.</_>
        <_>
          30 11 1 1 2.</_>
        <_>
          31 12 1 1 2.</_></rects>
      <tilted>0</tilted></_>
    <_>
      <rects>
        <_>
          30 17 1 3 -1.</_>
        <_>
          30 18 1 1 3.</_></rects>
      <tilted>0</tilted></_>
    <_>
      <rects>
        <_>
          30 25 2 4 -1.</_>
        <_>
          30 25 1 2 2.</_>
        <_>
          31 27 1 2 2.</_></rects>
      <tilted>0</tilted></_>
    <_>
      <rects>
        <_>
          31 0 1 12 -1.</_>
        <_>
          31 4 1 4 3.</_></rects>
      <tilted>0</tilted></_></features></cascade>
</opencv_storage>
