<?xml version="1.0"?>
<opencv_storage>
<cascade>
  <stageType>BOOST</stageType>
  <featureType>HAAR</featureType>
  <height>32</height>
  <width>32</width>
  <stageParams>
    <boostType>GAB</boostType>
    <minHitRate>9.9500000476837158e-01</minHitRate>
    <maxFalseAlarm>5.0000000000000000e-01</maxFalseAlarm>
    <weightTrimRate>9.4999998807907104e-01</weightTrimRate>
    <maxDepth>1</maxDepth>
    <maxWeakCount>100</maxWeakCount></stageParams>
  <featureParams>
    <maxCatCount>0</maxCatCount>
    <featSize>1</featSize>
    <mode>BASIC</mode></featureParams>
  <stageNum>10</stageNum>
  <stages>
    <!-- stage 0 -->
    <_>
      <maxWeakCount>18</maxWeakCount>
      <stageThreshold>-7.6958757638931274e-01</stageThreshold>
      <weakClassifiers>
        <_>
          <internalNodes>
            0 -1 39 -3.7183430790901184e-01</internalNodes>
          <leafValues>
            -6.5124553442001343e-01 2.5452017784118652e-01</leafValues></_>
        <_>
          <internalNodes>
            0 -1 9 -7.1899197995662689e-02</internalNodes>
          <leafValues>
            4.6259871125221252e-01 -1.8171729147434235e-01</leafValues></_>
        <_>
          <internalNodes>
            0 -1 62 -2.3458412289619446e-01</internalNodes>
          <leafValues>
            -5.9481298923492432e-01 1.0453757643699646e-01</leafValues></_>
        <_>
          <internalNodes>
            0 -1 67 -8.3748981356620789e-02</internalNodes>
          <leafValues>
            6.2512999773025513e-01 -6.2237307429313660e-02</leafValues></_>
        <_>
          <internalNodes>
            0 -1 100 4.2834244668483734e-02</internalNodes>
          <leafValues>
            -1.2711082398891449e-01 4.1151529550552368e-01</leafValues></_>
        <_>
          <internalNodes>
            0 -1 83 2.9017371125519276e-03</internalNodes>
          <leafValues>
            -2.0624645054340363e-01 2.9270866513252258e-01</leafValues></_>
        <_>
          <internalNodes>
            0 -1 114 2.4537923745810986e-03</internalNodes>
          <leafValues>
            -1.6378180682659149e-01 3.1238210201263428e-01</leafValues></_>
        <_>
          <internalNodes>
            0 -1 6 1.4809990301728249e-02</internalNodes>
          <leafValues>
            -9.5358304679393768e-02 5.9473031759262085e-01</leafValues></_>
        <_>
          <internalNodes>
            0 -1 63 1.7743250355124474e-03</internalNodes>
          <leafValues>
            1.2031422555446625e-01 -6.0312038660049438e-01</leafValues></_>
        <_>
          <internalNodes>
            0 -1 7 -6.3947904855012894e-03</internalNodes>
          <leafValues>
            2.7688467502593994e-01 -2.0947954058647156e-01</leafValues></_>
        <_>
          <internalNodes>
            0 -1 23 3.6135960370302200e-02</internalNodes>
          <leafValues>
            -5.6211944669485092e-02 6.4283448457717896e-01</leafValues></_>
        <_>
          <internalNodes>
            0 -1 129 6.1075505800545216e-04</internalNodes>
          <leafValues>
            8.6549952626228333e-02 -6.3627630472183228e-01</leafValues></_>
        <_>
          <internalNodes>
            0 -1 107 5.1925469189882278e-02</internalNodes>
          <leafValues>
            -9.3372769653797150e-02 6.3768666982650757e-01</leafValues></_>
        <_>
          <internalNodes>
            0 -1 93 -2.2437440929934382e-04</internalNodes>
          <leafValues>
            -4.8847937583923340e-01 9.7175270318984985e-02</leafValues></_>
        <_>
          <internalNodes>
            0 -1 5 -4.6601257054135203e-04</internalNodes>
          <leafValues>
            -4.5991775393486023e-01 1.0118190944194794e-01</leafValues></_>
        <_>
          <internalNodes>
            0 -1 157 -1.6941947862505913e-02</internalNodes>
          <leafValues>
            3.5751324892044067e-01 -1.3868437707424164e-01</leafValues></_>
        <_>
          <internalNodes>
            0 -1 102 -2.3572366684675217e-02</internalNodes>
          <leafValues>
            -6.6822379827499390e-01 8.3285175263881683e-02</leafValues></_>
        <_>
          <internalNodes>
            0 -1 47 1.6432743519544601e-02</internalNodes>
          <leafValues>
            -1.6690634191036224e-01 3.2510757446289063e-01</leafValues></_></weakClassifiers></_>
    <!-- stage 1 -->
    <_>
      <maxWeakCount>32</maxWeakCount>
      <stageThreshold>-8.1499826908111572e-01</stageThreshold>
      <weakClassifiers>
        <_>
          <internalNodes>
            0 -1 34 -1.0086400806903839e-01</internalNodes>
          <leafValues>
            5.5357140302658081e-01 -6.9819822907447815e-02</leafValues></_>
        <_>
          <internalNodes>
            0 -1 160 1.8483370076864958e-03</internalNodes>
          <leafValues>
            1.0138873755931854e-01 -3.8854292035102844e-01</leafValues></_>
        <_>
          <internalNodes>
            0 -1 43 2.7141171693801880e-01</internalNodes>
          <leafValues>
            -1.3395382463932037e-01 3.9810678362846375e-01</leafValues></_>
        <_>
          <internalNodes>
            0 -1 82 -4.9212075769901276e-02</internalNodes>
          <leafValues>
            4.6652787923812866e-01 -5.4011616855859756e-02</leafValues></_>
        <_>
          <internalNodes>
            0 -1 37 3.8251757621765137e-02</internalNodes>
          <leafValues>
            -8.1606313586235046e-02 4.8929476737976074e-01</leafValues></_>
        <_>
          <internalNodes>
            0 -1 162 1.0310423560440540e-02</internalNodes>
          <leafValues>
            -1.1904002726078033e-01 3.8228940963745117e-01</leafValues></_>
        <_>
          <internalNodes>
            0 -1 122 -2.2733686491847038e-03</internalNodes>
          <leafValues>
            -3.2437407970428467e-01 1.5433269739151001e-01</leafValues></_>
        <_>
          <internalNodes>
            0 -1 143 -3.6676431773230433e-04</internalNodes>
          <leafValues>
            -6.2191534042358398e-01 -6.6670775413513184e-03</leafValues></_>
        <_>
          <internalNodes>
            0 -1 59 -1.1424666270613670e-02</internalNodes>
          <leafValues>
            3.1931871175765991e-01 -1.1324303597211838e-01</leafValues></_>
        <_>
          <internalNodes>
            0 -1 110 -1.6465233638882637e-03</internalNodes>
          <leafValues>
            -4.2404481768608093e-01 1.2274549156427383e-01</leafValues></_>
        <_>
          <internalNodes>
            0 -1 42 -3.5688362549990416e-03</internalNodes>
          <leafValues>
            1.9042201340198517e-01 -2.1345706284046173e-01</leafValues></_>
        <_>
          <internalNodes>
            0 -1 168 -6.1523942276835442e-03</internalNodes>
          <leafValues>
            4.0890848636627197e-01 -8.2362785935401917e-02</leafValues></_>
        <_>
          <internalNodes>
            0 -1 64 -1.7869856208562851e-02</internalNodes>
          <leafValues>
            -6.9367814064025879e-01 6.1617385596036911e-02</leafValues></_>
        <_>
          <internalNodes>
            0 -1 178 6.7288390710018575e-05</internalNodes>
          <leafValues>
            -1.9274595379829407e-01 2.1876743435859680e-01</leafValues></_>
        <_>
          <internalNodes>
            0 -1 41 1.0333359387004748e-04</internalNodes>
          <leafValues>
            -1.5413822233676910e-01 2.5495174527168274e-01</leafValues></_>
        <_>
          <internalNodes>
            0 -1 176 -7.4706587474793196e-04</internalNodes>
          <leafValues>
            -4.6011647582054138e-01 8.0059498548507690e-02</leafValues></_>
        <_>
          <internalNodes>
            0 -1 113 -6.3305888324975967e-03</internalNodes>
          <leafValues>
            -5.4723078012466431e-01 9.1725453734397888e-02</leafValues></_>
        <_>
          <internalNodes>
            0 -1 106 6.1489881773013622e-05</internalNodes>
          <leafValues>
            1.5888579189777374e-01 -2.6216566562652588e-01</leafValues></_>
        <_>
          <internalNodes>
            0 -1 72 3.2963693141937256e-02</internalNodes>
          <leafValues>
            -1.0425499826669693e-01 3.7710788846015930e-01</leafValues></_>
        <_>
          <internalNodes>
            0 -1 151 9.9532806780189276e-04</internalNodes>
          <leafValues>
            1.1351487040519714e-01 -3.9063537120819092e-01</leafValues></_>
        <_>
          <internalNodes>
            0 -1 159 1.8909484424511902e-05</internalNodes>
          <leafValues>
            -1.9860571622848511e-01 2.4833753705024719e-01</leafValues></_>
        <_>
          <internalNodes>
            0 -1 141 -6.2614157795906067e-02</internalNodes>
          <leafValues>
            -5.1486003398895264e-01 8.8598288595676422e-02</leafValues></_>
        <_>
          <internalNodes>
            0 -1 84 2.5143716484308243e-02</internalNodes>
          <leafValues>
            -1.2095440924167633e-01 4.1590341925621033e-01</leafValues></_>
        <_>
          <internalNodes>
            0 -1 123 -5.0474042072892189e-03</internalNodes>
          <leafValues>
            -6.0948270559310913e-01 8.6046688258647919e-02</leafValues></_>
        <_>
          <internalNodes>
            0 -1 65 2.2733281366527081e-03</internalNodes>
          <leafValues>
            -8.0159686505794525e-02 6.4199566841125488e-01</leafValues></_>
        <_>
          <internalNodes>
            0 -1 85 -1.1538716498762369e-03</internalNodes>
          <leafValues>
            2.8228566050529480e-01 -1.3592927157878876e-01</leafValues></_>
        <_>
          <internalNodes>
            0 -1 21 -7.1940580382943153e-03</internalNodes>
          <leafValues>
            3.4591856598854065e-01 -1.2082589417695999e-01</leafValues></_>
        <_>
          <internalNodes>
            0 -1 96 -6.3527004385832697e-05</internalNodes>
          <leafValues>
            -2.2083133459091187e-01 1.9334197044372559e-01</leafValues></_>
        <_>
          <internalNodes>
            0 -1 131 -1.3626668602228165e-02</internalNodes>
          <leafValues>
            -5.4701721668243408e-01 7.1878656744956970e-02</leafValues></_>
        <_>
          <internalNodes>
            0 -1 79 1.0273852385580540e-03</internalNodes>
          <leafValues>
            6.9328308105468750e-02 -5.2590280771255493e-01</leafValues></_>
        <_>
          <internalNodes>
            0 -1 26 5.0006639212369919e-03</internalNodes>
          <leafValues>
            -1.1113011091947556e-01 3.9909866452217102e-01</leafValues></_>
        <_>
          <internalNodes>
            0 -1 179 1.2579734902828932e-04</internalNodes>
          <leafValues>
            -1.2818175554275513e-01 3.2101362943649292e-01</leafValues></_></weakClassifiers></_>
    <!-- stage 2 -->
    <_>
      <maxWeakCount>33</maxWeakCount>
      <stageThreshold>-7.8349792957305908e-01</stageThreshold>
      <weakClassifiers>
        <_>
          <internalNodes>
            0 -1 69 -1.4053247869014740e-01</internalNodes>
          <leafValues>
            7.7777779102325439e-01 -4.4397462159395218e-02</leafValues></_>
        <_>
          <internalNodes>
            0 -1 137 6.8234541686251760e-04</internalNodes>
          <leafValues>
            5.3417481482028961e-02 -4.9784821271896362e-01</leafValues></_>
        <_>
          <internalNodes>
            0 -1 10 5.8071566745638847e-03</internalNodes>
          <leafValues>
            -8.5848383605480194e-02 3.5108909010887146e-01</leafValues></_>
        <_>
          <internalNodes>
            0 -1 33 -1.4720933977514505e-03</internalNodes>
          <leafValues>
            1.9662719964981079e-01 -1.5738816559314728e-01</leafValues></_>
        <_>
          <internalNodes>
            0 -1 116 5.6658023968338966e-03</internalNodes>
          <leafValues>
            1.2238039076328278e-01 -3.6764970421791077e-01</leafValues></_>
        <_>
          <internalNodes>
            0 -1 17 2.3802820593118668e-02</internalNodes>
          <leafValues>
            -1.2991824746131897e-01 2.8936344385147095e-01</leafValues></_>
        <_>
          <internalNodes>
            0 -1 60 7.5647275662049651e-04</internalNodes>
          <leafValues>
            2.1517050266265869e-01 -1.6764102876186371e-01</leafValues></_>
        <_>
          <internalNodes>
            0 -1 0 3.0164873227477074e-02</internalNodes>
          <leafValues>
            -1.9819362461566925e-01 2.2663950920104980e-01</leafValues></_>
        <_>
          <internalNodes>
            0 -1 75 6.0868333093822002e-04</internalNodes>
          <leafValues>
            1.0544050484895706e-01 -4.5268806815147400e-01</leafValues></_>
        <_>
          <internalNodes>
            0 -1 124 1.5941550955176353e-02</internalNodes>
          <leafValues>
            -1.7717172205448151e-01 2.2651500999927521e-01</leafValues></_>
        <_>
          <internalNodes>
            0 -1 81 1.1799134314060211e-02</internalNodes>
          <leafValues>
            5.8287881314754486e-02 -6.3747203350067139e-01</leafValues></_>
        <_>
          <internalNodes>
            0 -1 144 -1.7377888783812523e-02</internalNodes>
          <leafValues>
            4.9072977900505066e-01 -7.7910177409648895e-02</leafValues></_>
        <_>
          <internalNodes>
            0 -1 80 -1.7398777417838573e-03</internalNodes>
          <leafValues>
            3.3971461653709412e-01 -1.0380175709724426e-01</leafValues></_>
        <_>
          <internalNodes>
            0 -1 31 1.5591853857040405e-01</internalNodes>
          <leafValues>
            4.5472756028175354e-02 -9.1196829080581665e-01</leafValues></_>
        <_>
          <internalNodes>
            0 -1 167 -4.4998354278504848e-03</internalNodes>
          <leafValues>
            -4.5924374461174011e-01 6.6498942673206329e-02</leafValues></_>
        <_>
          <internalNodes>
            0 -1 158 -2.2463854402303696e-03</internalNodes>
          <leafValues>
            3.2391700148582458e-01 -1.4250719547271729e-01</leafValues></_>
        <_>
          <internalNodes>
            0 -1 149 -2.6018014177680016e-03</internalNodes>
          <leafValues>
            -5.3784930706024170e-01 8.2901440560817719e-02</leafValues></_>
        <_>
          <internalNodes>
            0 -1 77 4.7293035313487053e-03</internalNodes>
          <leafValues>
            -6.0618363320827484e-02 5.7184624671936035e-01</leafValues></_>
        <_>
          <internalNodes>
            0 -1 169 -1.2354020145721734e-04</internalNodes>
          <leafValues>
            -2.2735516726970673e-01 1.5947742760181427e-01</leafValues></_>
        <_>
          <internalNodes>
            0 -1 108 1.8676411360502243e-02</internalNodes>
          <leafValues>
            -1.3984207808971405e-01 2.8481614589691162e-01</leafValues></_>
        <_>
          <internalNodes>
            0 -1 18 -1.7224427312612534e-02</internalNodes>
          <leafValues>
            5.2038538455963135e-01 -7.8346647322177887e-02</leafValues></_>
        <_>
          <internalNodes>
            0 -1 170 -8.5513163357973099e-03</internalNodes>
          <leafValues>
            -8.1304121017456055e-01 5.5710878223180771e-02</leafValues></_>
        <_>
          <internalNodes>
            0 -1 89 -3.2864655368030071e-03</internalNodes>
          <leafValues>
            3.8867092132568359e-01 -9.8820112645626068e-02</leafValues></_>
        <_>
          <internalNodes>
            0 -1 105 1.1630475055426359e-03</internalNodes>
          <leafValues>
            6.8524233996868134e-02 -5.9034997224807739e-01</leafValues></_>
        <_>
          <internalNodes>
            0 -1 120 1.7686890438199043e-02</internalNodes>
          <leafValues>
            -1.2048327922821045e-01 3.0506658554077148e-01</leafValues></_>
        <_>
          <internalNodes>
            0 -1 153 1.5775606036186218e-02</internalNodes>
          <leafValues>
            4.8561397939920425e-02 -7.4083834886550903e-01</leafValues></_>
        <_>
          <internalNodes>
            0 -1 147 -5.1375653129070997e-04</internalNodes>
          <leafValues>
            2.5205102562904358e-01 -1.5758807957172394e-01</leafValues></_>
        <_>
          <internalNodes>
            0 -1 58 1.2640103697776794e-02</internalNodes>
          <leafValues>
            -4.1206344962120056e-02 8.8047635555267334e-01</leafValues></_>
        <_>
          <internalNodes>
            0 -1 148 3.7398536223918200e-03</internalNodes>
          <leafValues>
            -7.2600729763507843e-02 4.2681550979614258e-01</leafValues></_>
        <_>
          <internalNodes>
            0 -1 98 -1.9633010029792786e-02</internalNodes>
          <leafValues>
            4.3643903732299805e-01 -8.8428109884262085e-02</leafValues></_>
        <_>
          <internalNodes>
            0 -1 53 -6.1080238083377481e-05</internalNodes>
          <leafValues>
            -3.4275531768798828e-01 1.2020121514797211e-01</leafValues></_>
        <_>
          <internalNodes>
            0 -1 19 -1.4809898100793362e-02</internalNodes>
          <leafValues>
            4.5365214347839355e-01 -1.0114797949790955e-01</leafValues></_>
        <_>
          <internalNodes>
            0 -1 25 3.5972520709037781e-04</internalNodes>
          <leafValues>
            -1.7337749898433685e-01 2.4261312186717987e-01</leafValues></_></weakClassifiers></_>
    <!-- stage 3 -->
    <_>
      <maxWeakCount>30</maxWeakCount>
      <stageThreshold>-6.9532102346420288e-01</stageThreshold>
      <weakClassifiers>
        <_>
          <internalNodes>
            0 -1 74 -2.8478228487074375e-03</internalNodes>
          <leafValues>
            -6.5656566619873047e-01 7.2142064571380615e-02</leafValues></_>
        <_>
          <internalNodes>
            0 -1 156 -6.6446010023355484e-03</internalNodes>
          <leafValues>
            7.0374053716659546e-01 -2.1156666800379753e-02</leafValues></_>
        <_>
          <internalNodes>
            0 -1 103 -2.2963106166571379e-03</internalNodes>
          <leafValues>
            -4.6467712521553040e-01 1.2927049770951271e-02</leafValues></_>
        <_>
          <internalNodes>
            0 -1 12 4.3115876615047455e-02</internalNodes>
          <leafValues>
            -4.2446758598089218e-02 6.4288318157196045e-01</leafValues></_>
        <_>
          <internalNodes>
            0 -1 54 4.6785608865320683e-03</internalNodes>
          <leafValues>
            -6.7023493349552155e-02 4.6103271842002869e-01</leafValues></_>
        <_>
          <internalNodes>
            0 -1 55 3.1051330734044313e-04</internalNodes>
          <leafValues>
            2.3908162117004395e-01 -1.4371822774410248e-01</leafValues></_>
        <_>
          <internalNodes>
            0 -1 13 5.8394916355609894e-02</internalNodes>
          <leafValues>
            -1.1751280725002289e-01 5.2846556901931763e-01</leafValues></_>
        <_>
          <internalNodes>
            0 -1 121 -2.3167808540165424e-03</internalNodes>
          <leafValues>
            -3.9456161856651306e-01 9.5416285097599030e-02</leafValues></_>
        <_>
          <internalNodes>
            0 -1 172 -1.6250884073087946e-05</internalNodes>
          <leafValues>
            -2.0051512122154236e-01 1.7663018405437469e-01</leafValues></_>
        <_>
          <internalNodes>
            0 -1 44 6.9001326337456703e-03</internalNodes>
          <leafValues>
            7.6060302555561066e-02 -7.0587533712387085e-01</leafValues></_>
        <_>
          <internalNodes>
            0 -1 174 1.1962764896452427e-02</internalNodes>
          <leafValues>
            -7.4991993606090546e-02 7.0654040575027466e-01</leafValues></_>
        <_>
          <internalNodes>
            0 -1 22 3.6888439208269119e-03</internalNodes>
          <leafValues>
            -7.5732469558715820e-02 5.1171541213989258e-01</leafValues></_>
        <_>
          <internalNodes>
            0 -1 29 1.4863385877106339e-04</internalNodes>
          <leafValues>
            1.4601746201515198e-01 -2.5441828370094299e-01</leafValues></_>
        <_>
          <internalNodes>
            0 -1 88 -7.6036624610424042e-02</internalNodes>
          <leafValues>
            4.0513417124748230e-01 -9.1813817620277405e-02</leafValues></_>
        <_>
          <internalNodes>
            0 -1 57 -4.9429699778556824e-02</internalNodes>
          <leafValues>
            3.8623273372650146e-01 -1.2280064821243286e-01</leafValues></_>
        <_>
          <internalNodes>
            0 -1 92 -1.3471996411681175e-02</internalNodes>
          <leafValues>
            -5.5046242475509644e-01 8.2832999527454376e-02</leafValues></_>
        <_>
          <internalNodes>
            0 -1 109 -6.6055622883141041e-03</internalNodes>
          <leafValues>
            -3.1057560443878174e-01 1.1415654420852661e-01</leafValues></_>
        <_>
          <internalNodes>
            0 -1 117 3.7347818724811077e-03</internalNodes>
          <leafValues>
            7.8112073242664337e-02 -4.8233005404472351e-01</leafValues></_>
        <_>
          <internalNodes>
            0 -1 146 8.0597609281539917e-02</internalNodes>
          <leafValues>
            -6.2571033835411072e-02 7.0873248577117920e-01</leafValues></_>
        <_>
          <internalNodes>
            0 -1 119 4.8211464309133589e-04</internalNodes>
          <leafValues>
            -1.3941666483879089e-01 2.7061498165130615e-01</leafValues></_>
        <_>
          <internalNodes>
            0 -1 112 -9.0943574905395508e-02</internalNodes>
          <leafValues>
            7.0351099967956543e-01 -5.4700918495655060e-02</leafValues></_>
        <_>
          <internalNodes>
            0 -1 87 7.4497595429420471e-02</internalNodes>
          <leafValues>
            5.7491302490234375e-02 -7.1986979246139526e-01</leafValues></_>
        <_>
          <internalNodes>
            0 -1 1 -1.9918939098715782e-02</internalNodes>
          <leafValues>
            2.8114593029022217e-01 -1.3869395852088928e-01</leafValues></_>
        <_>
          <internalNodes>
            0 -1 14 1.0469509288668633e-03</internalNodes>
          <leafValues>
            1.5382891893386841e-01 -2.5199866294860840e-01</leafValues></_>
        <_>
          <internalNodes>
            0 -1 52 -6.2548792921006680e-03</internalNodes>
          <leafValues>
            -6.2891817092895508e-01 6.4998626708984375e-02</leafValues></_>
        <_>
          <internalNodes>
            0 -1 99 5.2053621038794518e-03</internalNodes>
          <leafValues>
            -9.8915860056877136e-02 3.9985853433609009e-01</leafValues></_>
        <_>
          <internalNodes>
            0 -1 125 1.3154821936041117e-03</internalNodes>
          <leafValues>
            1.2879371643066406e-01 -2.9110598564147949e-01</leafValues></_>
        <_>
          <internalNodes>
            0 -1 126 -1.6818683594465256e-02</internalNodes>
          <leafValues>
            6.9840687513351440e-01 -6.0011159628629684e-02</leafValues></_>
        <_>
          <internalNodes>
            0 -1 78 2.8475678991526365e-03</internalNodes>
          <leafValues>
            1.0889056324958801e-01 -3.7834885716438293e-01</leafValues></_>
        <_>
          <internalNodes>
            0 -1 46 -5.4988581687211990e-03</internalNodes>
          <leafValues>
            2.5877383351325989e-01 -1.6807395219802856e-01</leafValues></_></weakClassifiers></_>
    <!-- stage 4 -->
    <_>
      <maxWeakCount>26</maxWeakCount>
      <stageThreshold>-7.3278212547302246e-01</stageThreshold>
      <weakClassifiers>
        <_>
          <internalNodes>
            0 -1 135 -6.1107547953724861e-03</internalNodes>
          <leafValues>
            7.5903612375259399e-01 -6.8702287971973419e-02</leafValues></_>
        <_>
          <internalNodes>
            0 -1 66 -7.1806415915489197e-02</internalNodes>
          <leafValues>
            3.8374593853950500e-01 -1.4204123616218567e-01</leafValues></_>
        <_>
          <internalNodes>
            0 -1 90 8.3943121135234833e-03</internalNodes>
          <leafValues>
            -8.9441105723381042e-02 4.9104139208793640e-01</leafValues></_>
        <_>
          <internalNodes>
            0 -1 173 -2.2666819859296083e-05</internalNodes>
          <leafValues>
            -2.4241444468498230e-01 1.8516296148300171e-01</leafValues></_>
        <_>
          <internalNodes>
            0 -1 70 -2.9298337176442146e-02</internalNodes>
          <leafValues>
            3.8474890589714050e-01 -1.1034531146287918e-01</leafValues></_>
        <_>
          <internalNodes>
            0 -1 4 8.4858806803822517e-03</internalNodes>
          <leafValues>
            -7.9872064292430878e-02 6.1517077684402466e-01</leafValues></_>
        <_>
          <internalNodes>
            0 -1 3 -8.4218435222283006e-04</internalNodes>
          <leafValues>
            -3.7380924820899963e-01 1.2110583484172821e-01</leafValues></_>
        <_>
          <internalNodes>
            0 -1 20 1.4847607817500830e-03</internalNodes>
          <leafValues>
            -1.1951874941587448e-01 3.8437092304229736e-01</leafValues></_>
        <_>
          <internalNodes>
            0 -1 40 -1.0373408440500498e-03</internalNodes>
          <leafValues>
            3.0077880620956421e-01 -1.7168319225311279e-01</leafValues></_>
        <_>
          <internalNodes>
            0 -1 127 7.7368123456835747e-03</internalNodes>
          <leafValues>
            1.5803600847721100e-01 -3.5473018884658813e-01</leafValues></_>
        <_>
          <internalNodes>
            0 -1 104 2.1810002624988556e-02</internalNodes>
          <leafValues>
            -1.3688214123249054e-01 3.7646967172622681e-01</leafValues></_>
        <_>
          <internalNodes>
            0 -1 8 5.6737903505563736e-02</internalNodes>
          <leafValues>
            -1.3218714296817780e-01 3.3431765437126160e-01</leafValues></_>
        <_>
          <internalNodes>
            0 -1 51 -5.8365229051560163e-05</internalNodes>
          <leafValues>
            -2.3653522133827209e-01 1.9819572567939758e-01</leafValues></_>
        <_>
          <internalNodes>
            0 -1 130 -1.3728840276598930e-03</internalNodes>
          <leafValues>
            5.0626939535140991e-01 -1.0416758060455322e-01</leafValues></_>
        <_>
          <internalNodes>
            0 -1 150 -3.4596337936818600e-03</internalNodes>
          <leafValues>
            4.1284433007240295e-01 -1.3037170469760895e-01</leafValues></_>
        <_>
          <internalNodes>
            0 -1 91 6.1909363466838840e-06</internalNodes>
          <leafValues>
            -2.1012711524963379e-01 2.2677055001258850e-01</leafValues></_>
        <_>
          <internalNodes>
            0 -1 32 2.2133573656901717e-04</internalNodes>
          <leafValues>
            -1.4922237396240234e-01 3.0859982967376709e-01</leafValues></_>
        <_>
          <internalNodes>
            0 -1 118 2.8585400432348251e-03</internalNodes>
          <leafValues>
            7.2658285498619080e-02 -6.9042867422103882e-01</leafValues></_>
        <_>
          <internalNodes>
            0 -1 97 1.1789993732236326e-04</internalNodes>
          <leafValues>
            1.5892225503921509e-01 -3.1314802169799805e-01</leafValues></_>
        <_>
          <internalNodes>
            0 -1 38 9.1248759999871254e-03</internalNodes>
          <leafValues>
            -1.1723430454730988e-01 5.1620382070541382e-01</leafValues></_>
        <_>
          <internalNodes>
            0 -1 30 3.0562318861484528e-02</internalNodes>
          <leafValues>
            -8.8126212358474731e-02 5.1743537187576294e-01</leafValues></_>
        <_>
          <internalNodes>
            0 -1 177 -6.9248687941581011e-04</internalNodes>
          <leafValues>
            3.7682479619979858e-01 -1.3128857314586639e-01</leafValues></_>
        <_>
          <internalNodes>
            0 -1 49 1.9707414321601391e-03</internalNodes>
          <leafValues>
            -1.5862038731575012e-01 3.6392134428024292e-01</leafValues></_>
        <_>
          <internalNodes>
            0 -1 48 5.3171414881944656e-02</internalNodes>
          <leafValues>
            1.0285957902669907e-01 -5.2261644601821899e-01</leafValues></_>
        <_>
          <internalNodes>
            0 -1 24 3.3741493243724108e-03</internalNodes>
          <leafValues>
            6.1858065426349640e-02 -7.6017880439758301e-01</leafValues></_>
        <_>
          <internalNodes>
            0 -1 68 3.9205051958560944e-02</internalNodes>
          <leafValues>
            -1.5698312222957611e-01 3.3834475278854370e-01</leafValues></_></weakClassifiers></_>
    <!-- stage 5 -->
    <_>
      <maxWeakCount>20</maxWeakCount>
      <stageThreshold>-9.0038150548934937e-01</stageThreshold>
      <weakClassifiers>
        <_>
          <internalNodes>
            0 -1 161 -9.1658066958189011e-04</internalNodes>
          <leafValues>
            4.3462896347045898e-01 -1.7154811322689056e-01</leafValues></_>
        <_>
          <internalNodes>
            0 -1 111 -5.3966641426086426e-03</internalNodes>
          <leafValues>
            6.2836396694183350e-01 -1.1587903648614883e-01</leafValues></_>
        <_>
          <internalNodes>
            0 -1 134 1.7562413122504950e-03</internalNodes>
          <leafValues>
            -9.9026612937450409e-02 7.7018111944198608e-01</leafValues></_>
        <_>
          <internalNodes>
            0 -1 165 1.1851073941215873e-03</internalNodes>
          <leafValues>
            1.6644172370433807e-01 -4.7627666592597961e-01</leafValues></_>
        <_>
          <internalNodes>
            0 -1 145 -2.2415714338421822e-03</internalNodes>
          <leafValues>
            4.2764416337013245e-01 -1.8525324761867523e-01</leafValues></_>
        <_>
          <internalNodes>
            0 -1 36 3.5834491252899170e-02</internalNodes>
          <leafValues>
            -1.0743439942598343e-01 8.0713391304016113e-01</leafValues></_>
        <_>
          <internalNodes>
            0 -1 140 -7.7718839049339294e-02</internalNodes>
          <leafValues>
            1. -8.4947623312473297e-02</leafValues></_>
        <_>
          <internalNodes>
            0 -1 155 9.3567254953086376e-04</internalNodes>
          <leafValues>
            -1.6427437961101532e-01 4.5468512177467346e-01</leafValues></_>
        <_>
          <internalNodes>
            0 -1 50 2.0802555081900209e-04</internalNodes>
          <leafValues>
            -1.7561109364032745e-01 4.4806209206581116e-01</leafValues></_>
        <_>
          <internalNodes>
            0 -1 27 3.2224590540863574e-05</internalNodes>
          <leafValues>
            3.3383050560951233e-01 -2.3754242062568665e-01</leafValues></_>
        <_>
          <internalNodes>
            0 -1 61 3.0145831260597333e-05</internalNodes>
          <leafValues>
            3.1362062692642212e-01 -2.4657741189002991e-01</leafValues></_>
        <_>
          <internalNodes>
            0 -1 154 -9.9319615401327610e-04</internalNodes>
          <leafValues>
            6.9943624734878540e-01 -1.1426641047000885e-01</leafValues></_>
        <_>
          <internalNodes>
            0 -1 56 -6.1983256600797176e-03</internalNodes>
          <leafValues>
            9.3370914459228516e-01 -1.0315868258476257e-01</leafValues></_>
        <_>
          <internalNodes>
            0 -1 73 7.9355183988809586e-03</internalNodes>
          <leafValues>
            2.2280322015285492e-01 -4.1872400045394897e-01</leafValues></_>
        <_>
          <internalNodes>
            0 -1 76 -1.2564365752041340e-02</internalNodes>
          <leafValues>
            1. -8.1070519983768463e-02</leafValues></_>
        <_>
          <internalNodes>
            0 -1 35 -5.0173215568065643e-03</internalNodes>
          <leafValues>
            4.6792972087860107e-01 -1.5507851541042328e-01</leafValues></_>
        <_>
          <internalNodes>
            0 -1 175 -2.7581658214330673e-03</internalNodes>
          <leafValues>
            -6.2824231386184692e-01 1.4847435057163239e-01</leafValues></_>
        <_>
          <internalNodes>
            0 -1 86 -2.7911127544939518e-03</internalNodes>
          <leafValues>
            7.2817224264144897e-01 -1.3746102154254913e-01</leafValues></_>
        <_>
          <internalNodes>
            0 -1 45 5.1163174211978912e-02</internalNodes>
          <leafValues>
            -1.4811058342456818e-01 4.7325018048286438e-01</leafValues></_>
        <_>
          <internalNodes>
            0 -1 115 4.3395045213401318e-03</internalNodes>
          <leafValues>
            2.1365736424922943e-01 -4.9389567971229553e-01</leafValues></_></weakClassifiers></_>
    <!-- stage 6 -->
    <_>
      <maxWeakCount>10</maxWeakCount>
      <stageThreshold>-1.0085395574569702e+00</stageThreshold>
      <weakClassifiers>
        <_>
          <internalNodes>
            0 -1 136 2.5663371197879314e-03</internalNodes>
          <leafValues>
            -1.8203309178352356e-01 1.</leafValues></_>
        <_>
          <internalNodes>
            0 -1 95 7.9484973102807999e-03</internalNodes>
          <leafValues>
            -1.4879372715950012e-01 8.8077294826507568e-01</leafValues></_>
        <_>
          <internalNodes>
            0 -1 132 -1.3565098925027996e-04</internalNodes>
          <leafValues>
            5.5303543806076050e-01 -2.6667740941047668e-01</leafValues></_>
        <_>
          <internalNodes>
            0 -1 2 1.9149616127833724e-03</internalNodes>
          <leafValues>
            -2.0994755625724792e-01 8.1085211038589478e-01</leafValues></_>
        <_>
          <internalNodes>
            0 -1 171 -7.5569354521576315e-05</internalNodes>
          <leafValues>
            7.2110134363174438e-01 -2.3838457465171814e-01</leafValues></_>
        <_>
          <internalNodes>
            0 -1 138 -2.2064016957301646e-04</internalNodes>
          <leafValues>
            -3.9952874183654785e-01 4.6784567832946777e-01</leafValues></_>
        <_>
          <internalNodes>
            0 -1 133 8.9938388555310667e-05</internalNodes>
          <leafValues>
            -3.2859817147254944e-01 6.0104608535766602e-01</leafValues></_>
        <_>
          <internalNodes>
            0 -1 164 -5.0178245146526024e-05</internalNodes>
          <leafValues>
            6.0528099536895752e-01 -3.2494130730628967e-01</leafValues></_>
        <_>
          <internalNodes>
            0 -1 16 -6.1123899649828672e-04</internalNodes>
          <leafValues>
            7.9788213968276978e-01 -2.3890890181064606e-01</leafValues></_>
        <_>
          <internalNodes>
            0 -1 28 -7.1548431878909469e-04</internalNodes>
          <leafValues>
            -3.5781329870223999e-01 6.0055691003799438e-01</leafValues></_></weakClassifiers></_>
    <!-- stage 7 -->
    <_>
      <maxWeakCount>6</maxWeakCount>
      <stageThreshold>-8.4705537557601929e-01</stageThreshold>
      <weakClassifiers>
        <_>
          <internalNodes>
            0 -1 139 -4.6150274574756622e-03</internalNodes>
          <leafValues>
            -3.8596490025520325e-01 8.3544301986694336e-01</leafValues></_>
        <_>
          <internalNodes>
            0 -1 166 -1.6057729226304218e-05</internalNodes>
          <leafValues>
            1. -2.4827814102172852e-01</leafValues></_>
        <_>
          <internalNodes>
            0 -1 163 4.8921341658569872e-05</internalNodes>
          <leafValues>
            -2.7958562970161438e-01 8.6255943775177002e-01</leafValues></_>
        <_>
          <internalNodes>
            0 -1 142 -8.8510514615336433e-06</internalNodes>
          <leafValues>
            -2.8691375255584717e-01 8.7704002857208252e-01</leafValues></_>
        <_>
          <internalNodes>
            0 -1 94 6.3380354549735785e-04</internalNodes>
          <leafValues>
            7.4407976865768433e-01 -3.5851085186004639e-01</leafValues></_>
        <_>
          <internalNodes>
            0 -1 15 -1.5714496839791536e-04</internalNodes>
          <leafValues>
            8.2854747772216797e-01 -3.9039269089698792e-01</leafValues></_></weakClassifiers></_>
    <!-- stage 8 -->
    <_>
      <maxWeakCount>4</maxWeakCount>
      <stageThreshold>-7.5971460342407227e-01</stageThreshold>
      <weakClassifiers>
        <_>
          <internalNodes>
            0 -1 128 1.2615754967555404e-03</internalNodes>
          <leafValues>
            1. -6.1550891399383545e-01</leafValues></_>
        <_>
          <internalNodes>
            0 -1 101 -7.6790543971583247e-04</internalNodes>
          <leafValues>
            -4.8010414838790894e-01 1.</leafValues></_>
        <_>
          <internalNodes>
            0 -1 152 -1.2651186436414719e-02</internalNodes>
          <leafValues>
            -6.1550229787826538e-01 8.2250797748565674e-01</leafValues></_>
        <_>
          <internalNodes>
            0 -1 71 -9.4276119489222765e-04</internalNodes>
          <leafValues>
            -4.8660954833030701e-01 1.</leafValues></_></weakClassifiers></_>
    <!-- stage 9 -->
    <_>
      <maxWeakCount>1</maxWeakCount>
      <stageThreshold>1.</stageThreshold>
      <weakClassifiers>
        <_>
          <internalNodes>
            0 -1 11 -1.4251099526882172e-01</internalNodes>
          <leafValues>
            -1. 1.</leafValues></_></weakClassifiers></_></stages>
  <features>
    <_>
      <rects>
        <_>
          0 1 12 26 -1.</_>
        <_>
          0 14 12 13 2.</_></rects>
      <tilted>0</tilted></_>
    <_>
      <rects>
        <_>
          0 3 8 28 -1.</_>
        <_>
          0 3 4 14 2.</_>
        <_>
          4 17 4 14 2.</_></rects>
      <tilted>0</tilted></_>
    <_>
      <rects>
        <_>
          0 3 30 3 -1.</_>
        <_>
          0 4 30 1 3.</_></rects>
      <tilted>0</tilted></_>
    <_>
      <rects>
        <_>
          0 6 1 6 -1.</_>
        <_>
          0 9 1 3 2.</_></rects>
      <tilted>0</tilted></_>
    <_>
      <rects>
        <_>
          0 9 1 21 -1.</_>
        <_>
          0 16 1 7 3.</_></rects>
      <tilted>0</tilted></_>
    <_>
      <rects>
        <_>
          0 10 2 2 -1.</_>
        <_>
          0 11 2 1 2.</_></rects>
      <tilted>0</tilted></_>
    <_>
      <rects>
        <_>
          0 11 6 14 -1.</_>
        <_>
          0 11 3 7 2.</_>
        <_>
          3 18 3 7 2.</_></rects>
      <tilted>0</tilted></_>
    <_>
      <rects>
        <_>
          0 11 8 12 -1.</_>
        <_>
          0 11 4 6 2.</_>
        <_>
          4 17 4 6 2.</_></rects>
      <tilted>0</tilted></_>
    <_>
      <rects>
        <_>
          0 11 24 14 -1.</_>
        <_>
          8 11 8 14 3.</_></rects>
      <tilted>0</tilted></_>
    <_>
      <rects>
        <_>
          0 12 21 17 -1.</_>
        <_>
          7 12 7 17 3.</_></rects>
      <tilted>0</tilted></_>
    <_>
      <rects>
        <_>
          0 15 16 4 -1.</_>
        <_>
          0 15 8 2 2.</_>
        <_>
          8 17 8 2 2.</_></rects>
      <tilted>0</tilted></_>
    <_>
      <rects>
        <_>
          0 16 11 15 -1.</_>
        <_>
          0 21 11 5 3.</_></rects>
      <tilted>0</tilted></_>
    <_>
      <rects>
        <_>
          0 25 15 7 -1.</_>
        <_>
          5 25 5 7 3.</_></rects>
      <tilted>0</tilted></_>
    <_>
      <rects>
        <_>
          0 26 24 6 -1.</_>
        <_>
          8 26 8 6 3.</_></rects>
      <tilted>0</tilted></_>
    <_>
      <rects>
        <_>
          1 1 9 4 -1.</_>
        <_>
          1 3 9 2 2.</_></rects>
      <tilted>0</tilted></_>
    <_>
      <rects>
        <_>
          1 1 22 3 -1.</_>
        <_>
          1 2 22 1 3.</_></rects>
      <tilted>0</tilted></_>
    <_>
      <rects>
        <_>
          1 2 3 20 -1.</_>
        <_>
          2 2 1 20 3.</_></rects>
      <tilted>0</tilted></_>
    <_>
      <rects>
        <_>
          1 2 18 9 -1.</_>
        <_>
          1 5 18 3 3.</_></rects>
      <tilted>0</tilted></_>
    <_>
      <rects>
        <_>
          1 3 14 6 -1.</_>
        <_>
          1 5 14 2 3.</_></rects>
      <tilted>0</tilted></_>
    <_>
      <rects>
        <_>
          1 5 8 12 -1.</_>
        <_>
          1 5 4 6 2.</_>
        <_>
          5 11 4 6 2.</_></rects>
      <tilted>0</tilted></_>
    <_>
      <rects>
        <_>
          1 5 22 3 -1.</_>
        <_>
          1 6 22 1 3.</_></rects>
      <tilted>0</tilted></_>
    <_>
      <rects>
        <_>
          1 8 4 22 -1.</_>
        <_>
          1 8 2 11 2.</_>
        <_>
          3 19 2 11 2.</_></rects>
      <tilted>0</tilted></_>
    <_>
      <rects>
        <_>
          1 11 2 20 -1.</_>
        <_>
          1 11 1 10 2.</_>
        <_>
          2 21 1 10 2.</_></rects>
      <tilted>0</tilted></_>
    <_>
      <rects>
        <_>
          1 11 10 18 -1.</_>
        <_>
          1 11 5 9 2.</_>
        <_>
          6 20 5 9 2.</_></rects>
      <tilted>0</tilted></_>
    <_>
      <rects>
        <_>
          1 12 8 3 -1.</_>
        <_>
          1 13 8 1 3.</_></rects>
      <tilted>0</tilted></_>
    <_>
      <rects>
        <_>
          1 14 10 3 -1.</_>
        <_>
          1 15 10 1 3.</_></rects>
      <tilted>0</tilted></_>
    <_>
      <rects>
        <_>
          1 16 8 6 -1.</_>
        <_>
          1 16 4 3 2.</_>
        <_>
          5 19 4 3 2.</_></rects>
      <tilted>0</tilted></_>
    <_>
      <rects>
        <_>
          1 18 3 4 -1.</_>
        <_>
          2 18 1 4 3.</_></rects>
      <tilted>0</tilted></_>
    <_>
      <rects>
        <_>
          1 21 30 2 -1.</_>
        <_>
          1 22 30 1 2.</_></rects>
      <tilted>0</tilted></_>
    <_>
      <rects>
        <_>
          1 25 2 3 -1.</_>
        <_>
          2 25 1 3 2.</_></rects>
      <tilted>0</tilted></_>
    <_>
      <rects>
        <_>
          2 0 9 31 -1.</_>
        <_>
          5 0 3 31 3.</_></rects>
      <tilted>0</tilted></_>
    <_>
      <rects>
        <_>
          2 7 20 15 -1.</_>
        <_>
          2 12 20 5 3.</_></rects>
      <tilted>0</tilted></_>
    <_>
      <rects>
        <_>
          2 17 3 3 -1.</_>
        <_>
          3 17 1 3 3.</_></rects>
      <tilted>0</tilted></_>
    <_>
      <rects>
        <_>
          2 19 15 2 -1.</_>
        <_>
          7 19 5 2 3.</_></rects>
      <tilted>0</tilted></_>
    <_>
      <rects>
        <_>
          2 19 21 13 -1.</_>
        <_>
          9 19 7 13 3.</_></rects>
      <tilted>0</tilted></_>
    <_>
      <rects>
        <_>
          2 24 18 1 -1.</_>
        <_>
          8 24 6 1 3.</_></rects>
      <tilted>0</tilted></_>
    <_>
      <rects>
        <_>
          3 0 8 32 -1.</_>
        <_>
          3 0 4 16 2.</_>
        <_>
          7 16 4 16 2.</_></rects>
      <tilted>0</tilted></_>
    <_>
      <rects>
        <_>
          3 2 8 30 -1.</_>
        <_>
          3 2 4 15 2.</_>
        <_>
          7 17 4 15 2.</_></rects>
      <tilted>0</tilted></_>
    <_>
      <rects>
        <_>
          3 3 28 1 -1.</_>
        <_>
          17 3 14 1 2.</_></rects>
      <tilted>0</tilted></_>
    <_>
      <rects>
        <_>
          3 3 28 28 -1.</_>
        <_>
          3 17 28 14 2.</_></rects>
      <tilted>0</tilted></_>
    <_>
      <rects>
        <_>
          3 5 14 3 -1.</_>
        <_>
          3 6 14 1 3.</_></rects>
      <tilted>0</tilted></_>
    <_>
      <rects>
        <_>
          3 20 3 2 -1.</_>
        <_>
          4 20 1 2 3.</_></rects>
      <tilted>0</tilted></_>
    <_>
      <rects>
        <_>
          4 0 8 32 -1.</_>
        <_>
          4 0 4 16 2.</_>
        <_>
          8 16 4 16 2.</_></rects>
      <tilted>0</tilted></_>
    <_>
      <rects>
        <_>
          4 0 27 24 -1.</_>
        <_>
          13 0 9 24 3.</_></rects>
      <tilted>0</tilted></_>
    <_>
      <rects>
        <_>
          4 10 3 10 -1.</_>
        <_>
          5 10 1 10 3.</_></rects>
      <tilted>0</tilted></_>
    <_>
      <rects>
        <_>
          4 11 28 16 -1.</_>
        <_>
          4 19 28 8 2.</_></rects>
      <tilted>0</tilted></_>
    <_>
      <rects>
        <_>
          4 18 9 6 -1.</_>
        <_>
          7 18 3 6 3.</_></rects>
      <tilted>0</tilted></_>
    <_>
      <rects>
        <_>
          4 18 15 6 -1.</_>
        <_>
          9 18 5 6 3.</_></rects>
      <tilted>0</tilted></_>
    <_>
      <rects>
        <_>
          4 18 10 12 -1.</_>
        <_>
          4 24 10 6 2.</_></rects>
      <tilted>0</tilted></_>
    <_>
      <rects>
        <_>
          4 19 3 6 -1.</_>
        <_>
          4 22 3 3 2.</_></rects>
      <tilted>0</tilted></_>
    <_>
      <rects>
        <_>
          4 25 2 6 -1.</_>
        <_>
          4 25 1 3 2.</_>
        <_>
          5 28 1 3 2.</_></rects>
      <tilted>0</tilted></_>
    <_>
      <rects>
        <_>
          4 29 2 2 -1.</_>
        <_>
          4 30 2 1 2.</_></rects>
      <tilted>0</tilted></_>
    <_>
      <rects>
        <_>
          4 29 28 2 -1.</_>
        <_>
          4 29 14 1 2.</_>
        <_>
          18 30 14 1 2.</_></rects>
      <tilted>0</tilted></_>
    <_>
      <rects>
        <_>
          5 1 3 1 -1.</_>
        <_>
          6 1 1 1 3.</_></rects>
      <tilted>0</tilted></_>
    <_>
      <rects>
        <_>
          5 4 13 2 -1.</_>
        <_>
          5 5 13 1 2.</_></rects>
      <tilted>0</tilted></_>
    <_>
      <rects>
        <_>
          5 5 2 25 -1.</_>
        <_>
          6 5 1 25 2.</_></rects>
      <tilted>0</tilted></_>
    <_>
      <rects>
        <_>
          5 9 4 8 -1.</_>
        <_>
          5 9 2 4 2.</_>
        <_>
          7 13 2 4 2.</_></rects>
      <tilted>0</tilted></_>
    <_>
      <rects>
        <_>
          5 10 18 13 -1.</_>
        <_>
          11 10 6 13 3.</_></rects>
      <tilted>0</tilted></_>
    <_>
      <rects>
        <_>
          5 18 2 8 -1.</_>
        <_>
          5 22 2 4 2.</_></rects>
      <tilted>0</tilted></_>
    <_>
      <rects>
        <_>
          5 21 22 8 -1.</_>
        <_>
          5 21 11 4 2.</_>
        <_>
          16 25 11 4 2.</_></rects>
      <tilted>0</tilted></_>
    <_>
      <rects>
        <_>
          6 1 6 4 -1.</_>
        <_>
          6 3 6 2 2.</_></rects>
      <tilted>0</tilted></_>
    <_>
      <rects>
        <_>
          6 28 2 4 -1.</_>
        <_>
          6 28 1 2 2.</_>
        <_>
          7 30 1 2 2.</_></rects>
      <tilted>0</tilted></_>
    <_>
      <rects>
        <_>
          7 0 18 22 -1.</_>
        <_>
          7 11 18 11 2.</_></rects>
      <tilted>0</tilted></_>
    <_>
      <rects>
        <_>
          7 18 3 3 -1.</_>
        <_>
          8 18 1 3 3.</_></rects>
      <tilted>0</tilted></_>
    <_>
      <rects>
        <_>
          7 19 9 5 -1.</_>
        <_>
          10 19 3 5 3.</_></rects>
      <tilted>0</tilted></_>
    <_>
      <rects>
        <_>
          7 31 6 1 -1.</_>
        <_>
          10 31 3 1 2.</_></rects>
      <tilted>0</tilted></_>
    <_>
      <rects>
        <_>
          8 0 24 32 -1.</_>
        <_>
          8 0 12 16 2.</_>
        <_>
          20 16 12 16 2.</_></rects>
      <tilted>0</tilted></_>
    <_>
      <rects>
        <_>
          8 1 16 17 -1.</_>
        <_>
          16 1 8 17 2.</_></rects>
      <tilted>0</tilted></_>
    <_>
      <rects>
        <_>
          8 1 18 24 -1.</_>
        <_>
          8 1 9 12 2.</_>
        <_>
          17 13 9 12 2.</_></rects>
      <tilted>0</tilted></_>
    <_>
      <rects>
        <_>
          8 2 24 9 -1.</_>
        <_>
          16 2 8 9 3.</_></rects>
      <tilted>0</tilted></_>
    <_>
      <rects>
        <_>
          8 3 24 5 -1.</_>
        <_>
          20 3 12 5 2.</_></rects>
      <tilted>0</tilted></_>
    <_>
      <rects>
        <_>
          8 8 16 2 -1.</_>
        <_>
          8 8 8 1 2.</_>
        <_>
          16 9 8 1 2.</_></rects>
      <tilted>0</tilted></_>
    <_>
      <rects>
        <_>
          8 14 14 18 -1.</_>
        <_>
          8 14 7 9 2.</_>
        <_>
          15 23 7 9 2.</_></rects>
      <tilted>0</tilted></_>
    <_>
      <rects>
        <_>
          8 16 13 6 -1.</_>
        <_>
          8 18 13 2 3.</_></rects>
      <tilted>0</tilted></_>
    <_>
      <rects>
        <_>
          8 19 3 5 -1.</_>
        <_>
          9 19 1 5 3.</_></rects>
      <tilted>0</tilted></_>
    <_>
      <rects>
        <_>
          8 20 3 1 -1.</_>
        <_>
          9 20 1 1 3.</_></rects>
      <tilted>0</tilted></_>
    <_>
      <rects>
        <_>
          8 31 24 1 -1.</_>
        <_>
          20 31 12 1 2.</_></rects>
      <tilted>0</tilted></_>
    <_>
      <rects>
        <_>
          9 0 14 1 -1.</_>
        <_>
          16 0 7 1 2.</_></rects>
      <tilted>0</tilted></_>
    <_>
      <rects>
        <_>
          9 14 2 13 -1.</_>
        <_>
          10 14 1 13 2.</_></rects>
      <tilted>0</tilted></_>
    <_>
      <rects>
        <_>
          9 15 2 2 -1.</_>
        <_>
          10 15 1 2 2.</_></rects>
      <tilted>0</tilted></_>
    <_>
      <rects>
        <_>
          9 27 4 5 -1.</_>
        <_>
          11 27 2 5 2.</_></rects>
      <tilted>0</tilted></_>
    <_>
      <rects>
        <_>
          9 28 5 4 -1.</_>
        <_>
          9 30 5 2 2.</_></rects>
      <tilted>0</tilted></_>
    <_>
      <rects>
        <_>
          10 2 21 7 -1.</_>
        <_>
          17 2 7 7 3.</_></rects>
      <tilted>0</tilted></_>
    <_>
      <rects>
        <_>
          10 4 12 4 -1.</_>
        <_>
          14 4 4 4 3.</_></rects>
      <tilted>0</tilted></_>
    <_>
      <rects>
        <_>
          10 5 8 15 -1.</_>
        <_>
          14 5 4 15 2.</_></rects>
      <tilted>0</tilted></_>
    <_>
      <rects>
        <_>
          10 9 4 8 -1.</_>
        <_>
          10 9 2 4 2.</_>
        <_>
          12 13 2 4 2.</_></rects>
      <tilted>0</tilted></_>
    <_>
      <rects>
        <_>
          10 12 2 6 -1.</_>
        <_>
          10 14 2 2 3.</_></rects>
      <tilted>0</tilted></_>
    <_>
      <rects>
        <_>
          10 13 16 14 -1.</_>
        <_>
          10 13 8 7 2.</_>
        <_>
          18 20 8 7 2.</_></rects>
      <tilted>0</tilted></_>
    <_>
      <rects>
        <_>
          10 13 20 9 -1.</_>
        <_>
          20 13 10 9 2.</_></rects>
      <tilted>0</tilted></_>
    <_>
      <rects>
        <_>
          10 21 12 2 -1.</_>
        <_>
          10 22 12 1 2.</_></rects>
      <tilted>0</tilted></_>
    <_>
      <rects>
        <_>
          10 24 12 2 -1.</_>
        <_>
          16 24 6 2 2.</_></rects>
      <tilted>0</tilted></_>
    <_>
      <rects>
        <_>
          10 28 2 4 -1.</_>
        <_>
          10 30 2 2 2.</_></rects>
      <tilted>0</tilted></_>
    <_>
      <rects>
        <_>
          11 4 4 8 -1.</_>
        <_>
          11 8 4 4 2.</_></rects>
      <tilted>0</tilted></_>
    <_>
      <rects>
        <_>
          11 5 2 2 -1.</_>
        <_>
          11 5 1 1 2.</_>
        <_>
          12 6 1 1 2.</_></rects>
      <tilted>0</tilted></_>
    <_>
      <rects>
        <_>
          11 20 6 3 -1.</_>
        <_>
          11 21 6 1 3.</_></rects>
      <tilted>0</tilted></_>
    <_>
      <rects>
        <_>
          11 24 12 8 -1.</_>
        <_>
          15 24 4 8 3.</_></rects>
      <tilted>0</tilted></_>
    <_>
      <rects>
        <_>
          11 25 1 2 -1.</_>
        <_>
          11 26 1 1 2.</_></rects>
      <tilted>0</tilted></_>
    <_>
      <rects>
        <_>
          12 3 2 1 -1.</_>
        <_>
          13 3 1 1 2.</_></rects>
      <tilted>0</tilted></_>
    <_>
      <rects>
        <_>
          12 5 10 7 -1.</_>
        <_>
          17 5 5 7 2.</_></rects>
      <tilted>0</tilted></_>
    <_>
      <rects>
        <_>
          12 9 4 7 -1.</_>
        <_>
          14 9 2 7 2.</_></rects>
      <tilted>0</tilted></_>
    <_>
      <rects>
        <_>
          13 0 14 31 -1.</_>
        <_>
          20 0 7 31 2.</_></rects>
      <tilted>0</tilted></_>
    <_>
      <rects>
        <_>
          13 15 3 5 -1.</_>
        <_>
          14 15 1 5 3.</_></rects>
      <tilted>0</tilted></_>
    <_>
      <rects>
        <_>
          13 15 12 8 -1.</_>
        <_>
          13 15 6 4 2.</_>
        <_>
          19 19 6 4 2.</_></rects>
      <tilted>0</tilted></_>
    <_>
      <rects>
        <_>
          13 17 3 9 -1.</_>
        <_>
          14 17 1 9 3.</_></rects>
      <tilted>0</tilted></_>
    <_>
      <rects>
        <_>
          13 18 12 8 -1.</_>
        <_>
          19 18 6 8 2.</_></rects>
      <tilted>0</tilted></_>
    <_>
      <rects>
        <_>
          13 21 3 2 -1.</_>
        <_>
          14 21 1 2 3.</_></rects>
      <tilted>0</tilted></_>
    <_>
      <rects>
        <_>
          14 0 2 2 -1.</_>
        <_>
          14 1 2 1 2.</_></rects>
      <tilted>0</tilted></_>
    <_>
      <rects>
        <_>
          14 1 14 9 -1.</_>
        <_>
          21 1 7 9 2.</_></rects>
      <tilted>0</tilted></_>
    <_>
      <rects>
        <_>
          14 18 15 14 -1.</_>
        <_>
          19 18 5 14 3.</_></rects>
      <tilted>0</tilted></_>
    <_>
      <rects>
        <_>
          14 19 8 8 -1.</_>
        <_>
          14 19 4 4 2.</_>
        <_>
          18 23 4 4 2.</_></rects>
      <tilted>0</tilted></_>
    <_>
      <rects>
        <_>
          14 21 2 10 -1.</_>
        <_>
          14 21 1 5 2.</_>
        <_>
          15 26 1 5 2.</_></rects>
      <tilted>0</tilted></_>
    <_>
      <rects>
        <_>
          15 1 10 4 -1.</_>
        <_>
          15 1 5 2 2.</_>
        <_>
          20 3 5 2 2.</_></rects>
      <tilted>0</tilted></_>
    <_>
      <rects>
        <_>
          15 2 15 13 -1.</_>
        <_>
          20 2 5 13 3.</_></rects>
      <tilted>0</tilted></_>
    <_>
      <rects>
        <_>
          15 3 3 29 -1.</_>
        <_>
          16 3 1 29 3.</_></rects>
      <tilted>0</tilted></_>
    <_>
      <rects>
        <_>
          15 3 12 3 -1.</_>
        <_>
          19 3 4 3 3.</_></rects>
      <tilted>0</tilted></_>
    <_>
      <rects>
        <_>
          15 14 1 14 -1.</_>
        <_>
          15 21 1 7 2.</_></rects>
      <tilted>0</tilted></_>
    <_>
      <rects>
        <_>
          15 15 2 9 -1.</_>
        <_>
          15 18 2 3 3.</_></rects>
      <tilted>0</tilted></_>
    <_>
      <rects>
        <_>
          15 16 1 9 -1.</_>
        <_>
          15 19 1 3 3.</_></rects>
      <tilted>0</tilted></_>
    <_>
      <rects>
        <_>
          15 16 2 10 -1.</_>
        <_>
          15 16 1 5 2.</_>
        <_>
          16 21 1 5 2.</_></rects>
      <tilted>0</tilted></_>
    <_>
      <rects>
        <_>
          16 2 11 3 -1.</_>
        <_>
          16 3 11 1 3.</_></rects>
      <tilted>0</tilted></_>
    <_>
      <rects>
        <_>
          16 12 15 10 -1.</_>
        <_>
          16 17 15 5 2.</_></rects>
      <tilted>0</tilted></_>
    <_>
      <rects>
        <_>
          16 15 3 11 -1.</_>
        <_>
          17 15 1 11 3.</_></rects>
      <tilted>0</tilted></_>
    <_>
      <rects>
        <_>
          16 29 10 3 -1.</_>
        <_>
          16 30 10 1 3.</_></rects>
      <tilted>0</tilted></_>
    <_>
      <rects>
        <_>
          17 10 3 16 -1.</_>
        <_>
          18 10 1 16 3.</_></rects>
      <tilted>0</tilted></_>
    <_>
      <rects>
        <_>
          17 10 10 18 -1.</_>
        <_>
          17 10 5 9 2.</_>
        <_>
          22 19 5 9 2.</_></rects>
      <tilted>0</tilted></_>
    <_>
      <rects>
        <_>
          17 10 9 3 -1.</_>
        <_>
          17 11 9 1 3.</_></rects>
      <tilted>0</tilted></_>
    <_>
      <rects>
        <_>
          17 13 10 6 -1.</_>
        <_>
          17 15 10 2 3.</_></rects>
      <tilted>0</tilted></_>
    <_>
      <rects>
        <_>
          17 16 9 4 -1.</_>
        <_>
          20 16 3 4 3.</_></rects>
      <tilted>0</tilted></_>
    <_>
      <rects>
        <_>
          17 19 10 2 -1.</_>
        <_>
          17 19 5 1 2.</_>
        <_>
          22 20 5 1 2.</_></rects>
      <tilted>0</tilted></_>
    <_>
      <rects>
        <_>
          17 20 2 1 -1.</_>
        <_>
          18 20 1 1 2.</_></rects>
      <tilted>0</tilted></_>
    <_>
      <rects>
        <_>
          17 31 8 1 -1.</_>
        <_>
          21 31 4 1 2.</_></rects>
      <tilted>0</tilted></_>
    <_>
      <rects>
        <_>
          18 3 1 24 -1.</_>
        <_>
          18 11 1 8 3.</_></rects>
      <tilted>0</tilted></_>
    <_>
      <rects>
        <_>
          18 3 2 9 -1.</_>
        <_>
          19 3 1 9 2.</_></rects>
      <tilted>0</tilted></_>
    <_>
      <rects>
        <_>
          18 3 2 12 -1.</_>
        <_>
          18 7 2 4 3.</_></rects>
      <tilted>0</tilted></_>
    <_>
      <rects>
        <_>
          18 3 7 3 -1.</_>
        <_>
          18 4 7 1 3.</_></rects>
      <tilted>0</tilted></_>
    <_>
      <rects>
        <_>
          18 8 4 4 -1.</_>
        <_>
          20 8 2 4 2.</_></rects>
      <tilted>0</tilted></_>
    <_>
      <rects>
        <_>
          18 10 6 3 -1.</_>
        <_>
          20 10 2 3 3.</_></rects>
      <tilted>0</tilted></_>
    <_>
      <rects>
        <_>
          18 15 1 3 -1.</_>
        <_>
          18 16 1 1 3.</_></rects>
      <tilted>0</tilted></_>
    <_>
      <rects>
        <_>
          18 16 2 3 -1.</_>
        <_>
          18 17 2 1 3.</_></rects>
      <tilted>0</tilted></_>
    <_>
      <rects>
        <_>
          19 0 4 18 -1.</_>
        <_>
          19 6 4 6 3.</_></rects>
      <tilted>0</tilted></_>
    <_>
      <rects>
        <_>
          19 9 9 21 -1.</_>
        <_>
          19 16 9 7 3.</_></rects>
      <tilted>0</tilted></_>
    <_>
      <rects>
        <_>
          19 11 12 14 -1.</_>
        <_>
          23 11 4 14 3.</_></rects>
      <tilted>0</tilted></_>
    <_>
      <rects>
        <_>
          19 12 3 3 -1.</_>
        <_>
          20 12 1 3 3.</_></rects>
      <tilted>0</tilted></_>
    <_>
      <rects>
        <_>
          19 20 2 2 -1.</_>
        <_>
          19 20 1 1 2.</_>
        <_>
          20 21 1 1 2.</_></rects>
      <tilted>0</tilted></_>
    <_>
      <rects>
        <_>
          19 21 6 11 -1.</_>
        <_>
          22 21 3 11 2.</_></rects>
      <tilted>0</tilted></_>
    <_>
      <rects>
        <_>
          20 5 9 6 -1.</_>
        <_>
          23 5 3 6 3.</_></rects>
      <tilted>0</tilted></_>
    <_>
      <rects>
        <_>
          20 13 9 18 -1.</_>
        <_>
          20 19 9 6 3.</_></rects>
      <tilted>0</tilted></_>
    <_>
      <rects>
        <_>
          20 22 6 2 -1.</_>
        <_>
          22 22 2 2 3.</_></rects>
      <tilted>0</tilted></_>
    <_>
      <rects>
        <_>
          21 0 2 28 -1.</_>
        <_>
          21 0 1 14 2.</_>
        <_>
          22 14 1 14 2.</_></rects>
      <tilted>0</tilted></_>
    <_>
      <rects>
        <_>
          21 3 10 2 -1.</_>
        <_>
          21 4 10 1 2.</_></rects>
      <tilted>0</tilted></_>
    <_>
      <rects>
        <_>
          21 12 6 6 -1.</_>
        <_>
          21 12 3 3 2.</_>
        <_>
          24 15 3 3 2.</_></rects>
      <tilted>0</tilted></_>
    <_>
      <rects>
        <_>
          21 25 3 3 -1.</_>
        <_>
          21 26 3 1 3.</_></rects>
      <tilted>0</tilted></_>
    <_>
      <rects>
        <_>
          22 0 1 24 -1.</_>
        <_>
          22 8 1 8 3.</_></rects>
      <tilted>0</tilted></_>
    <_>
      <rects>
        <_>
          22 15 6 8 -1.</_>
        <_>
          22 15 3 4 2.</_>
        <_>
          25 19 3 4 2.</_></rects>
      <tilted>0</tilted></_>
    <_>
      <rects>
        <_>
          22 19 2 10 -1.</_>
        <_>
          22 19 1 5 2.</_>
        <_>
          23 24 1 5 2.</_></rects>
      <tilted>0</tilted></_>
    <_>
      <rects>
        <_>
          22 20 3 6 -1.</_>
        <_>
          22 22 3 2 3.</_></rects>
      <tilted>0</tilted></_>
    <_>
      <rects>
        <_>
          23 2 2 30 -1.</_>
        <_>
          23 2 1 15 2.</_>
        <_>
          24 17 1 15 2.</_></rects>
      <tilted>0</tilted></_>
    <_>
      <rects>
        <_>
          23 12 9 13 -1.</_>
        <_>
          26 12 3 13 3.</_></rects>
      <tilted>0</tilted></_>
    <_>
      <rects>
        <_>
          23 15 9 1 -1.</_>
        <_>
          26 15 3 1 3.</_></rects>
      <tilted>0</tilted></_>
    <_>
      <rects>
        <_>
          23 24 1 2 -1.</_>
        <_>
          23 25 1 1 2.</_></rects>
      <tilted>0</tilted></_>
    <_>
      <rects>
        <_>
          23 29 9 3 -1.</_>
        <_>
          23 30 9 1 3.</_></rects>
      <tilted>0</tilted></_>
    <_>
      <rects>
        <_>
          24 1 3 23 -1.</_>
        <_>
          25 1 1 23 3.</_></rects>
      <tilted>0</tilted></_>
    <_>
      <rects>
        <_>
          24 1 4 30 -1.</_>
        <_>
          24 1 2 15 2.</_>
        <_>
          26 16 2 15 2.</_></rects>
      <tilted>0</tilted></_>
    <_>
      <rects>
        <_>
          24 5 8 2 -1.</_>
        <_>
          24 5 4 1 2.</_>
        <_>
          28 6 4 1 2.</_></rects>
      <tilted>0</tilted></_>
    <_>
      <rects>
        <_>
          24 16 3 8 -1.</_>
        <_>
          25 16 1 8 3.</_></rects>
      <tilted>0</tilted></_>
    <_>
      <rects>
        <_>
          25 2 2 7 -1.</_>
        <_>
          26 2 1 7 2.</_></rects>
      <tilted>0</tilted></_>
    <_>
      <rects>
        <_>
          25 4 2 1 -1.</_>
        <_>
          26 4 1 1 2.</_></rects>
      <tilted>0</tilted></_>
    <_>
      <rects>
        <_>
          25 9 3 14 -1.</_>
        <_>
          26 9 1 14 3.</_></rects>
      <tilted>0</tilted></_>
    <_>
      <rects>
        <_>
          25 12 4 16 -1.</_>
        <_>
          25 12 2 8 2.</_>
        <_>
          27 20 2 8 2.</_></rects>
      <tilted>0</tilted></_>
    <_>
      <rects>
        <_>
          25 26 2 5 -1.</_>
        <_>
          26 26 1 5 2.</_></rects>
      <tilted>0</tilted></_>
    <_>
      <rects>
        <_>
          26 3 6 3 -1.</_>
        <_>
          28 3 2 3 3.</_></rects>
      <tilted>0</tilted></_>
    <_>
      <rects>
        <_>
          26 8 4 2 -1.</_>
        <_>
          26 8 2 1 2.</_>
        <_>
          28 9 2 1 2.</_></rects>
      <tilted>0</tilted></_>
    <_>
      <rects>
        <_>
          26 16 4 6 -1.</_>
        <_>
          26 18 4 2 3.</_></rects>
      <tilted>0</tilted></_>
    <_>
      <rects>
        <_>
          27 24 4 1 -1.</_>
        <_>
          29 24 2 1 2.</_></rects>
      <tilted>0</tilted></_>
    <_>
      <rects>
        <_>
          28 12 4 14 -1.</_>
        <_>
          28 12 2 7 2.</_>
        <_>
          30 19 2 7 2.</_></rects>
      <tilted>0</tilted></_>
    <_>
      <rects>
        <_>
          28 15 3 6 -1.</_>
        <_>
          29 15 1 6 3.</_></rects>
      <tilted>0</tilted></_>
    <_>
      <rects>
        <_>
          28 16 4 3 -1.</_>
        <_>
          28 17 4 1 3.</_></rects>
      <tilted>0</tilted></_>
    <_>
      <rects>
        <_>
          28 17 1 6 -1.</_>
        <_>
          28 20 1 3 2.</_></rects>
      <tilted>0</tilted></_>
    <_>
      <rects>
        <_>
          28 25 2 6 -1.</_>
        <_>
          29 25 1 6 2.</_></rects>
      <tilted>0</tilted></_>
    <_>
      <rects>
        <_>
          29 23 3 1 -1.</_>
        <_>
          30 23 1 1 3.</_></rects>
      <tilted>0</tilted></_></features></cascade>
</opencv_storage>
