<?xml version="1.0"?>
<opencv_storage>
<cascade>
  <stageType>BOOST</stageType>
  <featureType>HAAR</featureType>
  <height>32</height>
  <width>32</width>
  <stageParams>
    <boostType>GAB</boostType>
    <minHitRate>9.9500000476837158e-01</minHitRate>
    <maxFalseAlarm>5.0000000000000000e-01</maxFalseAlarm>
    <weightTrimRate>9.4999998807907104e-01</weightTrimRate>
    <maxDepth>1</maxDepth>
    <maxWeakCount>100</maxWeakCount></stageParams>
  <featureParams>
    <maxCatCount>0</maxCatCount>
    <featSize>1</featSize>
    <mode>BASIC</mode></featureParams>
  <stageNum>9</stageNum>
  <stages>
    <!-- stage 0 -->
    <_>
      <maxWeakCount>32</maxWeakCount>
      <stageThreshold>-1.0553834438323975e+00</stageThreshold>
      <weakClassifiers>
        <_>
          <internalNodes>
            0 -1 188 -8.8878924725577235e-04</internalNodes>
          <leafValues>
            1.4832535386085510e-01 -4.1130906343460083e-01</leafValues></_>
        <_>
          <internalNodes>
            0 -1 5 6.1475187540054321e-02</internalNodes>
          <leafValues>
            5.8500740677118301e-02 -5.4029774665832520e-01</leafValues></_>
        <_>
          <internalNodes>
            0 -1 141 1.3104322366416454e-02</internalNodes>
          <leafValues>
            -1.1960183084011078e-01 3.1094735860824585e-01</leafValues></_>
        <_>
          <internalNodes>
            0 -1 196 -1.7927672888617963e-04</internalNodes>
          <leafValues>
            3.8826051354408264e-01 -6.5571464598178864e-02</leafValues></_>
        <_>
          <internalNodes>
            0 -1 186 8.2776406779885292e-03</internalNodes>
          <leafValues>
            8.6317420005798340e-02 -4.2608559131622314e-01</leafValues></_>
        <_>
          <internalNodes>
            0 -1 163 -1.9803959876298904e-03</internalNodes>
          <leafValues>
            2.3412619531154633e-01 -1.5170195698738098e-01</leafValues></_>
        <_>
          <internalNodes>
            0 -1 166 1.6208425164222717e-02</internalNodes>
          <leafValues>
            7.1588464081287384e-02 -5.4120081663131714e-01</leafValues></_>
        <_>
          <internalNodes>
            0 -1 115 -7.7101815259084105e-04</internalNodes>
          <leafValues>
            2.6056516170501709e-01 -1.3070550560951233e-01</leafValues></_>
        <_>
          <internalNodes>
            0 -1 180 -5.2499733865261078e-02</internalNodes>
          <leafValues>
            -4.0990826487541199e-01 8.3950124680995941e-02</leafValues></_>
        <_>
          <internalNodes>
            0 -1 25 9.1690843692049384e-04</internalNodes>
          <leafValues>
            -1.1180713772773743e-01 3.0467951297760010e-01</leafValues></_>
        <_>
          <internalNodes>
            0 -1 50 -7.0040188729763031e-03</internalNodes>
          <leafValues>
            -6.2314647436141968e-01 4.3805427849292755e-02</leafValues></_>
        <_>
          <internalNodes>
            0 -1 96 -6.0817815363407135e-02</internalNodes>
          <leafValues>
            -6.6839724779129028e-01 4.6031560748815536e-02</leafValues></_>
        <_>
          <internalNodes>
            0 -1 78 -4.1289784014225006e-02</internalNodes>
          <leafValues>
            -8.3228719234466553e-01 2.5575548410415649e-02</leafValues></_>
        <_>
          <internalNodes>
            0 -1 28 5.0455227028578520e-04</internalNodes>
          <leafValues>
            -8.5920609533786774e-02 3.4591355919837952e-01</leafValues></_>
        <_>
          <internalNodes>
            0 -1 15 3.2175015658140182e-03</internalNodes>
          <leafValues>
            5.5349379777908325e-02 -5.9283697605133057e-01</leafValues></_>
        <_>
          <internalNodes>
            0 -1 33 2.1959943696856499e-03</internalNodes>
          <leafValues>
            -1.1608225107192993e-01 2.8192925453186035e-01</leafValues></_>
        <_>
          <internalNodes>
            0 -1 63 3.7371339276432991e-03</internalNodes>
          <leafValues>
            -1.2443082779645920e-01 2.4544823169708252e-01</leafValues></_>
        <_>
          <internalNodes>
            0 -1 62 9.8120486363768578e-03</internalNodes>
          <leafValues>
            9.6903495490550995e-02 -3.4659376740455627e-01</leafValues></_>
        <_>
          <internalNodes>
            0 -1 100 6.6938542295247316e-04</internalNodes>
          <leafValues>
            -1.2409108132123947e-01 2.6738882064819336e-01</leafValues></_>
        <_>
          <internalNodes>
            0 -1 71 -1.2037780834361911e-03</internalNodes>
          <leafValues>
            3.6860257387161255e-01 -8.1269398331642151e-02</leafValues></_>
        <_>
          <internalNodes>
            0 -1 139 2.8557712212204933e-03</internalNodes>
          <leafValues>
            9.3842439353466034e-02 -3.2506307959556580e-01</leafValues></_>
        <_>
          <internalNodes>
            0 -1 148 3.0812725890427828e-04</internalNodes>
          <leafValues>
            -1.0914535820484161e-01 2.6730048656463623e-01</leafValues></_>
        <_>
          <internalNodes>
            0 -1 29 -1.6544288396835327e-01</internalNodes>
          <leafValues>
            4.2267802357673645e-01 -7.6512247323989868e-02</leafValues></_>
        <_>
          <internalNodes>
            0 -1 37 5.1408622413873672e-02</internalNodes>
          <leafValues>
            -8.3590269088745117e-02 3.7877818942070007e-01</leafValues></_>
        <_>
          <internalNodes>
            0 -1 198 -1.9459743634797633e-04</internalNodes>
          <leafValues>
            2.3227173089981079e-01 -1.3058258593082428e-01</leafValues></_>
        <_>
          <internalNodes>
            0 -1 157 3.4093726426362991e-03</internalNodes>
          <leafValues>
            8.8369645178318024e-02 -3.5107985138893127e-01</leafValues></_>
        <_>
          <internalNodes>
            0 -1 203 -1.0899256914854050e-02</internalNodes>
          <leafValues>
            -5.9560567140579224e-01 5.2807625383138657e-02</leafValues></_>
        <_>
          <internalNodes>
            0 -1 44 5.3043313324451447e-02</internalNodes>
          <leafValues>
            3.8767438381910324e-02 -6.5028601884841919e-01</leafValues></_>
        <_>
          <internalNodes>
            0 -1 175 3.2593854703009129e-03</internalNodes>
          <leafValues>
            5.0203863531351089e-02 -5.5387681722640991e-01</leafValues></_>
        <_>
          <internalNodes>
            0 -1 110 -7.9286973923444748e-03</internalNodes>
          <leafValues>
            -3.6454409360885620e-01 7.6981388032436371e-02</leafValues></_>
        <_>
          <internalNodes>
            0 -1 199 -1.1878924444317818e-02</internalNodes>
          <leafValues>
            -5.8425456285476685e-01 4.5397531241178513e-02</leafValues></_>
        <_>
          <internalNodes>
            0 -1 6 9.8039209842681885e-02</internalNodes>
          <leafValues>
            -6.6811025142669678e-02 5.4451406002044678e-01</leafValues></_></weakClassifiers></_>
    <!-- stage 1 -->
    <_>
      <maxWeakCount>36</maxWeakCount>
      <stageThreshold>-1.0586097240447998e+00</stageThreshold>
      <weakClassifiers>
        <_>
          <internalNodes>
            0 -1 26 2.9313215054571629e-04</internalNodes>
          <leafValues>
            -4.0198323130607605e-01 1.4285714924335480e-01</leafValues></_>
        <_>
          <internalNodes>
            0 -1 47 6.8275064229965210e-02</internalNodes>
          <leafValues>
            -1.2844182550907135e-01 2.7342441678047180e-01</leafValues></_>
        <_>
          <internalNodes>
            0 -1 64 -8.0040656030178070e-05</internalNodes>
          <leafValues>
            2.2900506854057312e-01 -1.2093215435743332e-01</leafValues></_>
        <_>
          <internalNodes>
            0 -1 111 -7.7690100297331810e-03</internalNodes>
          <leafValues>
            2.5059622526168823e-01 -1.0315322875976563e-01</leafValues></_>
        <_>
          <internalNodes>
            0 -1 193 6.2426915974356234e-05</internalNodes>
          <leafValues>
            -1.0918093472719193e-01 2.4818319082260132e-01</leafValues></_>
        <_>
          <internalNodes>
            0 -1 208 -2.3060955572873354e-04</internalNodes>
          <leafValues>
            3.0547887086868286e-01 -8.1419378519058228e-02</leafValues></_>
        <_>
          <internalNodes>
            0 -1 140 -3.3036034437827766e-05</internalNodes>
          <leafValues>
            1.5957525372505188e-01 -1.5482328832149506e-01</leafValues></_>
        <_>
          <internalNodes>
            0 -1 117 -4.1876239702105522e-03</internalNodes>
          <leafValues>
            -5.0035804510116577e-01 9.7215667366981506e-02</leafValues></_>
        <_>
          <internalNodes>
            0 -1 164 -1.1502255074447021e-04</internalNodes>
          <leafValues>
            1.9045741856098175e-01 -1.5366832911968231e-01</leafValues></_>
        <_>
          <internalNodes>
            0 -1 8 9.6968496218323708e-03</internalNodes>
          <leafValues>
            1.0025558620691299e-01 -4.2935949563980103e-01</leafValues></_>
        <_>
          <internalNodes>
            0 -1 90 3.5015951842069626e-02</internalNodes>
          <leafValues>
            4.2721349745988846e-02 -5.1643759012222290e-01</leafValues></_>
        <_>
          <internalNodes>
            0 -1 16 3.8430571556091309e-02</internalNodes>
          <leafValues>
            -1.4028584957122803e-01 2.4426732957363129e-01</leafValues></_>
        <_>
          <internalNodes>
            0 -1 178 2.0051753381267190e-04</internalNodes>
          <leafValues>
            -8.7440319359302521e-02 2.6679763197898865e-01</leafValues></_>
        <_>
          <internalNodes>
            0 -1 92 -7.0012034848332405e-03</internalNodes>
          <leafValues>
            -7.0735758543014526e-01 3.4346595406532288e-02</leafValues></_>
        <_>
          <internalNodes>
            0 -1 61 3.4942445927299559e-04</internalNodes>
          <leafValues>
            -6.6091373562812805e-02 3.9970147609710693e-01</leafValues></_>
        <_>
          <internalNodes>
            0 -1 75 -3.6255773156881332e-02</internalNodes>
          <leafValues>
            -9.1883760690689087e-01 2.9014844447374344e-02</leafValues></_>
        <_>
          <internalNodes>
            0 -1 22 3.8888156996108592e-04</internalNodes>
          <leafValues>
            -1.1620445549488068e-01 2.2544953227043152e-01</leafValues></_>
        <_>
          <internalNodes>
            0 -1 11 -2.2841155529022217e-02</internalNodes>
          <leafValues>
            -4.6477055549621582e-01 6.3450478017330170e-02</leafValues></_>
        <_>
          <internalNodes>
            0 -1 202 -6.6858675563707948e-04</internalNodes>
          <leafValues>
            2.8173008561134338e-01 -9.4425141811370850e-02</leafValues></_>
        <_>
          <internalNodes>
            0 -1 58 1.9181601237505674e-03</internalNodes>
          <leafValues>
            9.8759204149246216e-02 -3.0889415740966797e-01</leafValues></_>
        <_>
          <internalNodes>
            0 -1 206 3.7130997516214848e-03</internalNodes>
          <leafValues>
            4.2310439050197601e-02 -6.0902094841003418e-01</leafValues></_>
        <_>
          <internalNodes>
            0 -1 209 -2.4935003602877259e-04</internalNodes>
          <leafValues>
            2.2783735394477844e-01 -1.2389254570007324e-01</leafValues></_>
        <_>
          <internalNodes>
            0 -1 43 -2.4772009346634150e-03</internalNodes>
          <leafValues>
            -1.6367207467556000e-01 1.5702994167804718e-01</leafValues></_>
        <_>
          <internalNodes>
            0 -1 74 -1.3748522615060210e-03</internalNodes>
          <leafValues>
            2.8259235620498657e-01 -1.0011654347181320e-01</leafValues></_>
        <_>
          <internalNodes>
            0 -1 189 -6.3218083232641220e-04</internalNodes>
          <leafValues>
            2.0207697153091431e-01 -1.2810803949832916e-01</leafValues></_>
        <_>
          <internalNodes>
            0 -1 83 4.0483539924025536e-03</internalNodes>
          <leafValues>
            3.8473367691040039e-02 -6.5759891271591187e-01</leafValues></_>
        <_>
          <internalNodes>
            0 -1 123 -7.2805387899279594e-03</internalNodes>
          <leafValues>
            -4.6142977476119995e-01 5.4421320557594299e-02</leafValues></_>
        <_>
          <internalNodes>
            0 -1 190 -2.2429494129028171e-04</internalNodes>
          <leafValues>
            2.7099585533142090e-01 -1.0174018889665604e-01</leafValues></_>
        <_>
          <internalNodes>
            0 -1 182 5.6871138513088226e-03</internalNodes>
          <leafValues>
            3.8947738707065582e-02 -6.9852882623672485e-01</leafValues></_>
        <_>
          <internalNodes>
            0 -1 69 1.3677410315722227e-03</internalNodes>
          <leafValues>
            -1.0481699556112289e-01 2.7104818820953369e-01</leafValues></_>
        <_>
          <internalNodes>
            0 -1 105 -1.6333913430571556e-02</internalNodes>
          <leafValues>
            -7.6149570941925049e-01 3.5157524049282074e-02</leafValues></_>
        <_>
          <internalNodes>
            0 -1 118 -3.0473638325929642e-03</internalNodes>
          <leafValues>
            1.9992224872112274e-01 -1.3542063534259796e-01</leafValues></_>
        <_>
          <internalNodes>
            0 -1 20 6.3390657305717468e-02</internalNodes>
          <leafValues>
            -6.4695231616497040e-02 4.9643576145172119e-01</leafValues></_>
        <_>
          <internalNodes>
            0 -1 127 -4.2178449220955372e-03</internalNodes>
          <leafValues>
            -3.1961408257484436e-01 9.5903433859348297e-02</leafValues></_>
        <_>
          <internalNodes>
            0 -1 147 2.2377960383892059e-02</internalNodes>
          <leafValues>
            2.7829183265566826e-02 -8.5300832986831665e-01</leafValues></_>
        <_>
          <internalNodes>
            0 -1 73 2.1057661797385663e-04</internalNodes>
          <leafValues>
            -1.3328368961811066e-01 2.1497631072998047e-01</leafValues></_></weakClassifiers></_>
    <!-- stage 2 -->
    <_>
      <maxWeakCount>39</maxWeakCount>
      <stageThreshold>-1.0319886207580566e+00</stageThreshold>
      <weakClassifiers>
        <_>
          <internalNodes>
            0 -1 210 1.0479006450623274e-03</internalNodes>
          <leafValues>
            -3.6082473397254944e-01 5.5555558204650879e-01</leafValues></_>
        <_>
          <internalNodes>
            0 -1 207 6.6507107112556696e-04</internalNodes>
          <leafValues>
            -9.1493166983127594e-02 3.8816791772842407e-01</leafValues></_>
        <_>
          <internalNodes>
            0 -1 116 4.3205693364143372e-03</internalNodes>
          <leafValues>
            -6.4085699617862701e-02 4.1151833534240723e-01</leafValues></_>
        <_>
          <internalNodes>
            0 -1 120 2.1092269162181765e-04</internalNodes>
          <leafValues>
            -1.0627048462629318e-01 2.2327548265457153e-01</leafValues></_>
        <_>
          <internalNodes>
            0 -1 14 -6.9375112652778625e-02</internalNodes>
          <leafValues>
            -6.4434534311294556e-01 3.0942071229219437e-02</leafValues></_>
        <_>
          <internalNodes>
            0 -1 48 1.1023358441889286e-02</internalNodes>
          <leafValues>
            -7.3450043797492981e-02 3.2221445441246033e-01</leafValues></_>
        <_>
          <internalNodes>
            0 -1 60 -4.8812949098646641e-03</internalNodes>
          <leafValues>
            1.7751242220401764e-01 -1.3600605726242065e-01</leafValues></_>
        <_>
          <internalNodes>
            0 -1 103 -6.6749774850904942e-03</internalNodes>
          <leafValues>
            -8.8706880807876587e-01 2.7488088235259056e-02</leafValues></_>
        <_>
          <internalNodes>
            0 -1 4 -2.4943781318143010e-04</internalNodes>
          <leafValues>
            2.2679442167282104e-01 -1.1465766280889511e-01</leafValues></_>
        <_>
          <internalNodes>
            0 -1 183 -1.0110507719218731e-03</internalNodes>
          <leafValues>
            2.3280797898769379e-01 -1.0975223034620285e-01</leafValues></_>
        <_>
          <internalNodes>
            0 -1 150 -5.8622382581233978e-02</internalNodes>
          <leafValues>
            3.3426278829574585e-01 -7.8279264271259308e-02</leafValues></_>
        <_>
          <internalNodes>
            0 -1 19 5.2270796149969101e-03</internalNodes>
          <leafValues>
            -3.1188949942588806e-02 4.7592586278915405e-01</leafValues></_>
        <_>
          <internalNodes>
            0 -1 181 -8.4035592153668404e-03</internalNodes>
          <leafValues>
            -7.6420462131500244e-01 3.2978937029838562e-02</leafValues></_>
        <_>
          <internalNodes>
            0 -1 146 6.6359117627143860e-03</internalNodes>
          <leafValues>
            3.5865452140569687e-02 -6.6068255901336670e-01</leafValues></_>
        <_>
          <internalNodes>
            0 -1 66 -1.7775071784853935e-02</internalNodes>
          <leafValues>
            6.0861217975616455e-01 -6.9545969367027283e-02</leafValues></_>
        <_>
          <internalNodes>
            0 -1 53 -9.7410921007394791e-03</internalNodes>
          <leafValues>
            -6.7559826374053955e-01 4.3692909181118011e-02</leafValues></_>
        <_>
          <internalNodes>
            0 -1 1 5.4620415903627872e-04</internalNodes>
          <leafValues>
            -7.7570974826812744e-02 3.3212995529174805e-01</leafValues></_>
        <_>
          <internalNodes>
            0 -1 49 -7.7060161856934428e-04</internalNodes>
          <leafValues>
            -1.9504506886005402e-01 1.3706120848655701e-01</leafValues></_>
        <_>
          <internalNodes>
            0 -1 137 -3.9355889894068241e-03</internalNodes>
          <leafValues>
            2.3983292281627655e-01 -1.1712979525327682e-01</leafValues></_>
        <_>
          <internalNodes>
            0 -1 45 4.7259572893381119e-03</internalNodes>
          <leafValues>
            4.9304984509944916e-02 -5.2951949834823608e-01</leafValues></_>
        <_>
          <internalNodes>
            0 -1 145 -2.7956110425293446e-03</internalNodes>
          <leafValues>
            1.9151161611080170e-01 -1.4547456800937653e-01</leafValues></_>
        <_>
          <internalNodes>
            0 -1 51 -5.4877751972526312e-04</internalNodes>
          <leafValues>
            2.3136469721794128e-01 -1.1594022810459137e-01</leafValues></_>
        <_>
          <internalNodes>
            0 -1 167 -1.6821410972625017e-03</internalNodes>
          <leafValues>
            2.4553120136260986e-01 -1.1509036272764206e-01</leafValues></_>
        <_>
          <internalNodes>
            0 -1 55 -5.1053287461400032e-03</internalNodes>
          <leafValues>
            -2.4236172437667847e-01 1.1152490973472595e-01</leafValues></_>
        <_>
          <internalNodes>
            0 -1 149 5.0249852240085602e-02</internalNodes>
          <leafValues>
            -6.0570120811462402e-02 4.1933733224868774e-01</leafValues></_>
        <_>
          <internalNodes>
            0 -1 133 -3.3612303435802460e-02</internalNodes>
          <leafValues>
            -5.7788079977035522e-01 4.5548547059297562e-02</leafValues></_>
        <_>
          <internalNodes>
            0 -1 122 -1.2367640156298876e-03</internalNodes>
          <leafValues>
            -3.5958379507064819e-01 7.7170051634311676e-02</leafValues></_>
        <_>
          <internalNodes>
            0 -1 135 2.2377267479896545e-02</internalNodes>
          <leafValues>
            4.8916593194007874e-02 -5.1606184244155884e-01</leafValues></_>
        <_>
          <internalNodes>
            0 -1 38 2.6354423607699573e-04</internalNodes>
          <leafValues>
            -1.4927147328853607e-01 1.8865473568439484e-01</leafValues></_>
        <_>
          <internalNodes>
            0 -1 114 -1.7882406245917082e-03</internalNodes>
          <leafValues>
            1.6397827863693237e-01 -1.6412481665611267e-01</leafValues></_>
        <_>
          <internalNodes>
            0 -1 54 6.8028075620532036e-03</internalNodes>
          <leafValues>
            6.0337111353874207e-02 -4.6971428394317627e-01</leafValues></_>
        <_>
          <internalNodes>
            0 -1 176 -5.7394830510020256e-03</internalNodes>
          <leafValues>
            4.3404227495193481e-01 -6.4803622663021088e-02</leafValues></_>
        <_>
          <internalNodes>
            0 -1 109 5.3874435252510011e-05</internalNodes>
          <leafValues>
            1.5669633448123932e-01 -1.9235196709632874e-01</leafValues></_>
        <_>
          <internalNodes>
            0 -1 144 2.0521041005849838e-02</internalNodes>
          <leafValues>
            5.4202936589717865e-02 -5.5641835927963257e-01</leafValues></_>
        <_>
          <internalNodes>
            0 -1 41 -7.6430698391050100e-04</internalNodes>
          <leafValues>
            4.1694924235343933e-01 -7.3026753962039948e-02</leafValues></_>
        <_>
          <internalNodes>
            0 -1 106 -4.1619208059273660e-04</internalNodes>
          <leafValues>
            2.2591549158096313e-01 -1.2797816097736359e-01</leafValues></_>
        <_>
          <internalNodes>
            0 -1 179 -2.5714837014675140e-02</internalNodes>
          <leafValues>
            -5.6607264280319214e-01 4.5360784977674484e-02</leafValues></_>
        <_>
          <internalNodes>
            0 -1 159 9.2572700232267380e-03</internalNodes>
          <leafValues>
            -8.6209565401077271e-02 3.7484437227249146e-01</leafValues></_>
        <_>
          <internalNodes>
            0 -1 77 -8.0956774763762951e-04</internalNodes>
          <leafValues>
            2.6724973320960999e-01 -1.1332526803016663e-01</leafValues></_></weakClassifiers></_>
    <!-- stage 3 -->
    <_>
      <maxWeakCount>39</maxWeakCount>
      <stageThreshold>-1.1329612731933594e+00</stageThreshold>
      <weakClassifiers>
        <_>
          <internalNodes>
            0 -1 0 1.1205981718376279e-03</internalNodes>
          <leafValues>
            -3.7526205182075500e-01 5.3623187541961670e-01</leafValues></_>
        <_>
          <internalNodes>
            0 -1 101 5.7269297540187836e-03</internalNodes>
          <leafValues>
            1.0647763265296817e-03 -8.6144483089447021e-01</leafValues></_>
        <_>
          <internalNodes>
            0 -1 143 -6.0232635587453842e-04</internalNodes>
          <leafValues>
            2.9737398028373718e-01 -1.1325153708457947e-01</leafValues></_>
        <_>
          <internalNodes>
            0 -1 174 -1.6998610226437449e-03</internalNodes>
          <leafValues>
            9.0549981594085693e-01 -1.8992569297552109e-02</leafValues></_>
        <_>
          <internalNodes>
            0 -1 121 -4.9064029008150101e-02</internalNodes>
          <leafValues>
            -5.8049237728118896e-01 5.7770375162363052e-02</leafValues></_>
        <_>
          <internalNodes>
            0 -1 86 -1.5233252197504044e-03</internalNodes>
          <leafValues>
            4.1790610551834106e-01 -6.5928652882575989e-02</leafValues></_>
        <_>
          <internalNodes>
            0 -1 130 2.2819577716290951e-03</internalNodes>
          <leafValues>
            -1.4477477967739105e-01 2.2366088628768921e-01</leafValues></_>
        <_>
          <internalNodes>
            0 -1 104 -9.5273461192846298e-04</internalNodes>
          <leafValues>
            2.4933914840221405e-01 -1.3547320663928986e-01</leafValues></_>
        <_>
          <internalNodes>
            0 -1 161 -3.0109597719274461e-04</internalNodes>
          <leafValues>
            -3.2752659916877747e-01 9.5026083290576935e-02</leafValues></_>
        <_>
          <internalNodes>
            0 -1 85 -1.2510605156421661e-03</internalNodes>
          <leafValues>
            4.9807983636856079e-01 -4.9604192376136780e-02</leafValues></_>
        <_>
          <internalNodes>
            0 -1 94 -3.3431504562031478e-05</internalNodes>
          <leafValues>
            2.0610040426254272e-01 -1.7414197325706482e-01</leafValues></_>
        <_>
          <internalNodes>
            0 -1 56 1.6134283505380154e-03</internalNodes>
          <leafValues>
            6.2864392995834351e-02 -6.4517408609390259e-01</leafValues></_>
        <_>
          <internalNodes>
            0 -1 30 3.9920131675899029e-03</internalNodes>
          <leafValues>
            1.4539118111133575e-01 -2.2122587263584137e-01</leafValues></_>
        <_>
          <internalNodes>
            0 -1 87 3.2366784289479256e-03</internalNodes>
          <leafValues>
            1.3529583811759949e-01 -3.0629462003707886e-01</leafValues></_>
        <_>
          <internalNodes>
            0 -1 197 -1.1215264385100454e-04</internalNodes>
          <leafValues>
            3.4404554963111877e-01 -1.1994958668947220e-01</leafValues></_>
        <_>
          <internalNodes>
            0 -1 91 -2.2391001693904400e-03</internalNodes>
          <leafValues>
            2.5115790963172913e-01 -1.5742152929306030e-01</leafValues></_>
        <_>
          <internalNodes>
            0 -1 84 2.5514751672744751e-02</internalNodes>
          <leafValues>
            -1.0254313796758652e-01 3.6421737074851990e-01</leafValues></_>
        <_>
          <internalNodes>
            0 -1 136 1.8415655940771103e-03</internalNodes>
          <leafValues>
            5.6947253644466400e-02 -5.5599921941757202e-01</leafValues></_>
        <_>
          <internalNodes>
            0 -1 126 -1.2143504573032260e-03</internalNodes>
          <leafValues>
            -2.8244146704673767e-01 1.3087454438209534e-01</leafValues></_>
        <_>
          <internalNodes>
            0 -1 34 -6.6588137997314334e-04</internalNodes>
          <leafValues>
            4.4270306825637817e-01 -8.9758761227130890e-02</leafValues></_>
        <_>
          <internalNodes>
            0 -1 2 -1.5243770030792803e-04</internalNodes>
          <leafValues>
            2.9983475804328918e-01 -1.2111712992191315e-01</leafValues></_>
        <_>
          <internalNodes>
            0 -1 142 1.3606256106868386e-04</internalNodes>
          <leafValues>
            -1.6381491720676422e-01 2.3213127255439758e-01</leafValues></_>
        <_>
          <internalNodes>
            0 -1 195 4.4215499656274915e-05</internalNodes>
          <leafValues>
            -1.6549254953861237e-01 2.4879249930381775e-01</leafValues></_>
        <_>
          <internalNodes>
            0 -1 194 1.6961796209216118e-03</internalNodes>
          <leafValues>
            7.9992644488811493e-02 -5.3104126453399658e-01</leafValues></_>
        <_>
          <internalNodes>
            0 -1 205 -4.6381424181163311e-03</internalNodes>
          <leafValues>
            -4.7070914506912231e-01 8.0047197639942169e-02</leafValues></_>
        <_>
          <internalNodes>
            0 -1 79 1.0154262185096741e-02</internalNodes>
          <leafValues>
            -7.0989847183227539e-02 5.4871332645416260e-01</leafValues></_>
        <_>
          <internalNodes>
            0 -1 12 -1.1821716325357556e-03</internalNodes>
          <leafValues>
            2.7788847684860229e-01 -1.3607275485992432e-01</leafValues></_>
        <_>
          <internalNodes>
            0 -1 95 -2.3477460490539670e-04</internalNodes>
          <leafValues>
            2.8420677781105042e-01 -1.4254619181156158e-01</leafValues></_>
        <_>
          <internalNodes>
            0 -1 21 -6.7841110285371542e-04</internalNodes>
          <leafValues>
            2.5204229354858398e-01 -1.5086609125137329e-01</leafValues></_>
        <_>
          <internalNodes>
            0 -1 168 1.6166174318641424e-03</internalNodes>
          <leafValues>
            -9.8901771008968353e-02 4.0071284770965576e-01</leafValues></_>
        <_>
          <internalNodes>
            0 -1 172 9.1465323930606246e-04</internalNodes>
          <leafValues>
            1.3628147542476654e-01 -3.1590443849563599e-01</leafValues></_>
        <_>
          <internalNodes>
            0 -1 171 2.3093161871656775e-05</internalNodes>
          <leafValues>
            1.9920073449611664e-01 -2.2349871695041656e-01</leafValues></_>
        <_>
          <internalNodes>
            0 -1 153 1.0366091504693031e-02</internalNodes>
          <leafValues>
            -7.1422040462493896e-02 6.2740164995193481e-01</leafValues></_>
        <_>
          <internalNodes>
            0 -1 17 -5.4203802719712257e-03</internalNodes>
          <leafValues>
            -4.4750648736953735e-01 8.7264537811279297e-02</leafValues></_>
        <_>
          <internalNodes>
            0 -1 129 5.5347569286823273e-04</internalNodes>
          <leafValues>
            1.4965656399726868e-01 -2.5616386532783508e-01</leafValues></_>
        <_>
          <internalNodes>
            0 -1 31 3.9453018689528108e-04</internalNodes>
          <leafValues>
            -5.2588667720556259e-02 6.9422972202301025e-01</leafValues></_>
        <_>
          <internalNodes>
            0 -1 204 5.2883384341839701e-05</internalNodes>
          <leafValues>
            -1.5222828090190887e-01 2.5183022022247314e-01</leafValues></_>
        <_>
          <internalNodes>
            0 -1 89 -2.6275835931301117e-02</internalNodes>
          <leafValues>
            3.0435907840728760e-01 -1.2294445186853409e-01</leafValues></_>
        <_>
          <internalNodes>
            0 -1 40 -6.9984467700123787e-03</internalNodes>
          <leafValues>
            -4.0743386745452881e-01 8.6185269057750702e-02</leafValues></_></weakClassifiers></_>
    <!-- stage 4 -->
    <_>
      <maxWeakCount>28</maxWeakCount>
      <stageThreshold>-1.1970309019088745e+00</stageThreshold>
      <weakClassifiers>
        <_>
          <internalNodes>
            0 -1 131 -5.4804881801828742e-04</internalNodes>
          <leafValues>
            8.2142859697341919e-01 -3.7811633944511414e-01</leafValues></_>
        <_>
          <internalNodes>
            0 -1 113 -3.7669229786843061e-03</internalNodes>
          <leafValues>
            5.8784592151641846e-01 -1.0872834175825119e-01</leafValues></_>
        <_>
          <internalNodes>
            0 -1 119 -1.4003484975546598e-03</internalNodes>
          <leafValues>
            4.2492273449897766e-01 -1.1638037115335464e-01</leafValues></_>
        <_>
          <internalNodes>
            0 -1 102 5.3797819418832660e-04</internalNodes>
          <leafValues>
            -1.7884668707847595e-01 2.9243266582489014e-01</leafValues></_>
        <_>
          <internalNodes>
            0 -1 82 -6.4019601268228143e-05</internalNodes>
          <leafValues>
            -2.0184929668903351e-01 2.4334517121315002e-01</leafValues></_>
        <_>
          <internalNodes>
            0 -1 124 -1.3636903604492545e-03</internalNodes>
          <leafValues>
            3.8576936721801758e-01 -1.1254325509071350e-01</leafValues></_>
        <_>
          <internalNodes>
            0 -1 24 -4.4010343845002353e-04</internalNodes>
          <leafValues>
            3.1339165568351746e-01 -1.5379083156585693e-01</leafValues></_>
        <_>
          <internalNodes>
            0 -1 97 1.2645521201193333e-04</internalNodes>
          <leafValues>
            -1.4250780642032623e-01 3.1764933466911316e-01</leafValues></_>
        <_>
          <internalNodes>
            0 -1 7 8.6896382272243500e-02</internalNodes>
          <leafValues>
            -1.2267690896987915e-01 5.2734464406967163e-01</leafValues></_>
        <_>
          <internalNodes>
            0 -1 72 2.6484390255063772e-03</internalNodes>
          <leafValues>
            -1.5939144790172577e-01 2.9385906457901001e-01</leafValues></_>
        <_>
          <internalNodes>
            0 -1 93 -1.0060921777039766e-03</internalNodes>
          <leafValues>
            4.8074021935462952e-01 -9.8280876874923706e-02</leafValues></_>
        <_>
          <internalNodes>
            0 -1 65 1.8231978174299002e-04</internalNodes>
          <leafValues>
            -1.5826599299907684e-01 3.4515184164047241e-01</leafValues></_>
        <_>
          <internalNodes>
            0 -1 170 -2.3960761609487236e-04</internalNodes>
          <leafValues>
            2.6701846718788147e-01 -2.1912032365798950e-01</leafValues></_>
        <_>
          <internalNodes>
            0 -1 165 -8.3714601350948215e-04</internalNodes>
          <leafValues>
            -3.9494594931602478e-01 1.5791322290897369e-01</leafValues></_>
        <_>
          <internalNodes>
            0 -1 160 -3.1276166555471718e-04</internalNodes>
          <leafValues>
            2.8948664665222168e-01 -2.1380645036697388e-01</leafValues></_>
        <_>
          <internalNodes>
            0 -1 108 -8.5408259183168411e-03</internalNodes>
          <leafValues>
            6.1344987154006958e-01 -1.1703319847583771e-01</leafValues></_>
        <_>
          <internalNodes>
            0 -1 107 -3.7344664335250854e-02</internalNodes>
          <leafValues>
            8.4157395362854004e-01 -5.9621617197990417e-02</leafValues></_>
        <_>
          <internalNodes>
            0 -1 155 3.7188461283221841e-04</internalNodes>
          <leafValues>
            -1.6834086179733276e-01 3.5952898859977722e-01</leafValues></_>
        <_>
          <internalNodes>
            0 -1 187 3.0216367449611425e-03</internalNodes>
          <leafValues>
            -9.1947495937347412e-02 6.7158675193786621e-01</leafValues></_>
        <_>
          <internalNodes>
            0 -1 173 2.0409932767506689e-04</internalNodes>
          <leafValues>
            2.5257545709609985e-01 -2.3714928328990936e-01</leafValues></_>
        <_>
          <internalNodes>
            0 -1 132 -3.1862020492553711e-02</internalNodes>
          <leafValues>
            -6.2144339084625244e-01 8.4625110030174255e-02</leafValues></_>
        <_>
          <internalNodes>
            0 -1 158 -1.5922652091830969e-03</internalNodes>
          <leafValues>
            9.2512762546539307e-01 -7.4647493660449982e-02</leafValues></_>
        <_>
          <internalNodes>
            0 -1 23 -9.0211920905858278e-04</internalNodes>
          <leafValues>
            6.2044090032577515e-01 -7.5041733682155609e-02</leafValues></_>
        <_>
          <internalNodes>
            0 -1 35 3.8987896405160427e-03</internalNodes>
          <leafValues>
            1.8612253665924072e-01 -2.9420280456542969e-01</leafValues></_>
        <_>
          <internalNodes>
            0 -1 67 1.8695414066314697e-02</internalNodes>
          <leafValues>
            -1.0048306733369827e-01 5.5829268693923950e-01</leafValues></_>
        <_>
          <internalNodes>
            0 -1 152 -1.6455925651825964e-04</internalNodes>
          <leafValues>
            3.0538785457611084e-01 -2.2282934188842773e-01</leafValues></_>
        <_>
          <internalNodes>
            0 -1 154 -2.6825710665434599e-04</internalNodes>
          <leafValues>
            4.9474647641181946e-01 -1.1710867285728455e-01</leafValues></_>
        <_>
          <internalNodes>
            0 -1 42 -1.3755650725215673e-03</internalNodes>
          <leafValues>
            3.9941251277923584e-01 -1.4879596233367920e-01</leafValues></_></weakClassifiers></_>
    <!-- stage 5 -->
    <_>
      <maxWeakCount>20</maxWeakCount>
      <stageThreshold>-1.3774412870407104e+00</stageThreshold>
      <weakClassifiers>
        <_>
          <internalNodes>
            0 -1 112 1.9810725934803486e-03</internalNodes>
          <leafValues>
            -4.4520029425621033e-01 5.0282484292984009e-01</leafValues></_>
        <_>
          <internalNodes>
            0 -1 162 7.0851901546120644e-04</internalNodes>
          <leafValues>
            -1.6647022962570190e-01 5.2859306335449219e-01</leafValues></_>
        <_>
          <internalNodes>
            0 -1 39 -7.3421178967691958e-05</internalNodes>
          <leafValues>
            4.5094272494316101e-01 -1.8298169970512390e-01</leafValues></_>
        <_>
          <internalNodes>
            0 -1 200 2.5593820028007030e-03</internalNodes>
          <leafValues>
            2.5125280022621155e-01 -3.7908816337585449e-01</leafValues></_>
        <_>
          <internalNodes>
            0 -1 46 6.5729133784770966e-02</internalNodes>
          <leafValues>
            -8.9748725295066833e-02 8.3158242702484131e-01</leafValues></_>
        <_>
          <internalNodes>
            0 -1 18 2.2527173161506653e-02</internalNodes>
          <leafValues>
            -1.4423274993896484e-01 5.0899565219879150e-01</leafValues></_>
        <_>
          <internalNodes>
            0 -1 81 -3.9235659642145038e-04</internalNodes>
          <leafValues>
            5.4804575443267822e-01 -1.8257981538772583e-01</leafValues></_>
        <_>
          <internalNodes>
            0 -1 191 -2.5145240215351805e-05</internalNodes>
          <leafValues>
            3.4464997053146362e-01 -2.8756490349769592e-01</leafValues></_>
        <_>
          <internalNodes>
            0 -1 184 4.0356401586905122e-04</internalNodes>
          <leafValues>
            2.5041443109512329e-01 -4.0818250179290771e-01</leafValues></_>
        <_>
          <internalNodes>
            0 -1 128 1.4115903759375215e-03</internalNodes>
          <leafValues>
            -1.4090083539485931e-01 6.5241372585296631e-01</leafValues></_>
        <_>
          <internalNodes>
            0 -1 9 7.7800899744033813e-03</internalNodes>
          <leafValues>
            1.3332854211330414e-01 -6.2152731418609619e-01</leafValues></_>
        <_>
          <internalNodes>
            0 -1 27 2.2768226335756481e-04</internalNodes>
          <leafValues>
            -1.8538771569728851e-01 5.4547619819641113e-01</leafValues></_>
        <_>
          <internalNodes>
            0 -1 10 1.9897408783435822e-03</internalNodes>
          <leafValues>
            3.0390733480453491e-01 -3.3749306201934814e-01</leafValues></_>
        <_>
          <internalNodes>
            0 -1 36 1.2209198903292418e-03</internalNodes>
          <leafValues>
            -1.9559150934219360e-01 5.5844986438751221e-01</leafValues></_>
        <_>
          <internalNodes>
            0 -1 134 -6.4516812562942505e-04</internalNodes>
          <leafValues>
            -5.9058719873428345e-01 1.6347120702266693e-01</leafValues></_>
        <_>
          <internalNodes>
            0 -1 3 7.4506609234958887e-04</internalNodes>
          <leafValues>
            -2.4568763375282288e-01 4.6232053637504578e-01</leafValues></_>
        <_>
          <internalNodes>
            0 -1 98 -4.3922418262809515e-04</internalNodes>
          <leafValues>
            5.9468442201614380e-01 -1.8971730768680573e-01</leafValues></_>
        <_>
          <internalNodes>
            0 -1 192 3.2818531617522240e-03</internalNodes>
          <leafValues>
            2.1233648061752319e-01 -5.1046639680862427e-01</leafValues></_>
        <_>
          <internalNodes>
            0 -1 151 1.9355963915586472e-02</internalNodes>
          <leafValues>
            -1.3074013590812683e-01 9.2111682891845703e-01</leafValues></_>
        <_>
          <internalNodes>
            0 -1 70 -3.1282495911000296e-05</internalNodes>
          <leafValues>
            4.2901250720024109e-01 -2.3876319825649261e-01</leafValues></_></weakClassifiers></_>
    <!-- stage 6 -->
    <_>
      <maxWeakCount>8</maxWeakCount>
      <stageThreshold>-1.8339887857437134e+00</stageThreshold>
      <weakClassifiers>
        <_>
          <internalNodes>
            0 -1 156 1.5213538426905870e-04</internalNodes>
          <leafValues>
            -5.1630020141601563e-01 1.</leafValues></_>
        <_>
          <internalNodes>
            0 -1 99 -3.8515630876645446e-04</internalNodes>
          <leafValues>
            6.3127684593200684e-01 -3.1249570846557617e-01</leafValues></_>
        <_>
          <internalNodes>
            0 -1 201 -7.2184030432254076e-04</internalNodes>
          <leafValues>
            8.7801653146743774e-01 -2.2986772656440735e-01</leafValues></_>
        <_>
          <internalNodes>
            0 -1 32 6.8197352811694145e-04</internalNodes>
          <leafValues>
            3.5541400313377380e-01 -6.6257154941558838e-01</leafValues></_>
        <_>
          <internalNodes>
            0 -1 59 3.2660848228260875e-04</internalNodes>
          <leafValues>
            -2.5516703724861145e-01 9.3271678686141968e-01</leafValues></_>
        <_>
          <internalNodes>
            0 -1 185 3.3089582575485110e-04</internalNodes>
          <leafValues>
            -2.2097842395305634e-01 8.8919824361801147e-01</leafValues></_>
        <_>
          <internalNodes>
            0 -1 76 -9.8167642136104405e-05</internalNodes>
          <leafValues>
            -4.2428648471832275e-01 5.1409131288528442e-01</leafValues></_>
        <_>
          <internalNodes>
            0 -1 57 1.6463686188217252e-04</internalNodes>
          <leafValues>
            -3.2020595669746399e-01 7.4141901731491089e-01</leafValues></_></weakClassifiers></_>
    <!-- stage 7 -->
    <_>
      <maxWeakCount>5</maxWeakCount>
      <stageThreshold>-1.1405227184295654e+00</stageThreshold>
      <weakClassifiers>
        <_>
          <internalNodes>
            0 -1 88 1.1001689126715064e-03</internalNodes>
          <leafValues>
            -6.1290323734283447e-01 1.</leafValues></_>
        <_>
          <internalNodes>
            0 -1 68 6.7248416598886251e-05</internalNodes>
          <leafValues>
            8.1167417764663696e-01 -4.1417706012725830e-01</leafValues></_>
        <_>
          <internalNodes>
            0 -1 13 -1.6139390936587006e-05</internalNodes>
          <leafValues>
            1. -3.1217619776725769e-01</leafValues></_>
        <_>
          <internalNodes>
            0 -1 169 -6.8487427197396755e-03</internalNodes>
          <leafValues>
            -4.6087601780891418e-01 6.9729971885681152e-01</leafValues></_>
        <_>
          <internalNodes>
            0 -1 138 -8.6386536713689566e-04</internalNodes>
          <leafValues>
            -4.9856594204902649e-01 6.8847858905792236e-01</leafValues></_></weakClassifiers></_>
    <!-- stage 8 -->
    <_>
      <maxWeakCount>4</maxWeakCount>
      <stageThreshold>-7.6763910055160522e-01</stageThreshold>
      <weakClassifiers>
        <_>
          <internalNodes>
            0 -1 125 -2.6493139564990997e-02</internalNodes>
          <leafValues>
            -7.6056337356567383e-01 1.</leafValues></_>
        <_>
          <internalNodes>
            0 -1 52 7.4628845322877169e-04</internalNodes>
          <leafValues>
            1. -5.6883591413497925e-01</leafValues></_>
        <_>
          <internalNodes>
            0 -1 80 5.2800239063799381e-04</internalNodes>
          <leafValues>
            1. -4.3823981285095215e-01</leafValues></_>
        <_>
          <internalNodes>
            0 -1 177 6.9160386919975281e-04</internalNodes>
          <leafValues>
            1. -4.0394750237464905e-01</leafValues></_></weakClassifiers></_></stages>
  <features>
    <_>
      <rects>
        <_>
          0 0 4 2 -1.</_>
        <_>
          0 0 2 1 2.</_>
        <_>
          2 1 2 1 2.</_></rects>
      <tilted>0</tilted></_>
    <_>
      <rects>
        <_>
          0 2 1 4 -1.</_>
        <_>
          0 4 1 2 2.</_></rects>
      <tilted>0</tilted></_>
    <_>
      <rects>
        <_>
          0 2 3 2 -1.</_>
        <_>
          0 3 3 1 2.</_></rects>
      <tilted>0</tilted></_>
    <_>
      <rects>
        <_>
          0 2 15 1 -1.</_>
        <_>
          5 2 5 1 3.</_></rects>
      <tilted>0</tilted></_>
    <_>
      <rects>
        <_>
          0 2 6 2 -1.</_>
        <_>
          0 3 6 1 2.</_></rects>
      <tilted>0</tilted></_>
    <_>
      <rects>
        <_>
          0 2 18 9 -1.</_>
        <_>
          6 2 6 9 3.</_></rects>
      <tilted>0</tilted></_>
    <_>
      <rects>
        <_>
          0 2 32 14 -1.</_>
        <_>
          0 2 16 7 2.</_>
        <_>
          16 9 16 7 2.</_></rects>
      <tilted>0</tilted></_>
    <_>
      <rects>
        <_>
          0 4 18 24 -1.</_>
        <_>
          0 4 9 12 2.</_>
        <_>
          9 16 9 12 2.</_></rects>
      <tilted>0</tilted></_>
    <_>
      <rects>
        <_>
          0 5 4 9 -1.</_>
        <_>
          2 5 2 9 2.</_></rects>
      <tilted>0</tilted></_>
    <_>
      <rects>
        <_>
          0 6 8 3 -1.</_>
        <_>
          4 6 4 3 2.</_></rects>
      <tilted>0</tilted></_>
    <_>
      <rects>
        <_>
          0 7 1 24 -1.</_>
        <_>
          0 15 1 8 3.</_></rects>
      <tilted>0</tilted></_>
    <_>
      <rects>
        <_>
          0 8 6 22 -1.</_>
        <_>
          2 8 2 22 3.</_></rects>
      <tilted>0</tilted></_>
    <_>
      <rects>
        <_>
          0 9 1 15 -1.</_>
        <_>
          0 14 1 5 3.</_></rects>
      <tilted>0</tilted></_>
    <_>
      <rects>
        <_>
          0 9 3 3 -1.</_>
        <_>
          0 10 3 1 3.</_></rects>
      <tilted>0</tilted></_>
    <_>
      <rects>
        <_>
          0 9 9 17 -1.</_>
        <_>
          3 9 3 17 3.</_></rects>
      <tilted>0</tilted></_>
    <_>
      <rects>
        <_>
          0 11 2 6 -1.</_>
        <_>
          1 11 1 6 2.</_></rects>
      <tilted>0</tilted></_>
    <_>
      <rects>
        <_>
          0 11 22 12 -1.</_>
        <_>
          0 17 22 6 2.</_></rects>
      <tilted>0</tilted></_>
    <_>
      <rects>
        <_>
          0 12 32 3 -1.</_>
        <_>
          0 13 32 1 3.</_></rects>
      <tilted>0</tilted></_>
    <_>
      <rects>
        <_>
          0 14 32 14 -1.</_>
        <_>
          0 14 16 7 2.</_>
        <_>
          16 21 16 7 2.</_></rects>
      <tilted>0</tilted></_>
    <_>
      <rects>
        <_>
          0 15 8 4 -1.</_>
        <_>
          0 15 4 2 2.</_>
        <_>
          4 17 4 2 2.</_></rects>
      <tilted>0</tilted></_>
    <_>
      <rects>
        <_>
          0 15 30 10 -1.</_>
        <_>
          0 15 15 5 2.</_>
        <_>
          15 20 15 5 2.</_></rects>
      <tilted>0</tilted></_>
    <_>
      <rects>
        <_>
          0 16 2 6 -1.</_>
        <_>
          0 19 2 3 2.</_></rects>
      <tilted>0</tilted></_>
    <_>
      <rects>
        <_>
          0 25 4 2 -1.</_>
        <_>
          0 26 4 1 2.</_></rects>
      <tilted>0</tilted></_>
    <_>
      <rects>
        <_>
          0 28 3 2 -1.</_>
        <_>
          0 29 3 1 2.</_></rects>
      <tilted>0</tilted></_>
    <_>
      <rects>
        <_>
          1 0 2 9 -1.</_>
        <_>
          1 3 2 3 3.</_></rects>
      <tilted>0</tilted></_>
    <_>
      <rects>
        <_>
          1 0 8 4 -1.</_>
        <_>
          1 0 4 2 2.</_>
        <_>
          5 2 4 2 2.</_></rects>
      <tilted>0</tilted></_>
    <_>
      <rects>
        <_>
          1 1 2 1 -1.</_>
        <_>
          2 1 1 1 2.</_></rects>
      <tilted>0</tilted></_>
    <_>
      <rects>
        <_>
          1 1 3 2 -1.</_>
        <_>
          2 1 1 2 3.</_></rects>
      <tilted>0</tilted></_>
    <_>
      <rects>
        <_>
          1 2 3 2 -1.</_>
        <_>
          2 2 1 2 3.</_></rects>
      <tilted>0</tilted></_>
    <_>
      <rects>
        <_>
          1 6 30 15 -1.</_>
        <_>
          16 6 15 15 2.</_></rects>
      <tilted>0</tilted></_>
    <_>
      <rects>
        <_>
          1 16 12 16 -1.</_>
        <_>
          5 16 4 16 3.</_></rects>
      <tilted>0</tilted></_>
    <_>
      <rects>
        <_>
          1 17 2 2 -1.</_>
        <_>
          1 17 1 1 2.</_>
        <_>
          2 18 1 1 2.</_></rects>
      <tilted>0</tilted></_>
    <_>
      <rects>
        <_>
          1 18 2 4 -1.</_>
        <_>
          1 18 1 2 2.</_>
        <_>
          2 20 1 2 2.</_></rects>
      <tilted>0</tilted></_>
    <_>
      <rects>
        <_>
          1 19 6 3 -1.</_>
        <_>
          3 19 2 3 3.</_></rects>
      <tilted>0</tilted></_>
    <_>
      <rects>
        <_>
          1 23 2 2 -1.</_>
        <_>
          1 24 2 1 2.</_></rects>
      <tilted>0</tilted></_>
    <_>
      <rects>
        <_>
          1 26 12 6 -1.</_>
        <_>
          1 26 6 3 2.</_>
        <_>
          7 29 6 3 2.</_></rects>
      <tilted>0</tilted></_>
    <_>
      <rects>
        <_>
          1 30 20 2 -1.</_>
        <_>
          1 30 10 1 2.</_>
        <_>
          11 31 10 1 2.</_></rects>
      <tilted>0</tilted></_>
    <_>
      <rects>
        <_>
          2 4 30 5 -1.</_>
        <_>
          17 4 15 5 2.</_></rects>
      <tilted>0</tilted></_>
    <_>
      <rects>
        <_>
          2 6 7 3 -1.</_>
        <_>
          2 7 7 1 3.</_></rects>
      <tilted>0</tilted></_>
    <_>
      <rects>
        <_>
          2 7 2 2 -1.</_>
        <_>
          2 7 1 1 2.</_>
        <_>
          3 8 1 1 2.</_></rects>
      <tilted>0</tilted></_>
    <_>
      <rects>
        <_>
          2 9 6 5 -1.</_>
        <_>
          4 9 2 5 3.</_></rects>
      <tilted>0</tilted></_>
    <_>
      <rects>
        <_>
          2 20 2 2 -1.</_>
        <_>
          2 21 2 1 2.</_></rects>
      <tilted>0</tilted></_>
    <_>
      <rects>
        <_>
          2 27 6 3 -1.</_>
        <_>
          5 27 3 3 2.</_></rects>
      <tilted>0</tilted></_>
    <_>
      <rects>
        <_>
          3 1 18 10 -1.</_>
        <_>
          9 1 6 10 3.</_></rects>
      <tilted>0</tilted></_>
    <_>
      <rects>
        <_>
          3 1 21 5 -1.</_>
        <_>
          10 1 7 5 3.</_></rects>
      <tilted>0</tilted></_>
    <_>
      <rects>
        <_>
          3 3 4 3 -1.</_>
        <_>
          5 3 2 3 2.</_></rects>
      <tilted>0</tilted></_>
    <_>
      <rects>
        <_>
          3 14 17 15 -1.</_>
        <_>
          3 19 17 5 3.</_></rects>
      <tilted>0</tilted></_>
    <_>
      <rects>
        <_>
          3 15 27 10 -1.</_>
        <_>
          12 15 9 10 3.</_></rects>
      <tilted>0</tilted></_>
    <_>
      <rects>
        <_>
          3 21 18 2 -1.</_>
        <_>
          9 21 6 2 3.</_></rects>
      <tilted>0</tilted></_>
    <_>
      <rects>
        <_>
          3 25 8 5 -1.</_>
        <_>
          7 25 4 5 2.</_></rects>
      <tilted>0</tilted></_>
    <_>
      <rects>
        <_>
          4 0 18 3 -1.</_>
        <_>
          4 1 18 1 3.</_></rects>
      <tilted>0</tilted></_>
    <_>
      <rects>
        <_>
          4 6 4 4 -1.</_>
        <_>
          4 6 2 2 2.</_>
        <_>
          6 8 2 2 2.</_></rects>
      <tilted>0</tilted></_>
    <_>
      <rects>
        <_>
          4 11 1 9 -1.</_>
        <_>
          4 14 1 3 3.</_></rects>
      <tilted>0</tilted></_>
    <_>
      <rects>
        <_>
          4 23 3 6 -1.</_>
        <_>
          4 26 3 3 2.</_></rects>
      <tilted>0</tilted></_>
    <_>
      <rects>
        <_>
          4 29 15 1 -1.</_>
        <_>
          9 29 5 1 3.</_></rects>
      <tilted>0</tilted></_>
    <_>
      <rects>
        <_>
          5 1 22 6 -1.</_>
        <_>
          5 3 22 2 3.</_></rects>
      <tilted>0</tilted></_>
    <_>
      <rects>
        <_>
          5 3 3 3 -1.</_>
        <_>
          5 4 3 1 3.</_></rects>
      <tilted>0</tilted></_>
    <_>
      <rects>
        <_>
          5 6 6 1 -1.</_>
        <_>
          7 6 2 1 3.</_></rects>
      <tilted>0</tilted></_>
    <_>
      <rects>
        <_>
          5 8 17 3 -1.</_>
        <_>
          5 9 17 1 3.</_></rects>
      <tilted>0</tilted></_>
    <_>
      <rects>
        <_>
          5 14 2 3 -1.</_>
        <_>
          6 14 1 3 2.</_></rects>
      <tilted>0</tilted></_>
    <_>
      <rects>
        <_>
          5 22 15 10 -1.</_>
        <_>
          10 22 5 10 3.</_></rects>
      <tilted>0</tilted></_>
    <_>
      <rects>
        <_>
          6 1 1 2 -1.</_>
        <_>
          6 2 1 1 2.</_></rects>
      <tilted>0</tilted></_>
    <_>
      <rects>
        <_>
          6 2 1 30 -1.</_>
        <_>
          6 12 1 10 3.</_></rects>
      <tilted>0</tilted></_>
    <_>
      <rects>
        <_>
          6 3 7 6 -1.</_>
        <_>
          6 6 7 3 2.</_></rects>
      <tilted>0</tilted></_>
    <_>
      <rects>
        <_>
          6 7 2 1 -1.</_>
        <_>
          7 7 1 1 2.</_></rects>
      <tilted>0</tilted></_>
    <_>
      <rects>
        <_>
          6 9 4 2 -1.</_>
        <_>
          6 9 2 1 2.</_>
        <_>
          8 10 2 1 2.</_></rects>
      <tilted>0</tilted></_>
    <_>
      <rects>
        <_>
          6 11 2 12 -1.</_>
        <_>
          6 17 2 6 2.</_></rects>
      <tilted>0</tilted></_>
    <_>
      <rects>
        <_>
          6 12 13 6 -1.</_>
        <_>
          6 15 13 3 2.</_></rects>
      <tilted>0</tilted></_>
    <_>
      <rects>
        <_>
          6 13 1 3 -1.</_>
        <_>
          6 14 1 1 3.</_></rects>
      <tilted>0</tilted></_>
    <_>
      <rects>
        <_>
          6 15 2 8 -1.</_>
        <_>
          7 15 1 8 2.</_></rects>
      <tilted>0</tilted></_>
    <_>
      <rects>
        <_>
          6 16 2 6 -1.</_>
        <_>
          6 18 2 2 3.</_></rects>
      <tilted>0</tilted></_>
    <_>
      <rects>
        <_>
          6 18 4 1 -1.</_>
        <_>
          8 18 2 1 2.</_></rects>
      <tilted>0</tilted></_>
    <_>
      <rects>
        <_>
          7 3 3 12 -1.</_>
        <_>
          7 7 3 4 3.</_></rects>
      <tilted>0</tilted></_>
    <_>
      <rects>
        <_>
          7 5 2 4 -1.</_>
        <_>
          7 5 1 2 2.</_>
        <_>
          8 7 1 2 2.</_></rects>
      <tilted>0</tilted></_>
    <_>
      <rects>
        <_>
          7 6 2 7 -1.</_>
        <_>
          8 6 1 7 2.</_></rects>
      <tilted>0</tilted></_>
    <_>
      <rects>
        <_>
          7 10 12 8 -1.</_>
        <_>
          7 10 6 4 2.</_>
        <_>
          13 14 6 4 2.</_></rects>
      <tilted>0</tilted></_>
    <_>
      <rects>
        <_>
          7 14 1 2 -1.</_>
        <_>
          7 15 1 1 2.</_></rects>
      <tilted>0</tilted></_>
    <_>
      <rects>
        <_>
          7 18 3 4 -1.</_>
        <_>
          8 18 1 4 3.</_></rects>
      <tilted>0</tilted></_>
    <_>
      <rects>
        <_>
          7 18 9 9 -1.</_>
        <_>
          10 18 3 9 3.</_></rects>
      <tilted>0</tilted></_>
    <_>
      <rects>
        <_>
          8 0 14 2 -1.</_>
        <_>
          15 0 7 2 2.</_></rects>
      <tilted>0</tilted></_>
    <_>
      <rects>
        <_>
          8 1 11 3 -1.</_>
        <_>
          8 2 11 1 3.</_></rects>
      <tilted>0</tilted></_>
    <_>
      <rects>
        <_>
          8 16 3 5 -1.</_>
        <_>
          9 16 1 5 3.</_></rects>
      <tilted>0</tilted></_>
    <_>
      <rects>
        <_>
          8 16 4 2 -1.</_>
        <_>
          8 16 2 1 2.</_>
        <_>
          10 17 2 1 2.</_></rects>
      <tilted>0</tilted></_>
    <_>
      <rects>
        <_>
          8 16 9 2 -1.</_>
        <_>
          8 17 9 1 2.</_></rects>
      <tilted>0</tilted></_>
    <_>
      <rects>
        <_>
          8 18 12 8 -1.</_>
        <_>
          14 18 6 8 2.</_></rects>
      <tilted>0</tilted></_>
    <_>
      <rects>
        <_>
          8 19 2 3 -1.</_>
        <_>
          9 19 1 3 2.</_></rects>
      <tilted>0</tilted></_>
    <_>
      <rects>
        <_>
          8 22 2 10 -1.</_>
        <_>
          8 22 1 5 2.</_>
        <_>
          9 27 1 5 2.</_></rects>
      <tilted>0</tilted></_>
    <_>
      <rects>
        <_>
          8 22 6 8 -1.</_>
        <_>
          10 22 2 8 3.</_></rects>
      <tilted>0</tilted></_>
    <_>
      <rects>
        <_>
          9 13 6 7 -1.</_>
        <_>
          12 13 3 7 2.</_></rects>
      <tilted>0</tilted></_>
    <_>
      <rects>
        <_>
          9 14 12 14 -1.</_>
        <_>
          15 14 6 14 2.</_></rects>
      <tilted>0</tilted></_>
    <_>
      <rects>
        <_>
          9 15 16 6 -1.</_>
        <_>
          9 18 16 3 2.</_></rects>
      <tilted>0</tilted></_>
    <_>
      <rects>
        <_>
          9 23 10 5 -1.</_>
        <_>
          14 23 5 5 2.</_></rects>
      <tilted>0</tilted></_>
    <_>
      <rects>
        <_>
          9 30 22 2 -1.</_>
        <_>
          9 30 11 1 2.</_>
        <_>
          20 31 11 1 2.</_></rects>
      <tilted>0</tilted></_>
    <_>
      <rects>
        <_>
          10 1 1 6 -1.</_>
        <_>
          10 4 1 3 2.</_></rects>
      <tilted>0</tilted></_>
    <_>
      <rects>
        <_>
          10 2 2 1 -1.</_>
        <_>
          11 2 1 1 2.</_></rects>
      <tilted>0</tilted></_>
    <_>
      <rects>
        <_>
          10 5 4 1 -1.</_>
        <_>
          12 5 2 1 2.</_></rects>
      <tilted>0</tilted></_>
    <_>
      <rects>
        <_>
          10 12 9 20 -1.</_>
        <_>
          13 12 3 20 3.</_></rects>
      <tilted>0</tilted></_>
    <_>
      <rects>
        <_>
          10 19 2 4 -1.</_>
        <_>
          10 19 1 2 2.</_>
        <_>
          11 21 1 2 2.</_></rects>
      <tilted>0</tilted></_>
    <_>
      <rects>
        <_>
          11 3 4 4 -1.</_>
        <_>
          11 3 2 2 2.</_>
        <_>
          13 5 2 2 2.</_></rects>
      <tilted>0</tilted></_>
    <_>
      <rects>
        <_>
          11 4 7 6 -1.</_>
        <_>
          11 6 7 2 3.</_></rects>
      <tilted>0</tilted></_>
    <_>
      <rects>
        <_>
          11 10 6 2 -1.</_>
        <_>
          11 11 6 1 2.</_></rects>
      <tilted>0</tilted></_>
    <_>
      <rects>
        <_>
          11 11 2 12 -1.</_>
        <_>
          11 11 1 6 2.</_>
        <_>
          12 17 1 6 2.</_></rects>
      <tilted>0</tilted></_>
    <_>
      <rects>
        <_>
          11 18 1 8 -1.</_>
        <_>
          11 22 1 4 2.</_></rects>
      <tilted>0</tilted></_>
    <_>
      <rects>
        <_>
          11 21 3 7 -1.</_>
        <_>
          12 21 1 7 3.</_></rects>
      <tilted>0</tilted></_>
    <_>
      <rects>
        <_>
          11 23 6 4 -1.</_>
        <_>
          13 23 2 4 3.</_></rects>
      <tilted>0</tilted></_>
    <_>
      <rects>
        <_>
          11 27 12 2 -1.</_>
        <_>
          15 27 4 2 3.</_></rects>
      <tilted>0</tilted></_>
    <_>
      <rects>
        <_>
          11 31 10 1 -1.</_>
        <_>
          16 31 5 1 2.</_></rects>
      <tilted>0</tilted></_>
    <_>
      <rects>
        <_>
          12 6 2 26 -1.</_>
        <_>
          12 19 2 13 2.</_></rects>
      <tilted>0</tilted></_>
    <_>
      <rects>
        <_>
          12 6 10 4 -1.</_>
        <_>
          12 8 10 2 2.</_></rects>
      <tilted>0</tilted></_>
    <_>
      <rects>
        <_>
          12 9 2 3 -1.</_>
        <_>
          12 10 2 1 3.</_></rects>
      <tilted>0</tilted></_>
    <_>
      <rects>
        <_>
          12 9 4 14 -1.</_>
        <_>
          12 9 2 7 2.</_>
        <_>
          14 16 2 7 2.</_></rects>
      <tilted>0</tilted></_>
    <_>
      <rects>
        <_>
          12 9 12 4 -1.</_>
        <_>
          16 9 4 4 3.</_></rects>
      <tilted>0</tilted></_>
    <_>
      <rects>
        <_>
          12 17 2 15 -1.</_>
        <_>
          13 17 1 15 2.</_></rects>
      <tilted>0</tilted></_>
    <_>
      <rects>
        <_>
          12 18 3 14 -1.</_>
        <_>
          13 18 1 14 3.</_></rects>
      <tilted>0</tilted></_>
    <_>
      <rects>
        <_>
          12 19 9 13 -1.</_>
        <_>
          15 19 3 13 3.</_></rects>
      <tilted>0</tilted></_>
    <_>
      <rects>
        <_>
          12 29 6 2 -1.</_>
        <_>
          14 29 2 2 3.</_></rects>
      <tilted>0</tilted></_>
    <_>
      <rects>
        <_>
          13 0 4 8 -1.</_>
        <_>
          13 0 2 4 2.</_>
        <_>
          15 4 2 4 2.</_></rects>
      <tilted>0</tilted></_>
    <_>
      <rects>
        <_>
          13 2 9 3 -1.</_>
        <_>
          13 3 9 1 3.</_></rects>
      <tilted>0</tilted></_>
    <_>
      <rects>
        <_>
          13 5 4 22 -1.</_>
        <_>
          13 5 2 11 2.</_>
        <_>
          15 16 2 11 2.</_></rects>
      <tilted>0</tilted></_>
    <_>
      <rects>
        <_>
          13 19 12 3 -1.</_>
        <_>
          13 20 12 1 3.</_></rects>
      <tilted>0</tilted></_>
    <_>
      <rects>
        <_>
          13 20 2 2 -1.</_>
        <_>
          13 21 2 1 2.</_></rects>
      <tilted>0</tilted></_>
    <_>
      <rects>
        <_>
          13 20 12 12 -1.</_>
        <_>
          17 20 4 12 3.</_></rects>
      <tilted>0</tilted></_>
    <_>
      <rects>
        <_>
          13 26 3 3 -1.</_>
        <_>
          13 27 3 1 3.</_></rects>
      <tilted>0</tilted></_>
    <_>
      <rects>
        <_>
          13 28 12 4 -1.</_>
        <_>
          13 28 6 2 2.</_>
        <_>
          19 30 6 2 2.</_></rects>
      <tilted>0</tilted></_>
    <_>
      <rects>
        <_>
          14 6 2 9 -1.</_>
        <_>
          15 6 1 9 2.</_></rects>
      <tilted>0</tilted></_>
    <_>
      <rects>
        <_>
          14 6 12 24 -1.</_>
        <_>
          18 6 4 24 3.</_></rects>
      <tilted>0</tilted></_>
    <_>
      <rects>
        <_>
          14 11 9 2 -1.</_>
        <_>
          14 12 9 1 2.</_></rects>
      <tilted>0</tilted></_>
    <_>
      <rects>
        <_>
          14 12 6 4 -1.</_>
        <_>
          14 14 6 2 2.</_></rects>
      <tilted>0</tilted></_>
    <_>
      <rects>
        <_>
          14 15 4 3 -1.</_>
        <_>
          16 15 2 3 2.</_></rects>
      <tilted>0</tilted></_>
    <_>
      <rects>
        <_>
          14 16 3 8 -1.</_>
        <_>
          15 16 1 8 3.</_></rects>
      <tilted>0</tilted></_>
    <_>
      <rects>
        <_>
          14 22 6 10 -1.</_>
        <_>
          14 22 3 5 2.</_>
        <_>
          17 27 3 5 2.</_></rects>
      <tilted>0</tilted></_>
    <_>
      <rects>
        <_>
          14 25 2 2 -1.</_>
        <_>
          14 25 1 1 2.</_>
        <_>
          15 26 1 1 2.</_></rects>
      <tilted>0</tilted></_>
    <_>
      <rects>
        <_>
          15 0 10 6 -1.</_>
        <_>
          15 3 10 3 2.</_></rects>
      <tilted>0</tilted></_>
    <_>
      <rects>
        <_>
          15 1 3 12 -1.</_>
        <_>
          15 7 3 6 2.</_></rects>
      <tilted>0</tilted></_>
    <_>
      <rects>
        <_>
          15 3 2 2 -1.</_>
        <_>
          16 3 1 2 2.</_></rects>
      <tilted>0</tilted></_>
    <_>
      <rects>
        <_>
          15 4 2 18 -1.</_>
        <_>
          15 10 2 6 3.</_></rects>
      <tilted>0</tilted></_>
    <_>
      <rects>
        <_>
          15 11 3 2 -1.</_>
        <_>
          15 12 3 1 2.</_></rects>
      <tilted>0</tilted></_>
    <_>
      <rects>
        <_>
          15 24 8 6 -1.</_>
        <_>
          15 26 8 2 3.</_></rects>
      <tilted>0</tilted></_>
    <_>
      <rects>
        <_>
          16 1 4 4 -1.</_>
        <_>
          18 1 2 4 2.</_></rects>
      <tilted>0</tilted></_>
    <_>
      <rects>
        <_>
          16 2 12 1 -1.</_>
        <_>
          22 2 6 1 2.</_></rects>
      <tilted>0</tilted></_>
    <_>
      <rects>
        <_>
          16 2 8 3 -1.</_>
        <_>
          16 3 8 1 3.</_></rects>
      <tilted>0</tilted></_>
    <_>
      <rects>
        <_>
          16 3 2 24 -1.</_>
        <_>
          16 15 2 12 2.</_></rects>
      <tilted>0</tilted></_>
    <_>
      <rects>
        <_>
          16 13 3 3 -1.</_>
        <_>
          17 13 1 3 3.</_></rects>
      <tilted>0</tilted></_>
    <_>
      <rects>
        <_>
          16 14 2 6 -1.</_>
        <_>
          16 14 1 3 2.</_>
        <_>
          17 17 1 3 2.</_></rects>
      <tilted>0</tilted></_>
    <_>
      <rects>
        <_>
          16 14 4 18 -1.</_>
        <_>
          18 14 2 18 2.</_></rects>
      <tilted>0</tilted></_>
    <_>
      <rects>
        <_>
          16 16 9 9 -1.</_>
        <_>
          19 16 3 9 3.</_></rects>
      <tilted>0</tilted></_>
    <_>
      <rects>
        <_>
          16 18 3 8 -1.</_>
        <_>
          17 18 1 8 3.</_></rects>
      <tilted>0</tilted></_>
    <_>
      <rects>
        <_>
          16 26 10 6 -1.</_>
        <_>
          16 26 5 3 2.</_>
        <_>
          21 29 5 3 2.</_></rects>
      <tilted>0</tilted></_>
    <_>
      <rects>
        <_>
          17 3 2 4 -1.</_>
        <_>
          17 3 1 2 2.</_>
        <_>
          18 5 1 2 2.</_></rects>
      <tilted>0</tilted></_>
    <_>
      <rects>
        <_>
          17 3 12 17 -1.</_>
        <_>
          21 3 4 17 3.</_></rects>
      <tilted>0</tilted></_>
    <_>
      <rects>
        <_>
          17 5 10 23 -1.</_>
        <_>
          22 5 5 23 2.</_></rects>
      <tilted>0</tilted></_>
    <_>
      <rects>
        <_>
          17 7 11 9 -1.</_>
        <_>
          17 10 11 3 3.</_></rects>
      <tilted>0</tilted></_>
    <_>
      <rects>
        <_>
          17 10 3 4 -1.</_>
        <_>
          18 10 1 4 3.</_></rects>
      <tilted>0</tilted></_>
    <_>
      <rects>
        <_>
          17 16 4 12 -1.</_>
        <_>
          17 16 2 6 2.</_>
        <_>
          19 22 2 6 2.</_></rects>
      <tilted>0</tilted></_>
    <_>
      <rects>
        <_>
          17 21 1 3 -1.</_>
        <_>
          17 22 1 1 3.</_></rects>
      <tilted>0</tilted></_>
    <_>
      <rects>
        <_>
          17 27 1 4 -1.</_>
        <_>
          17 29 1 2 2.</_></rects>
      <tilted>0</tilted></_>
    <_>
      <rects>
        <_>
          17 28 1 3 -1.</_>
        <_>
          17 29 1 1 3.</_></rects>
      <tilted>0</tilted></_>
    <_>
      <rects>
        <_>
          18 4 6 4 -1.</_>
        <_>
          20 4 2 4 3.</_></rects>
      <tilted>0</tilted></_>
    <_>
      <rects>
        <_>
          18 5 2 4 -1.</_>
        <_>
          18 5 1 2 2.</_>
        <_>
          19 7 1 2 2.</_></rects>
      <tilted>0</tilted></_>
    <_>
      <rects>
        <_>
          18 5 1 20 -1.</_>
        <_>
          18 15 1 10 2.</_></rects>
      <tilted>0</tilted></_>
    <_>
      <rects>
        <_>
          18 5 12 4 -1.</_>
        <_>
          18 5 6 2 2.</_>
        <_>
          24 7 6 2 2.</_></rects>
      <tilted>0</tilted></_>
    <_>
      <rects>
        <_>
          18 14 1 2 -1.</_>
        <_>
          18 15 1 1 2.</_></rects>
      <tilted>0</tilted></_>
    <_>
      <rects>
        <_>
          18 20 8 2 -1.</_>
        <_>
          18 20 4 1 2.</_>
        <_>
          22 21 4 1 2.</_></rects>
      <tilted>0</tilted></_>
    <_>
      <rects>
        <_>
          18 21 6 5 -1.</_>
        <_>
          20 21 2 5 3.</_></rects>
      <tilted>0</tilted></_>
    <_>
      <rects>
        <_>
          18 22 2 2 -1.</_>
        <_>
          18 22 1 1 2.</_>
        <_>
          19 23 1 1 2.</_></rects>
      <tilted>0</tilted></_>
    <_>
      <rects>
        <_>
          18 22 3 3 -1.</_>
        <_>
          19 22 1 3 3.</_></rects>
      <tilted>0</tilted></_>
    <_>
      <rects>
        <_>
          18 27 8 5 -1.</_>
        <_>
          22 27 4 5 2.</_></rects>
      <tilted>0</tilted></_>
    <_>
      <rects>
        <_>
          19 1 6 6 -1.</_>
        <_>
          21 1 2 6 3.</_></rects>
      <tilted>0</tilted></_>
    <_>
      <rects>
        <_>
          19 15 2 6 -1.</_>
        <_>
          20 15 1 6 2.</_></rects>
      <tilted>0</tilted></_>
    <_>
      <rects>
        <_>
          19 19 10 4 -1.</_>
        <_>
          24 19 5 4 2.</_></rects>
      <tilted>0</tilted></_>
    <_>
      <rects>
        <_>
          19 22 4 10 -1.</_>
        <_>
          19 22 2 5 2.</_>
        <_>
          21 27 2 5 2.</_></rects>
      <tilted>0</tilted></_>
    <_>
      <rects>
        <_>
          19 26 2 2 -1.</_>
        <_>
          20 26 1 2 2.</_></rects>
      <tilted>0</tilted></_>
    <_>
      <rects>
        <_>
          20 4 3 7 -1.</_>
        <_>
          21 4 1 7 3.</_></rects>
      <tilted>0</tilted></_>
    <_>
      <rects>
        <_>
          20 7 9 2 -1.</_>
        <_>
          23 7 3 2 3.</_></rects>
      <tilted>0</tilted></_>
    <_>
      <rects>
        <_>
          20 24 2 4 -1.</_>
        <_>
          20 24 1 2 2.</_>
        <_>
          21 26 1 2 2.</_></rects>
      <tilted>0</tilted></_>
    <_>
      <rects>
        <_>
          20 26 4 2 -1.</_>
        <_>
          22 26 2 2 2.</_></rects>
      <tilted>0</tilted></_>
    <_>
      <rects>
        <_>
          21 8 2 20 -1.</_>
        <_>
          22 8 1 20 2.</_></rects>
      <tilted>0</tilted></_>
    <_>
      <rects>
        <_>
          21 21 4 4 -1.</_>
        <_>
          21 21 2 2 2.</_>
        <_>
          23 23 2 2 2.</_></rects>
      <tilted>0</tilted></_>
    <_>
      <rects>
        <_>
          21 29 1 3 -1.</_>
        <_>
          21 30 1 1 3.</_></rects>
      <tilted>0</tilted></_>
    <_>
      <rects>
        <_>
          22 1 2 18 -1.</_>
        <_>
          22 7 2 6 3.</_></rects>
      <tilted>0</tilted></_>
    <_>
      <rects>
        <_>
          22 1 10 16 -1.</_>
        <_>
          27 1 5 16 2.</_></rects>
      <tilted>0</tilted></_>
    <_>
      <rects>
        <_>
          22 9 6 2 -1.</_>
        <_>
          25 9 3 2 2.</_></rects>
      <tilted>0</tilted></_>
    <_>
      <rects>
        <_>
          22 10 9 1 -1.</_>
        <_>
          25 10 3 1 3.</_></rects>
      <tilted>0</tilted></_>
    <_>
      <rects>
        <_>
          22 19 2 12 -1.</_>
        <_>
          22 19 1 6 2.</_>
        <_>
          23 25 1 6 2.</_></rects>
      <tilted>0</tilted></_>
    <_>
      <rects>
        <_>
          22 19 2 3 -1.</_>
        <_>
          22 20 2 1 3.</_></rects>
      <tilted>0</tilted></_>
    <_>
      <rects>
        <_>
          22 19 2 4 -1.</_>
        <_>
          22 21 2 2 2.</_></rects>
      <tilted>0</tilted></_>
    <_>
      <rects>
        <_>
          22 27 10 2 -1.</_>
        <_>
          27 27 5 2 2.</_></rects>
      <tilted>0</tilted></_>
    <_>
      <rects>
        <_>
          23 0 3 12 -1.</_>
        <_>
          24 0 1 12 3.</_></rects>
      <tilted>0</tilted></_>
    <_>
      <rects>
        <_>
          23 0 6 1 -1.</_>
        <_>
          25 0 2 1 3.</_></rects>
      <tilted>0</tilted></_>
    <_>
      <rects>
        <_>
          23 17 3 14 -1.</_>
        <_>
          24 17 1 14 3.</_></rects>
      <tilted>0</tilted></_>
    <_>
      <rects>
        <_>
          24 0 2 2 -1.</_>
        <_>
          25 0 1 2 2.</_></rects>
      <tilted>0</tilted></_>
    <_>
      <rects>
        <_>
          24 18 8 2 -1.</_>
        <_>
          24 18 4 1 2.</_>
        <_>
          28 19 4 1 2.</_></rects>
      <tilted>0</tilted></_>
    <_>
      <rects>
        <_>
          24 23 6 3 -1.</_>
        <_>
          26 23 2 3 3.</_></rects>
      <tilted>0</tilted></_>
    <_>
      <rects>
        <_>
          25 0 2 1 -1.</_>
        <_>
          26 0 1 1 2.</_></rects>
      <tilted>0</tilted></_>
    <_>
      <rects>
        <_>
          25 8 2 6 -1.</_>
        <_>
          25 8 1 3 2.</_>
        <_>
          26 11 1 3 2.</_></rects>
      <tilted>0</tilted></_>
    <_>
      <rects>
        <_>
          25 31 6 1 -1.</_>
        <_>
          28 31 3 1 2.</_></rects>
      <tilted>0</tilted></_>
    <_>
      <rects>
        <_>
          26 0 2 1 -1.</_>
        <_>
          27 0 1 1 2.</_></rects>
      <tilted>0</tilted></_>
    <_>
      <rects>
        <_>
          26 2 2 2 -1.</_>
        <_>
          26 2 1 1 2.</_>
        <_>
          27 3 1 1 2.</_></rects>
      <tilted>0</tilted></_>
    <_>
      <rects>
        <_>
          26 2 5 2 -1.</_>
        <_>
          26 3 5 1 2.</_></rects>
      <tilted>0</tilted></_>
    <_>
      <rects>
        <_>
          26 6 4 14 -1.</_>
        <_>
          26 6 2 7 2.</_>
        <_>
          28 13 2 7 2.</_></rects>
      <tilted>0</tilted></_>
    <_>
      <rects>
        <_>
          26 7 3 18 -1.</_>
        <_>
          27 7 1 18 3.</_></rects>
      <tilted>0</tilted></_>
    <_>
      <rects>
        <_>
          26 18 3 6 -1.</_>
        <_>
          27 18 1 6 3.</_></rects>
      <tilted>0</tilted></_>
    <_>
      <rects>
        <_>
          26 28 6 1 -1.</_>
        <_>
          28 28 2 1 3.</_></rects>
      <tilted>0</tilted></_>
    <_>
      <rects>
        <_>
          27 0 2 8 -1.</_>
        <_>
          27 4 2 4 2.</_></rects>
      <tilted>0</tilted></_>
    <_>
      <rects>
        <_>
          27 4 2 3 -1.</_>
        <_>
          27 5 2 1 3.</_></rects>
      <tilted>0</tilted></_>
    <_>
      <rects>
        <_>
          27 5 3 22 -1.</_>
        <_>
          28 5 1 22 3.</_></rects>
      <tilted>0</tilted></_>
    <_>
      <rects>
        <_>
          29 1 2 12 -1.</_>
        <_>
          29 1 1 6 2.</_>
        <_>
          30 7 1 6 2.</_></rects>
      <tilted>0</tilted></_>
    <_>
      <rects>
        <_>
          29 28 2 4 -1.</_>
        <_>
          29 28 1 2 2.</_>
        <_>
          30 30 1 2 2.</_></rects>
      <tilted>0</tilted></_>
    <_>
      <rects>
        <_>
          30 26 2 1 -1.</_>
        <_>
          31 26 1 1 2.</_></rects>
      <tilted>0</tilted></_>
    <_>
      <rects>
        <_>
          31 3 1 6 -1.</_>
        <_>
          31 5 1 2 3.</_></rects>
      <tilted>0</tilted></_>
    <_>
      <rects>
        <_>
          31 27 1 3 -1.</_>
        <_>
          31 28 1 1 3.</_></rects>
      <tilted>0</tilted></_></features></cascade>
</opencv_storage>
